1 -0.4773459 0.2963135 -0.5773154 0.3134123 -0.6820032 0.305474 -0.298493 0.3163606 -0.8048065 0.3042357 -0.5728285 0.1973898 -0.2767085 0.1807283 -0.6737291 0.1932632 -0.1787847 0.1373162 -0.2760779 0.140776
2 -1.043074 0.3179259 -0.8153413 0.2977101 -1.105324 0.3138991 -0.4440081 0.285313 -0.7672552 0.326276 -0.7441318 0.2135566 -0.5158814 0.2009441 -0.5496236 0.1867303 -0.4324253 0.1295187 -0.2853458 0.1382689
3 -0.4521741 0.288035 -0.880162 0.2946437 -0.1667748 0.2889563 -0.9044563 0.2993645 -0.5232481 0.3110241 -0.5134508 0.1894967 -0.1672657 0.1929547 -0.724448 0.1983932 -0.3967269 0.13334 -0.3016683 0.1447007
4 -0.4893853 0.3152582 -0.5353588 0.2888231 -1.370636 0.3460791 -0.760114 0.294562 -0.7032996 0.2908252 -0.3586054 0.2198306 -0.4724162 0.1846721 -0.3705731 0.1885481 -0.3013229 0.1315189 -0.5683241 0.1322897
5 -0.5753641 0.2887954 -0.3989077 0.3174592 -0.6466272 0.2966868 -0.5654467 0.2973528 -0.7391835 0.290001 -0.3158627 0.182762 -0.4513856 0.1837229 -0.6322469 0.2013659 -0.4029806 0.1329277 -0.5135494 0.1284138
6 -0.6760944 0.3152225 -0.3639654 0.2852006 -0.4150215 0.2892411 -0.978468 0.3057413 -0.5654467 0.2973528 -0.259173 0.1802508 -0.3297533 0.1920103 -0.784119 0.1918855 -0.3568225 0.1292032 -0.6520714 0.131461
7 -0.4624058 0.3059994 -0.2418458 0.2842782 -0.5118946 0.322848 -0.32396 0.2852287 -0.7383294 0.3442248 0.2106187 0.195959 -0.2422579 0.1863112 -0.3287238 0.1973258 -0.5155832 0.1380097 -0.2847319 0.1277806
8 -0.6090641 0.3094803 -0.6760944 0.3152225 -1.024504 0.2926136 -0.6781093 0.32822 -0.4361539 0.2967999 -0.1615785 0.1798646 -0.5692103 0.2001971 -0.6197786 0.2059824 -0.7672552 0.1324259 -0.5165243 0.1298744
9 -0.2839227 0.285313 -0.315081 0.3008638 -0.5891575 0.3039774 -0.4040416 0.3419828 -0.2578291 0.2936493 -0.3350587 0.1883605 -0.5272032 0.1888386 -0.6518655 0.1871627 -0.472639 0.1398661 -0.35096 0.1421977
10 -0.5934292 0.2936214 -0.545017 0.3178497 -0.6204627 0.3126092 -0.589272 0.3168931 -0.6781093 0.32822 -0.5589931 0.1854392 -0.492301 0.1853395 -0.6247707 0.1828968 -0.4670854 0.1286355 -0.3547293 0.1336281
11 -0.4706044 0.3088329 -0.6962384 0.3330662 -0.5314187 0.2998443 -0.6498909 0.2875804 -0.5880407 0.2921864 -0.222377 0.1851915 -0.2321362 0.1823306 -0.8797331 0.2050574 -0.3746934 0.1340854 -0.228941 0.1383481
12 -0.4221322 0.2918008 -0.2525908 0.2906091 -0.4795731 0.3119123 -0.6466272 0.3197359 -0.4626235 0.2914915 -0.1962327 0.1810006 -0.4035694 0.1970447 -0.3826743 0.1965077 -0.4516152 0.1287301 -0.3934744 0.1284813
13 -0.7641174 0.3045893 -0.6190392 0.2897517 -0.7418251 0.3319723 -0.4922115 0.2879515 -0.6681797 0.2919664 -0.6671423 0.20093 -0.5226968 0.1848272 -0.4639871 0.1938775 -0.391731 0.1371997 -0.3755801 0.1311128
14 -0.8165262 0.2898054 -0.5336403 0.3142937 -0.4988949 0.290001 -0.8979416 0.3061654 -0.3442197 0.294224 -0.6052459 0.1905412 -0.4579911 0.1851215 -0.6393757 0.185202 -0.4706044 0.1381143 -0.4815482 0.1284099
15 -0.6135329 0.2989429 -0.4122448 0.3041433 -0.2483862 0.2881479 -0.4895482 0.2871321 -0.5658078 0.2862242 -0.6742814 0.1831744 -0.0942032 0.1941687 -0.7930001 0.1885661 -0.4704049 0.135338 -0.4325991 0.1282899
16 -0.7694305 0.2881077 -0.978468 0.3057413 -0.3525602 0.3187087 -0.7882278 0.2920488 -0.3627787 0.2847225 -0.2288883 0.1879132 -0.6183317 0.189867 -0.4811472 0.19368 -0.5134508 0.1339944 -0.4658415 0.1320693
17 -0.3105711 0.2986563 -0.5075144 0.2926302 -1.007641 0.29644 -0.3898064 0.2954577 -0.6190392 0.2897517 0.1266966 0.1903461 -0.2587515 0.1801021 -0.441539 0.1816236 -0.509426 0.1346382 -0.5040334 0.135108
18 -0.5050743 0.3052547 -0.6869552 0.29644 -0.6513001 0.3088166 -0.5314187 0.2998443 -0.3804638 0.331482 -0.503112 0.187472 -0.2632906 0.1943453 -0.2525908 0.2056476 -0.3041727 0.1321518 -0.5290771 0.1283607
19 -0.9044563 0.2993645 -0.7641174 0.3045893 -0.5029516 0.2912403 -0.3627787 0.2847225 -0.8001193 0.2945349 -0.3391449 0.1846723 -0.5187198 0.193997 -0.4120255 0.1945172 -0.409995 0.1312434 -0.3025512 0.1424595
20 -0.5353588 0.2888231 -0.2679025 0.2994175 -0.6046245 0.2860954 -0.315081 0.3008638 -0.7537718 0.2931823 -0.3254224 0.1808101 -0.3483067 0.1872138 -0.1627593 0.1805258 -0.4928745 0.1335226 -0.3316208 0.130758
21 -0.5336403 0.3142937 -0.6405034 0.3060092 -0.2763448 0.3041763 -0.718763 0.3144996 -0.5029516 0.2912403 -0.2624566 0.1814053 -0.3586574 0.2004759 -0.4887347 0.2034554 -0.3982973 0.1292923 -0.4847918 0.1288628
22 -0.5118946 0.322848 -0.5861751 0.330531 -0.6626105 0.3006705 -0.5589572 0.2955253 -0.4361539 0.2967999 -0.4616028 0.2017734 -0.4806507 0.1830231 -0.4150215 0.1952504 -0.372595 0.1336978 -0.3934744 0.1284813
23 -0.6737291 0.2932916 -0.9258242 0.3035119 -0.3718742 0.2883707 -0.4440081 0.285313 -0.6498909 0.2875804 -0.5888157 0.1822303 -0.4068029 0.1978621 -0.6562459 0.199119 -0.6571147 0.1398295 -0.3557175 0.1338192
24 -0.4553876 0.3401659 -0.4454704 0.2858018 -0.1443423 0.3104092 -0.4269293 0.3097273 -0.8048065 0.3042357 -0.2797226 0.1873714 -0.2833944 0.1829349 -0.532878 0.1899145 -0.4068029 0.1399097 -0.4742063 0.1372695
25 -0.2503657 0.289309 -0.4655471 0.3240768 -0.5001261 0.3188943 -0.6479829 0.2871211 -0.5248061 0.3271514 -0.4190873 0.1838591 -0.5114418 0.2000251 -0.1864115 0.2037784 -0.4763259 0.1299615 -0.4304839 0.1292162
26 -0.3904272 0.3139453 -0.7472144 0.3106302 -0.4521741 0.288035 -0.7939519 0.3018934 -0.6232889 0.2908252 -0.391317 0.2040348 -0.2525908 0.1837974 -0.463756 0.1863361 -0.532723 0.1309276 -0.5793161 0.1336539
27 -0.4444945 0.3163113 -0.8299061 0.3096375 -0.4221322 0.2918008 -0.4192584 0.3068198 -0.3064596 0.2966316 -0.2263315 0.1800112 -0.5310536 0.1863865 -0.4019599 0.1877415 -0.6295343 0.1420536 -0.6159677 0.1360188
28 -0.5137517 0.3080179 -0.6405034 0.3060092 -0.6760944 0.3152225 -0.7887141 0.310103 -0.4263339 0.2933054 -0.2284831 0.1808742 -0.6393757 0.185202 -0.6183317 0.189867 -0.4851707 0.131222 -0.515491 0.1354837
29 -0.7271535 0.2962491 -0.8540775 0.3246537 -0.3483067 0.296011 -0.5994486 0.29522 -0.5880407 0.2921864 -0.4678209 0.1804489 -0.3434496 0.18587 -0.2525908 0.1837974 -0.7046103 0.1362524 -0.437144 0.1277607
30 -0.5654467 0.2973528 -0.8299061 0.3096375 -0.654222 0.2985827 -0.5790339 0.2897793 -0.4895482 0.2871321 -0.3320516 0.1826845 -0.3157582 0.1993157 -0.6093794 0.2006531 -0.3351323 0.1388674 -0.5236633 0.1308204
31 -0.3814431 0.2921694 -0.4221322 0.2918008 -0.6076549 0.286866 -0.7887141 0.310103 -0.8197099 0.2904481 -0.4454338 0.1860151 -0.4372467 0.1879575 -0.8536807 0.1990582 -0.5347789 0.1311954 -0.6590445 0.1295932
32 -0.5336403 0.3142937 -0.6931472 0.3082206 -0.315081 0.3008638 -0.6204627 0.3126092 -0.6135329 0.2989429 -0.2469721 0.1817145 -0.5141857 0.1832305 -0.3275517 0.181414 -0.4922115 0.1287758 -0.3443924 0.1333146
33 -0.6051274 0.2862234 -0.6397767 0.2949719 -0.4552198 0.2890455 -0.5245245 0.2977749 -0.2411621 0.2838724 0.2015907 0.1834758 -0.3992475 0.2061682 -0.6295188 0.1836477 -0.5360095 0.1302899 -0.3831403 0.1340242
34 -0.3212048 0.328448 -0.8452979 0.3039391 -0.3654598 0.2858018 -0.9141145 0.2936214 -0.7350414 0.298035 -0.5152453 0.1933074 -0.6751462 0.1962897 -0.6786684 0.1862385 -0.5844836 0.1364553 -0.4627446 0.1316091
35 -0.6947134 0.2982805 -0.6325226 0.3293263 -0.9088558 0.2926302 -0.7481904 0.2919664 -0.4095055 0.2872437 -0.364311 0.1915868 -0.5888157 0.1822303 -0.570978 0.1846673 -0.2142631 0.1285146 -0.3694936 0.1382256
36 -0.298493 0.3163606 -0.4873176 0.2864445 -0.6718492 0.3029629 -1.030958 0.2937334 -0.8553787 0.2976293 -0.4760827 0.1854218 -0.259173 0.1802508 -0.7427764 0.1861281 -0.4733362 0.1357798 -0.5550173 0.1296125
37 -0.4521741 0.288035 -0.5674565 0.2866688 0.4122448 0.3041433 -0.8401246 0.294562 -0.3778772 0.2907584 -0.432513 0.1908324 -0.4826089 0.1802409 -0.42216 0.1808965 -0.4755828 0.1418114 -0.3530614 0.1386775
38 -0.5726107 0.2993628 -0.2827681 0.2847225 -0.4719207 0.2945429 -0.7433369 0.2909078 -0.5773154 0.3134123 -0.2490494 0.1961203 -0.6632942 0.1839166 -0.4596245 0.1820399 -0.3428392 0.1281015 -0.4140113 0.1305281
39 -0.6466272 0.3197359 -0.4971494 0.302717 -0.901701 0.3156175 -0.9946226 0.3012235 -1.083763 0.3175872 -0.6216882 0.1995264 -0.1657111 0.1821648 -0.2314424 0.1820548 -0.392779 0.1311766 -0.4418627 0.1297115
40 -0.4655471 0.3240768 -0.7472144 0.3106302 -0.3946542 0.2973507 -0.7271535 0.2962491 -0.6626105 0.3006705 -0.2898155 0.1850322 -0.5455859 0.1923106 -0.4549134 0.1918832 -0.5094534 0.1440164 -0.5920554 0.1292362
41 -0.5353588 0.2888231 -0.7271535 0.2962491 -0.6523611 0.2881745 -0.5336403 0.3142937 -0.6955085 0.2890455 -0.3938145 0.1900144 -0.3853158 0.1836838 -0.6631313 0.1972504 -0.6267525 0.1332685 -0.4814655 0.1397808
42 -1.232722 0.3080399 -0.6718492 0.3029629 -0.6626105 0.3006705 -0.3814431 0.2921694 -0.3610133 0.284009 -0.3261278 0.196526 -0.6007314 0.1869286 -0.4417412 0.1852099 -0.5934467 0.1435037 -0.4494423 0.1321486
43 -0.5674565 0.2866688 -0.5773154 0.3134123 -0.7291634 0.2878092 -0.5389965 0.3021089 -0.9202636 0.2947801 -0.54242 0.1986612 -0.1358847 0.1843959 -0.2632906 0.1943453 -0.6183317 0.1342562 -0.5565409 0.1318579
44 -0.2679025 0.2994175 -0.3405208 0.292599 -0.5589572 0.2955253 -0.3342021 0.2898054 -1.034628 0.3012501 -0.3470727 0.1917946 -0.6490899 0.1920971 -0.2948579 0.1924664 -0.4371224 0.134265 -0.4499169 0.137745
45 -0.3694039 0.2873836 -0.5232481 0.3110241 -0.4825218 0.2849592 -0.7346469 0.3076892 -0.4058358 0.301682 -0.177622 0.1798274 -0.2624566 0.1814053 -0.5600447 0.18861 -0.5928527 0.1364014 -0.4827959 0.1371991
46 -1.005963 0.3033001 -0.5234441 0.2854031 0.1784077 0.2989291 -0.6204627 0.3126092 -0.4058358 0.301682 -0.2328654 0.18262 -0.6216882 0.1904248 -0.3840132 0.2076713 -0.5229654 0.1296522 -0.4947929 0.1376333
47 -0.2572955 0.3215458 -0.3694039 0.2873836 -0.6023722 0.320684 -1.007641 0.29644 -0.3377835 0.3117745 -0.5141813 0.2089989 -0.2529578 0.1904366 -0.7125243 0.1888271 -0.4279138 0.1300997 -0.5100355 0.1290107
48 -0.5790339 0.2897793 -0.8109302 0.325427 -0.5314187 0.2998443 -0.6027123 0.3355536 -0.4120725 0.2881745 -0.147151 0.1919215 -0.5030311 0.1982766 -0.1309693 0.1935411 -0.5414156 0.1289154 -0.4448484 0.1301674
49 -0.4183685 0.2904481 -0.6626105 0.3006705 -0.2578291 0.2936493 -0.3227734 0.2846944 -0.942893 0.3151601 -0.2270984 0.1803193 -0.3365484 0.1940278 -0.4499169 0.1948009 -0.6083855 0.1311419 -0.5842531 0.1311966
50 -0.96096 0.3187736 -0.4549134 0.303394 -0.483116 0.2851465 -0.4183685 0.3254136 -1.064996 0.3141322 -0.3742395 0.1942597 -0.3050687 0.1845253 -0.5030311 0.1982766 -0.4473976 0.1318346 -0.3622925 0.130217
51 -0.7887141 0.310103 -0.120628 0.3475269 -0.4073069 0.2864445 -0.4893853 0.3152582 -0.5861751 0.330531 -0.3287238 0.1973258 -0.2898315 0.1971017 -0.6051274 0.1849265 -0.5706452 0.1392898 -0.2821844 0.1374868
52 -0.6616312 0.3237908 -0.4706044 0.3088329 0.3778772 0.2907584 -0.4988949 0.290001 -0.8236369 0.2912403 -0.2785704 0.1813452 -0.4598327 0.1855101 -0.4893853 0.1993868 -0.3417453 0.134547 -0.2006322 0.1384033
53 -0.6690496 0.3396611 -0.2466415 0.2871211 -0.6947134 0.2982805 -0.9659258 0.3033794 -0.8639649 0.2914915 -0.4436925 0.1933883 -0.3654516 0.1828309 -0.7931678 0.1931394 -0.3436096 0.1282489 -0.4385189 0.1291997
54 -0.9353894 0.2976293 -0.4122448 0.3041433 -0.4015047 0.2843256 -0.7625757 0.337204 -0.7357068 0.2892411 -0.7865342 0.1945983 -0.6600984 0.1858938 -0.3254224 0.1808101 -0.3826743 0.1355512 -0.4792903 0.1292247
55 -0.6122595 0.288035 -0.6631313 0.3118803 0.2763448 0.3041763 -0.3371881 0.2911283 -0.9493471 0.2929382 -0.3389799 0.1947455 -0.3858131 0.1798646 -0.6143292 0.1864385 -0.526042 0.1290008 -0.1775185 0.1301241
56 -0.2888775 0.2878348 -0.6681797 0.2919664 -0.8602013 0.3161355 -0.4221322 0.2918008 -0.5804962 0.3015667 -0.7134123 0.1865591 -0.3815883 0.1827654 -0.8162864 0.1894916 -0.5981925 0.1318774 -0.2721385 0.1306535
57 -0.6498909 0.2875804 -0.5126097 0.2941773 -0.5478424 0.2923799 -1.064996 0.3141322 -0.3755834 0.30772 -0.2445762 0.1808197 -0.6690496 0.2077197 -0.4949508 0.1928167 -0.394534 0.1377067 -0.2656545 0.1333318
58 -0.7081851 0.291939 -0.6955085 0.2890455 -0.5322168 0.2879237 -0.5574813 0.3217194 -0.8443458 0.3127373 -0.4083848 0.1892898 -0.485354 0.1985192 -0.3952086 0.2050838 -0.6588844 0.1313147 -0.524308 0.1277474
59 -0.3814431 0.2921694 -0.3631672 0.3024355 -0.1228033 0.2862234 -0.6027123 0.3355536 -0.7937771 0.2932096 -0.7545091 0.1833572 -0.3188714 0.1942757 -0.3690975 0.1928791 -0.2136833 0.1283389 -0.5770908 0.1389391
60 -0.5232481 0.3110241 -0.785508 0.3429614 -0.7481904 0.2919664 -0.901701 0.3156175 -0.6632942 0.2907976 -0.447189 0.1828303 -0.4566041 0.1814144 -0.6416545 0.1855604 -0.4145165 0.1334162 -0.6325541 0.1359237
61 -0.718763 0.3144996 -0.4183685 0.2904481 -0.2789569 0.3350406 -0.6632942 0.2907976 -0.9115175 0.3088833 -0.3938145 0.1900144 -0.4040211 0.1882392 -0.5773681 0.2134269 -0.3604871 0.1283754 -0.2773778 0.1386393
62 -0.8708284 0.3092315 -0.8072925 0.2960321 -0.5726107 0.2993628 -0.3377835 0.3117745 -0.4192584 0.3068198 -0.6290332 0.1976155 -0.4424548 0.1973475 -0.4702908 0.2037595 -0.4068029 0.1399097 -0.3448838 0.1351795
63 -0.3292056 0.2875804 -0.5232481 0.3110241 -0.4773459 0.2963135 -0.4122448 0.3041433 -0.3371881 0.2911283 -0.7757442 0.1907231 -0.547272 0.1863047 -0.4775931 0.1892293 -0.4453329 0.1432302 -0.5170783 0.1357044
64 -0.3313284 0.3087051 -0.4922115 0.2879515 0.7127714 0.3025479 -0.7495613 0.3219938 -0.9808293 0.3227486 -0.3833899 0.1873995 -0.3774309 0.1817368 -0.1634846 0.1809299 -0.4183685 0.1455294 -0.4338031 0.1297331
65 -0.7350414 0.298035 -0.3528071 0.2979685 -0.3898064 0.2954577 -0.6281424 0.2920488 -0.5880407 0.2921864 -0.4229127 0.1810637 -0.3389799 0.1947455 -0.1986707 0.1995936 -0.5170783 0.1357044 -0.5606165 0.135652
66 -0.6204627 0.3126092 -0.3916718 0.3365049 -0.7137665 0.2932096 -0.3694039 0.2873836 -0.3690975 0.3049687 -0.3516936 0.193102 -0.6367032 0.1958528 -0.4760827 0.1854218 -0.528772 0.1360985 -0.5157248 0.1297682
67 -0.3826743 0.310706 -0.5574813 0.3217194 -0.4150215 0.2892411 -0.6947134 0.2982805 -0.4221322 0.2918008 -0.1957271 0.1888403 -0.6275805 0.2110715 -0.3452986 0.1818277 -0.3470727 0.1356192 -0.354131 0.1370293
68 -0.5001261 0.3188943 -1.024504 0.3144192 -0.3227734 0.2846944 -0.3483067 0.296011 -0.5773154 0.3134123 -0.2039422 0.1845522 -0.5900667 0.197188 -0.8362153 0.1899563 -0.739715 0.1429312 -0.5388956 0.1362708
69 -0.3702823 0.3268672 -0.7137665 0.2932096 -0.4495429 0.2871599 -0.7495613 0.3219938 -0.6405034 0.3060092 -0.3882059 0.2088423 -0.5572821 0.1881127 -0.6183317 0.189867 -0.5010857 0.1346904 -0.5236633 0.1308204
70 -0.4054651 0.2857738 -0.8243173 0.2995791 -0.4150215 0.2892411 -0.3854117 0.2937334 -1.002698 0.3271264 -0.7351806 0.1873444 -0.4494423 0.1868864 -0.2644542 0.2021873 -0.3039536 0.1427964 -0.4425394 0.1285787
71 -0.7758389 0.30722 -0.3989077 0.3174592 -0.654222 0.2985827 -0.5994486 0.29522 -0.4719207 0.2945429 -0.1828028 0.1913909 -0.2811674 0.1940787 -0.4061596 0.1808993 -0.5814184 0.1289229 -0.5040126 0.1292853
72 -0.654222 0.2985827 -0.4480718 0.3010011 -0.2839227 0.285313 -0.4922115 0.2879515 -0.5137517 0.3080179 -0.4294294 0.194296 -0.3242302 0.1804713 -0.2826675 0.1883722 -0.6543942 0.1299518 -0.5241728 0.1379396
73 -0.2135741 0.2926136 -0.784119 0.2997678 -0.6090641 0.3094803 -0.4899189 0.3003895 -0.7481904 0.2919664 -0.432513 0.1950215 -0.4702705 0.187702 -0.6033782 0.187372 -0.6948131 0.1453103 -0.4586535 0.1406432
74 -0.5314187 0.2998443 -0.8153413 0.2977101 -0.8072925 0.2960321 -0.5050743 0.3052547 -0.5256094 0.2860265 -0.4367643 0.1841206 -0.378386 0.1819735 -0.7001468 0.1870048 -0.6960254 0.1318023 -0.3236225 0.1384173
75 -0.718763 0.3144996 -1.043074 0.3179259 -0.3672695 0.2865285 -0.5118946 0.322848 -0.6204627 0.3126092 -0.3452986 0.1818277 -0.5589931 0.1854392 -0.4010596 0.1918155 -0.4195524 0.128774 -0.5107153 0.1336166
76 -0.8318555 0.3418005 -0.3313284 0.3087051 -0.950043 0.3458802 -0.2578291 0.2936493 -0.679975 0.2947801 -0.5969873 0.2018346 -0.1196372 0.1849495 -0.4145561 0.1866736 -0.5294902 0.1426661 -0.2624899 0.1452671
77 -0.7641174 0.3045893 -0.5029516 0.2912403 -0.3854117 0.2937334 -0.5726107 0.2993628 -0.545017 0.3178497 -0.3769515 0.1949847 -0.3962338 0.1863532 -0.2243812 0.1860332 -0.260497 0.1366806 -0.4867128 0.1326418
78 -0.5574813 0.3217194 -0.7437909 0.3000119 -0.3254224 0.3058744 -0.2018084 0.2843628 -0.2679025 0.2994175 -0.7159601 0.2058116 -0.5665132 0.2033377 -0.7038425 0.1952301 -0.3812051 0.1386761 -0.5318837 0.1430092
79 -0.6090641 0.3094803 -0.8602013 0.3161355 -0.2113988 0.2911051 -1.128268 0.3106916 -0.4773459 0.2963135 -0.4619709 0.1825247 -0.7865342 0.1945983 -0.3586574 0.2004759 -0.2382423 0.1283445 -0.4832946 0.1321515
80 -0.6190392 0.2897517 -0.5711536 0.3259342 -0.4873176 0.2864445 -0.8243173 0.2995791 -0.6616312 0.3237908 -0.1514069 0.1835287 -0.4497022 0.1990308 -0.4616028 0.2017734 -0.4148077 0.1306582 -0.3584103 0.1326668
81 -0.4586966 0.2901959 -0.6718492 0.3029629 -0.6096925 0.2873836 -0.7231952 0.3050014 -0.9665881 0.3388624 -0.5266947 0.1855742 -0.2826675 0.1883722 -0.6019325 0.1899775 -0.6122181 0.1499443 -0.4455064 0.134209
82 -0.7271535 0.2962491 -0.5934292 0.2936214 -0.08793007 0.2965907 -0.6681797 0.2919664 -0.4626235 0.2914915 -0.1396479 0.1869423 -0.211454 0.1805404 -0.452926 0.1840497 -0.2537632 0.1281351 -0.4408657 0.130828
83 -0.9946226 0.3012235 -0.7625757 0.337204 -0.5336403 0.3142937 -0.5256094 0.2860265 -0.895384 0.2976024 -0.3056403 0.1960256 -0.4887347 0.2034554 -0.6671423 0.20093 -0.4082975 0.1309617 -0.5206968 0.1326535
84 -0.6090641 0.3094803 -0.4552198 0.2890455 -0.4095055 0.2872437 0.2032282 0.3192185 -0.6281424 0.2920488 -0.2125534 0.2065189 -0.3747968 0.1852222 -0.4185462 0.1876037 -0.1798555 0.1279606 -0.1822264 0.1318503
85 -0.679975 0.2947801 -0.5389965 0.3318418 -0.5726107 0.2993628 -0.6737291 0.2932916 -0.5126097 0.2941773 -0.3060161 0.1798308 -0.3378263 0.1843042 -0.5369214 0.184424 -0.4278798 0.1327799 -0.3172056 0.1312719
86 -0.6962384 0.3330662 -0.4899189 0.3003895 -0.315081 0.3008638 -0.8236369 0.2912403 -0.3448405 0.3151017 -0.4517208 0.204074 -0.7558957 0.2090758 -0.4662044 0.190499 -0.5023942 0.1429557 -0.3050264 0.128675
87 -0.8342799 0.3016509 -0.5711536 0.3259342 -0.6405034 0.3060092 -0.8153413 0.2977101 -0.6397767 0.2949719 -0.3516059 0.1835236 -0.2736509 0.1914222 -0.6347364 0.2123857 -0.6427409 0.1485784 -0.3419553 0.1311365
88 -0.9264601 0.3118732 -0.589272 0.3168931 -0.5790339 0.2897793 -0.5029516 0.2912403 -0.5722221 0.2879515 -0.1784077 0.1890594 -0.3299845 0.1868943 -0.2921968 0.19792 -0.3518726 0.1330742 -0.7915476 0.1474946
89 0.3403258 0.3383414 -0.4655471 0.3240768 -0.3577496 0.3001064 -0.3690975 0.3049687 -0.6884743 0.287435 -0.373858 0.1992761 -0.2385768 0.1918972 -0.9305055 0.2069598 -0.4370879 0.1402226 -0.4181693 0.1312062
90 -0.7346469 0.3076892 -0.895384 0.2976024 -0.3218565 0.2842782 -0.3610133 0.3226208 -0.5050743 0.3052547 -0.4141845 0.2047358 -0.2939848 0.1810782 -0.2490494 0.1961203 -0.3628879 0.136947 -0.4478244 0.1388951
91 -0.785508 0.3429614 -0.8774422 0.3407347 -0.4019955 0.2845041 -0.8452979 0.3039391 -0.5389965 0.3021089 -0.7859102 0.1969698 -0.35692 0.1849425 -0.71116 0.1936821 -0.395463 0.1274696 -0.8334647 0.1304259
92 -0.4893853 0.3152582 -0.6329471 0.3160189 -0.4039707 0.2852287 -0.6090641 0.3094803 -0.3218565 0.2842782 -0.6183317 0.189867 -0.5396467 0.1819976 -0.7721054 0.2028367 -0.2957607 0.1284349 -0.5533668 0.1394354
93 -0.3989077 0.3174592 -0.2763448 0.3041763 -0.3814431 0.2921694 -0.187199 0.3062607 -0.3904272 0.3139453 -0.5299292 0.1962113 -0.3427726 0.1905713 -0.3718233 0.184464 -0.4873176 0.1281019 -0.3217607 0.1340775
94 -0.4353181 0.3128842 -0.718763 0.3144996 -0.3916718 0.3365049 -0.2513144 0.3177298 0.2094434 0.2897429 -0.3217607 0.1896142 -0.3130918 0.1984531 -0.3989077 0.1829917 -0.3600637 0.128298 -0.6502665 0.1411814
95 -0.4626235 0.2914915 -0.8109302 0.325427 -0.5574813 0.3217194 -0.6122595 0.3554993 -0.5994486 0.29522 -0.372595 0.1890773 -0.3618939 0.2014057 -0.3297533 0.1920103 -0.503333 0.1291934 -0.4006976 0.142302
96 -0.3448405 0.3151017 -0.32396 0.2852287 -0.3746934 0.2894941 -0.8553787 0.2976293 -1.01857 0.3056098 -0.2263315 0.1800112 -0.3920628 0.1989865 -0.9364898 0.1902881 -0.4004437 0.1371205 -0.2324964 0.1290283
97 -0.6479829 0.2871211 -0.6931472 0.3082206 -0.6947134 0.2982805 -0.4183685 0.2904481 -0.2921968 0.312939 -0.100365 0.1829504 -0.4108705 0.1858115 -0.9756506 0.1991201 -0.4155677 0.1432121 -0.583701 0.1397932
98 0.2263131 0.3370615 -0.4444945 0.3163113 -0.4873176 0.2864445 0.4495429 0.2871599 -0.6232889 0.2908252 -0.3954236 0.1998681 -0.4155692 0.1910099 -0.3261278 0.196526 -0.4888673 0.1423746 -0.2534628 0.1280582
99 -0.5546261 0.3369636 -0.4795731 0.3119123 -0.7391835 0.290001 -0.9841307 0.332642 -0.5804962 0.3015667 -0.4914994 0.1958633 -0.452926 0.1840497 -0.5065612 0.1817926 -0.4009585 0.132582 -0.3001708 0.1443334
100 -0.784119 0.2997678 -0.3778772 0.2907584 -0.4971494 0.302717 -0.7939519 0.3018934 -0.3577496 0.3001064 -0.3434496 0.18587 -0.1880995 0.1850946 -0.3746934 0.1896253 -0.5520753 0.1302582 -0.3789571 0.1332672
101 -0.4626235 0.2914915 -0.8535136 0.289455 -0.6204627 0.3126092 -0.5256094 0.2860265 -0.7927086 0.3212122 -0.555649 0.1820061 -0.4545394 0.1843916 -0.579296 0.2181725 -0.6134393 0.1367675 -0.3505072 0.1363068
102 -0.8443458 0.3127373 -0.2910548 0.2889368 -0.8243173 0.2995791 -0.4095055 0.2872437 -0.2910548 0.2889368 -0.259011 0.1861515 -0.9832431 0.216565 -0.3319379 0.1926609 -0.5127742 0.1304656 -0.6234673 0.1424678
103 -0.2076971 0.2885212 -0.7760348 0.2894941 -0.1840036 0.3036153 -0.3814431 0.2921694 0.1784077 0.2989291 -0.6220666 0.1824684 -0.4424548 0.1973475 -0.3791291 0.1907797 -0.2958396 0.1432665 -0.6168834 0.1465521
104 0.187199 0.3062607 -0.5880407 0.2921864 -0.4495429 0.2871599 -0.8973083 0.3342255 -0.4703789 0.3460139 -0.2980449 0.1876901 -0.2680289 0.1833497 -0.4726184 0.1881926 -0.4698724 0.1302143 -0.5803801 0.1327445
105 -0.5773154 0.3134123 -0.3746934 0.2894941 -0.7700856 0.2882453 -0.6718492 0.3029629 -0.2679025 0.2994175 -0.2476607 0.1819709 -0.2167182 0.190301 -0.5549036 0.1847149 -0.4130859 0.1346449 -0.301635 0.1355582
106 -0.901701 0.3156175 -0.467023 0.2929382 -0.3105711 0.2986563 -0.6023722 0.320684 -0.4552198 0.2890455 -0.4470941 0.2130748 -0.2875155 0.1900097 -0.5728285 0.1973898 -0.3664183 0.1475399 -0.6021824 0.1354046
107 -0.4263339 0.2933054 -0.6027123 0.3355536 -0.6616312 0.3237908 -0.6632942 0.2907976 -0.5232481 0.3110241 -0.3100427 0.1810355 -0.5695909 0.1816688 -0.4748423 0.1923422 -0.5065583 0.1342373 -0.4903984 0.1307883
108 -0.3755834 0.30772 -0.4073069 0.2864445 -0.4353181 0.3128842 -0.6466272 0.2966868 -0.880162 0.2946437 -0.5494453 0.1837455 -0.4792903 0.1827514 -0.3853205 0.1878859 -0.3265619 0.1370362 -0.5728793 0.1383935
109 -0.8574502 0.3064599 -0.1682514 0.2902403 -0.2993288 0.2930916 -0.293513 0.2901766 -0.8123216 0.2889563 -0.4891062 0.1880683 -0.2754308 0.1920542 -0.3316118 0.1873656 -0.5360055 0.1395867 -0.5252361 0.1321329
110 -0.8153413 0.2977101 -0.5075144 0.2926302 -0.6931472 0.3082206 -0.4418328 0.2988071 -0.2458493 0.3142065 -0.4083848 0.1892898 -0.5518008 0.1813344 -0.3452986 0.1818277 -0.3912448 0.1354813 -0.3746167 0.1429773
111 -0.8602013 0.2907584 -0.8873032 0.2960321 -0.3377835 0.3117745 -0.3313284 0.3087051 -1.05341 0.3373007 -0.4068029 0.1978621 -0.2892532 0.1905936 -0.8365969 0.1838591 -0.3119863 0.1423376 -0.3072731 0.1291574
112 -0.5986563 0.3066096 -0.4553876 0.3401659 -0.4073069 0.2864445 -0.8353772 0.3205028 -0.6090641 0.3094803 -0.3276456 0.1913809 -0.3815323 0.1869305 -0.4190873 0.1838591 -0.5070918 0.1355404 -0.4371224 0.134265
113 -0.7793819 0.2901959 -0.4624058 0.3059994 -0.6455468 0.2865341 -1.245053 0.3476725 -0.545017 0.3178497 -0.1949661 0.1804109 -0.4181265 0.1960082 -0.3647976 0.196771 -0.7789786 0.144152 -0.3871706 0.1380514
114 -0.4183685 0.3254136 -0.6869552 0.29644 -0.4626235 0.2914915 -0.5182681 0.2958893 -0.5075144 0.2926302 -0.4275059 0.1896796 -0.3214679 0.1844116 -0.9365742 0.2155053 -0.5070918 0.1355404 -0.3056827 0.132486
115 -0.4624058 0.3059994 -0.6632942 0.2907976 -0.6204627 0.3126092 -0.4624058 0.3059994 -0.3053816 0.3200679 -0.4354348 0.2001931 -0.4390215 0.1965465 -0.630443 0.18638 -0.4175256 0.1435628 -0.2435349 0.137113
116 -0.5273549 0.2865285 -0.2763448 0.3041763 -0.4473122 0.2864166 -0.5832515 0.2909078 -0.2113988 0.2911051 -0.2744684 0.185574 -0.4126762 0.1862342 -0.4779378 0.1929998 -0.4499169 0.137745 -0.5012695 0.130017
117 -0.9860676 0.292599 -0.6554069 0.2889063 -0.4473122 0.2864166 -0.9844669 0.2993645 -0.7137665 0.2932096 -0.4206604 0.188095 -0.2824843 0.1826359 -0.5088189 0.1956518 -0.4499169 0.137745 -0.5670702 0.1321335
118 -0.3315461 0.2886245 -0.7694305 0.2881077 -0.6466272 0.3197359 -0.5574813 0.3217194 -0.3898064 0.2954577 -0.4172299 0.200481 -0.5455859 0.1923106 -0.4811472 0.19368 -0.5769916 0.146563 -0.573488 0.1298965
119 -0.3027199 0.2947797 -0.7357068 0.2892411 -0.6718492 0.3029629 -0.5137517 0.3080179 -0.4922115 0.2879515 -0.2724599 0.1793134 -0.3518726 0.1881953 -0.5927231 0.188406 -0.2929223 0.1356382 -0.463517 0.1479925
120 -0.6513001 0.3088166 -0.2608728 0.2954029 -0.7200766 0.2946437 -0.2458493 0.3142065 -0.5753641 0.2887954 -0.5023942 0.2021699 -0.2723464 0.2052334 -0.6708414 0.1875433 -0.3851469 0.1360028 -0.4123475 0.1330537
121 -0.5029516 0.2912403 -0.5137517 0.3080179 -0.4480718 0.3010011 -0.5001261 0.3188943 -0.6090641 0.3094803 -0.4999532 0.1805404 -0.5718859 0.2043723 -0.4757889 0.2097171 -0.5623076 0.1315396 -0.2494888 0.1313775
122 -0.1667748 0.2889563 -0.4269293 0.3097273 -0.6466272 0.2966868 -0.4183685 0.3254136 -0.6281424 0.2920488 -0.4181265 0.1960082 -0.9328511 0.1938376 -0.3895984 0.1847345 -0.3685105 0.1283619 -0.2114436 0.1388378
123 -0.8574502 0.3064599 -0.4706044 0.3088329 -0.3639654 0.2852006 -0.6051274 0.2862234 -0.5232481 0.3110241 -0.1736049 0.1966012 -0.4397266 0.1812353 -0.5526766 0.19364 -0.5640935 0.1361014 -0.4490651 0.1283507
124 -0.7391835 0.290001 -0.7032996 0.3003124 -0.5295536 0.2871599 -0.7472144 0.3106302 -0.8581088 0.3480741 -0.2275284 0.1804917 -0.3901573 0.1809078 -0.4298695 0.1826037 -0.5205047 0.1374266 -0.4263108 0.1339286
125 -0.6153695 0.2888231 -0.4353181 0.3128842 -0.4773459 0.2963135 -0.5564203 0.307278 -0.4122448 0.3041433 -0.3428392 0.1811628 -0.4281366 0.1984364 -0.588758 0.1906638 -0.4941794 0.1337086 -0.471938 0.129333
126 -0.7053673 0.3112217 -0.7495613 0.3219938 -0.7032996 0.3003124 -0.6329471 0.3160189 -0.7937771 0.2932096 -0.3934744 0.1817 -0.3686257 0.1880372 -0.3444292 0.1815929 -0.6910715 0.1395819 -0.5330754 0.1278589
127 -0.5674565 0.2866688 -0.5248061 0.3271514 -0.3371881 0.2911283 -1.303776 0.3341615 -0.4418328 0.2988071 -0.3838995 0.192015 -0.3365484 0.1940278 -0.35692 0.1849425 -0.5829703 0.1421303 -0.4952059 0.1390462
128 -0.942893 0.3151601 -0.7534605 0.302192 -0.4549134 0.303394 -0.5564203 0.307278 -0.4893853 0.3152582 -0.4855078 0.1808101 -0.3678243 0.1834404 -0.5984257 0.1954444 -0.515592 0.1308438 -0.397702 0.1291924
129 -0.7127714 0.3025479 -0.7350414 0.298035 -0.5832515 0.2909078 -0.6466272 0.2867945 -0.2679025 0.2994175 -0.4317199 0.1993003 -0.5334018 0.1837819 -0.4141845 0.2047358 -0.5865791 0.1451701 -0.4537235 0.1302623
130 -0.5248061 0.3271514 -0.9674422 0.2962491 -0.524308 0.285652 -0.9949339 0.2941773 -0.4418328 0.334818 -0.240054 0.1854512 -0.4562273 0.1847488 -0.2328654 0.18262 -0.4883528 0.1394091 -0.3811383 0.1277502
131 -0.4549134 0.303394 -0.6405034 0.3060092 -0.3027199 0.2947797 -0.4706044 0.3088329 -0.2642236 0.2973225 -0.4342654 0.1800595 -0.3915709 0.189454 -0.6997622 0.1894052 -0.3900802 0.1385869 -0.5431499 0.1301597
132 -0.4353181 0.3128842 -0.7901394 0.3578191 -0.5564203 0.307278 -0.7350414 0.298035 -0.4833325 0.2982589 -0.3741508 0.1809219 -0.4905609 0.1817954 -0.5272032 0.1888386 -0.2614117 0.136924 -0.2737529 0.1401716
133 -0.4895482 0.2871321 -0.4269293 0.3097273 -0.4309984 0.2949691 -0.4795731 0.3119123 -0.5322168 0.2879237 -0.3217607 0.1896142 -0.3274381 0.2030574 -1.059062 0.2140465 -0.582344 0.1340284 -0.5432173 0.1380642
134 -0.3528071 0.2979685 -0.5245245 0.2977749 -0.5248061 0.3271514 -0.6718492 0.3029629 -0.5353588 0.2888231 -0.7195179 0.1898539 -0.4635303 0.1899259 -0.5966395 0.2130681 -0.5109005 0.1348441 -0.4883528 0.1394091
135 -0.7495613 0.3219938 -0.7137665 0.2932096 -0.4893853 0.3152582 -0.4521741 0.288035 -0.960462 0.3277531 -0.2965365 0.1872054 -0.4914994 0.1958633 -0.3732784 0.1848354 -0.6088155 0.1321532 -0.35096 0.1421977
136 -0.5126097 0.2941773 -0.5910047 0.3487224 -0.3371881 0.2911283 -0.5934292 0.2936214 -0.874646 0.3292112 -0.545017 0.1858959 -0.4172299 0.200481 -0.4619709 0.1825247 -0.3141458 0.1343462 -0.5601149 0.1442414
137 -0.5389965 0.3021089 -0.3528071 0.2979685 -0.3377835 0.3117745 -0.9671491 0.3115279 -0.6466272 0.2966868 -0.5927231 0.188406 -0.4043571 0.1842803 -0.3342021 0.1933332 -0.6613356 0.1324774 -0.4999181 0.1370622
138 -0.4183685 0.2904481 -0.6631313 0.3118803 -0.5389965 0.3021089 -0.32396 0.2852287 -0.5711536 0.3259342 -0.432513 0.1908324 -0.5221262 0.2063456 -0.2910548 0.1854346 -0.5367534 0.1293439 -0.6317225 0.1319356
139 -0.6681797 0.2919664 -0.6869552 0.29644 -0.2888775 0.2878348 -0.6076549 0.286866 -1.145132 0.3210676 -0.382771 0.1830572 -0.6023722 0.2028184 -0.6414752 0.1881451 -0.4137951 0.1291544 -0.6990065 0.1404681
140 -0.4440081 0.285313 -0.5075144 0.2926302 -0.3904272 0.3139453 -0.4418328 0.2988071 -0.5234441 0.2854031 -0.2886669 0.1794035 -0.3746934 0.1896253 -0.4702908 0.2037595 -0.6429864 0.1332092 -0.3111277 0.1377197
141 -0.6616312 0.3237908 -0.5711536 0.3259342 -0.4058358 0.301682 -0.718763 0.3144996 -0.4073069 0.2864445 -0.07260081 0.190555 -0.5084899 0.1852632 -0.7151535 0.1844918 -0.6498053 0.138975 -0.4165601 0.1383286
142 -0.8685277 0.2923799 -0.6869552 0.29644 -0.4263339 0.2933054 -0.4893853 0.3152582 -0.6466272 0.2966868 -0.3269137 0.1860024 -0.5690537 0.1843344 -0.6728107 0.1829557 -0.3534735 0.135108 -0.7849731 0.1333504
143 -0.3292056 0.2875804 -0.6167404 0.3248163 -0.3105711 0.2986563 -0.6955085 0.2890455 -0.7537718 0.2931823 -0.4354348 0.2001931 -0.4905609 0.1817954 -0.5141857 0.1832305 -0.6253204 0.1403973 -0.3470727 0.1356192
144 -0.5994486 0.29522 -0.8001193 0.2945349 -0.6061358 0.2969906 -0.4309984 0.2949691 0.4421938 0.2847026 -0.4750584 0.1887016 -0.3989077 0.2007788 -0.5856613 0.1963931 -0.2966085 0.1387104 -0.714793 0.1320586
145 -0.8167611 0.3068109 -0.718763 0.3144996 -0.3254224 0.3058744 -0.3442197 0.294224 -0.3999856 0.2994219 -0.346414 0.202706 -0.3619868 0.1959887 -0.3598577 0.1903782 -0.5773154 0.131353 -0.6175029 0.1294071
146 -0.4586966 0.2901959 -0.4586966 0.2901959 0.1986707 0.3155851 -0.2427307 0.284807 -0.6931472 0.3082206 -0.6367032 0.1958528 -0.4893853 0.1993868 -0.3365637 0.183951 -0.3734624 0.1278099 -0.4745884 0.1346473
147 -0.4361539 0.2967999 -0.1784077 0.2989291 -0.4899189 0.3003895 -0.5232481 0.3110241 -1.145522 0.3137188 -0.3016683 0.1834738 -0.8040479 0.1900543 -0.6151016 0.1893295 -0.4718572 0.135557 -0.3232033 0.136313
148 -0.718763 0.3144996 -0.5654467 0.2973528 -0.9258242 0.3035119 -0.4120725 0.2881745 -0.8299061 0.3096375 -0.4760827 0.1854218 -0.3915709 0.189454 -0.3797619 0.1957338 -0.5491967 0.138873 -0.5506937 0.1290743
149 -0.7760348 0.2894941 -0.9838152 0.3147613 -0.589272 0.3168931 -0.5589572 0.2955253 -0.9923369 0.3083539 -0.2737529 0.1982326 -0.5369214 0.184424 -0.6137586 0.2048908 -0.5663955 0.1387323 -0.3389799 0.1377059
150 -0.7481904 0.2919664 -0.4521741 0.288035 -1.02726 0.2930916 -0.6631313 0.3118803 -0.4719207 0.2945429 -0.5692103 0.2001971 -0.6191105 0.1845585 -0.2965365 0.1872054 -0.4498703 0.1309314 -0.2270817 0.1407579
151 -0.3448405 0.3151017 -0.4899189 0.3003895 -0.545017 0.3178497 -0.5934292 0.2936214 -0.5336403 0.3142937 -0.7395943 0.1927911 -0.4418328 0.1889822 -0.4557269 0.1812325 -0.4422867 0.1350896 -0.4257272 0.1450248
152 -0.5314187 0.2998443 -0.2572955 0.3215458 -0.2807134 0.2836683 -0.5314187 0.2998443 -0.2483862 0.2881479 -0.2898155 0.1850322 -0.3980682 0.1867988 -0.5892635 0.2076996 -0.429603 0.1514522 -0.568055 0.1292376
153 -0.6931472 0.3082206 -0.679975 0.2947801 -0.5273549 0.2865285 -0.9044563 0.2993645 -0.9409833 0.3333968 -0.4019599 0.1877415 -0.5105058 0.1856504 -0.3853205 0.1878859 -0.5536811 0.1447124 -0.5513764 0.1502201
154 -0.4028161 0.284807 -0.3814431 0.2921694 -0.6498909 0.3342574 -0.3814431 0.2921694 -0.4971494 0.302717 -0.11513 0.1814219 -0.6346901 0.1897627 -0.6991532 0.1844891 -0.3362747 0.1352524 -0.4229971 0.1394361
155 -0.1840036 0.3036153 -0.7081851 0.291939 -0.5891575 0.3039774 -0.2864375 0.3097805 -0.7694305 0.2881077 -0.4715085 0.1996463 -0.3793967 0.1822237 -0.3598577 0.1903782 -0.3612063 0.1331979 -0.3196514 0.1300216
156 -0.3916718 0.3365049 -0.4899189 0.3003895 -0.8644189 0.2994448 -0.6096925 0.2873836 -0.3718742 0.2883707 -0.5030311 0.1982766 -0.259011 0.1861515 -0.2998214 0.200538 -0.3962203 0.1397118 -0.2557587 0.1286449
157 -0.5232481 0.3110241 -0.4873176 0.2864445 -1.007641 0.3112382 -0.3814431 0.2921694 -0.4895482 0.2871321 -0.4034403 0.2072893 -0.7545091 0.1833572 -0.795227 0.1845892 -0.7069809 0.1478662 -0.4346799 0.1338737
158 -0.4719207 0.2945429 0.5245245 0.2977749 -0.8167611 0.3068109 -0.6955085 0.2890455 -0.6405034 0.3060092 -0.5832515 0.2065517 -0.7545091 0.1833572 -0.411529 0.182133 -0.4817996 0.1357181 -0.553917 0.1420581
159 -0.8540775 0.3246537 -0.4269293 0.3097273 -0.2864375 0.3097805 -0.3528071 0.2979685 -0.6466272 0.2966868 -0.4806507 0.1830231 -0.3236225 0.1957516 -0.4598327 0.1855101 -0.3891386 0.1277487 -0.3708868 0.138494
160 -0.3702823 0.3268672 -0.4058358 0.301682 -0.6523611 0.2881745 -0.3989077 0.3174592 -0.2076971 0.2885212 -0.4706044 0.1953231 -0.4658671 0.2027499 -0.3500557 0.1876958 -0.3046114 0.1285857 -0.393011 0.1284031
161 -0.4353181 0.3128842 -0.5353588 0.2888231 -0.6135329 0.2989429 -0.6061358 0.2969906 -0.467023 0.2929382 -0.5389965 0.1910704 -0.5358801 0.1904822 -0.3619868 0.1959887 -0.335953 0.1299521 -0.5981575 0.1309016
162 -0.4626235 0.2914915 0.4269293 0.3097273 -0.3528071 0.2979685 -0.3672695 0.2865285 -0.3254224 0.3058744 -0.1722459 0.195825 -0.4418328 0.1889822 -0.3468154 0.1970436 -0.4013242 0.146176 -0.4082462 0.1295834
163 -0.5314187 0.2998443 -0.5564203 0.307278 0.4081919 0.3212724 -0.4873176 0.2864445 -1.151996 0.357239 -0.5518008 0.1813344 -0.6518655 0.1871627 -0.7303136 0.2081157 -0.4589021 0.1310367 -0.5875002 0.1336163
164 -1.225661 0.3135139 -0.4776276 0.3284756 -0.3528071 0.2979685 -0.4444945 0.3163113 -0.7760348 0.2894941 -0.2989425 0.1938213 -0.4549134 0.1810637 -0.8460967 0.2167938 -0.471549 0.1304573 -0.5223016 0.1352124
165 -0.3946542 0.2973507 -0.4418328 0.2988071 -0.5118946 0.322848 -1.115562 0.3498391 -0.3525602 0.3187087 -0.4165121 0.18713 -0.2491492 0.1825241 -0.3292056 0.1818818 -0.4971494 0.1353792 -0.4740257 0.1320312
166 -0.9194603 0.3192865 -0.3292056 0.2875804 -0.6153695 0.2888231 -0.4895482 0.2871321 -0.4833325 0.2982589 -0.4176664 0.1835356 -0.3468154 0.1970436 -0.6632942 0.1839166 -0.6466272 0.1429902 -0.2943796 0.1318828
167 -0.6090641 0.3094803 -0.7328875 0.2886245 -0.4183685 0.3254136 -0.3377835 0.3117745 -0.3814431 0.2921694 -0.2816175 0.1823508 -0.3202437 0.1840524 -0.3122618 0.1816954 -0.6023396 0.1333654 -0.4507756 0.1364373
168 -0.4095055 0.2872437 -0.7625757 0.337204 -0.3405208 0.292599 -0.315081 0.3008638 -0.2466415 0.2871211 -0.5023942 0.2021699 -0.4063458 0.1931215 -0.4255264 0.1816434 -0.6046658 0.1297709 -0.6615195 0.1298586
169 -0.7162282 0.3383806 -0.7641174 0.3045893 -0.5546261 0.3369636 -0.4624058 0.3059994 -0.4418328 0.2988071 -0.1805261 0.1901866 -0.7867795 0.1996421 -0.6660047 0.1819417 -0.2692549 0.1279472 -0.5094103 0.1289273
170 -0.4263339 0.2933054 -0.315081 0.3008638 -0.315081 0.3008638 -0.9546172 0.3012501 -0.6626105 0.3006705 -0.4373444 0.2054629 -0.4374678 0.1807506 -0.7231952 0.1928998 -0.2134706 0.1364275 -0.619922 0.1315278
171 -0.3654598 0.2858018 -0.3371881 0.2911283 -0.3639654 0.2852006 -0.6498909 0.2875804 -0.7761181 0.3173638 -0.4851765 0.1839253 -0.5820308 0.1865728 -0.4978992 0.2012111 -0.432513 0.137901 -0.406162 0.1334701
172 -0.7058862 0.3228518 -0.32396 0.2852287 -0.4429177 0.2849481 -0.9115175 0.3088833 -0.6466272 0.3197359 -0.5613355 0.2023378 -0.2874861 0.1842738 -0.5353588 0.204946 -0.3526537 0.1468584 -0.5221262 0.1459084
173 -0.6135329 0.2989429 -0.7137665 0.2932096 -0.3315461 0.2886245 -0.1129869 0.3363026 -0.6306572 0.3034386 -0.3220185 0.1798394 -0.6268709 0.2004303 -0.432513 0.1950215 -0.4467795 0.1451647 -0.5714418 0.1370484
174 -0.6122595 0.288035 -0.3755834 0.30772 -0.3105711 0.2986563 -0.5478424 0.2923799 -0.467023 0.2929382 -0.3139681 0.1822015 -0.6971713 0.1842006 -0.7638537 0.1963216 -0.5922321 0.1374264 -0.5029349 0.1280614
175 -0.5232481 0.3110241 -0.2036227 0.285652 -0.5473104 0.3045818 -0.8001193 0.2945349 -0.4953214 0.2889063 -0.6111366 0.1945419 -0.4760827 0.1854218 -0.5334018 0.1837819 -0.4633126 0.1280914 -0.5273549 0.1291711
176 -0.4480718 0.3010011 -0.8443458 0.3127373 -0.6616312 0.3237908 -0.2550738 0.2920538 -0.9376819 0.2908036 -0.5357697 0.1813032 -0.7612137 0.1842675 -0.6023722 0.2028184 -0.2924693 0.1277052 -0.5666941 0.1290723
177 -0.960462 0.3277531 -0.9115175 0.3088833 0.09047758 0.300864 -0.5314187 0.2998443 -1.002152 0.3183208 -0.3414993 0.1954869 -0.4467488 0.1940828 -0.4780376 0.1858207 -0.6168834 0.1465521 -0.5491967 0.138873
178 -0.5389965 0.2898623 -0.2811674 0.3068654 -0.6962384 0.3330662 -0.3999856 0.2994219 -0.2503657 0.289309 -0.3076944 0.1803349 -0.4245952 0.181437 -0.2434263 0.1867657 -0.5826335 0.1362229 -0.3549234 0.132002
179 -0.5029516 0.2912403 -0.6681797 0.2919664 -0.3618939 0.2843628 -0.5050743 0.3052547 -0.8401246 0.294562 -0.3516059 0.1835236 -0.4879239 0.195111 -0.6216882 0.1995264 -0.3857543 0.1377901 -0.239332 0.1333526
180 -1.225952 0.3205583 -1.164583 0.3170723 -0.4706044 0.3088329 0.1840036 0.3036153 -0.4361539 0.2967999 -0.6991532 0.1844891 -0.5384679 0.2016284 -0.5692103 0.2001971 -0.3113621 0.1445649 -0.2265488 0.1321862
181 -0.5230132 0.2852747 -0.4150215 0.2892411 -0.9044563 0.2993645 -0.4706044 0.3088329 -1.045969 0.3032737 -0.4015047 0.1798233 -0.2263315 0.1800112 -0.7994714 0.1851465 -0.4174413 0.1401109 -0.2393669 0.1359192
182 -0.6631313 0.3118803 -0.5050743 0.3052547 -0.4719207 0.2945429 -0.8443458 0.3127373 -0.2719337 0.3016982 -0.6944832 0.1911522 -0.6131156 0.1810469 -0.38668 0.184019 -0.3678684 0.136152 -0.2524677 0.1424236
183 -0.4624058 0.3059994 -0.5994486 0.29522 -0.3053816 0.3200679 -0.4521741 0.288035 -0.8639649 0.2914915 -0.719822 0.209598 -0.57091 0.1875407 -0.4400089 0.1848313 -0.2958396 0.1432665 -0.714793 0.1320586
184 -0.8081624 0.3361236 -0.6061358 0.2864799 -0.3227734 0.2846944 -1.069035 0.3313384 -0.3292056 0.2875804 -0.1805214 0.1813006 -0.6673927 0.2041311 -0.5958394 0.1833939 -0.6758635 0.1368958 -0.6556727 0.1418241
185 -0.9444616 0.2993378 -0.830971 0.3300504 -0.3690975 0.3049687 -0.5654467 0.2973528 -0.5564203 0.307278 -0.221555 0.201037 -0.4172299 0.200481 -0.6416171 0.1908873 -0.6935284 0.1298743 -0.3172056 0.1312719
186 -0.7672552 0.326276 -0.1580569 0.3249001 -0.5137517 0.3080179 -0.6931472 0.3082206 -0.4054651 0.2857738 -0.3029249 0.1892509 -0.2307272 0.1964248 -0.3577496 0.1898039 -0.3763749 0.1433235 -0.452926 0.1301428
187 -0.2403854 0.2834106 -0.3525602 0.3187087 -0.5753641 0.2887954 -0.8574502 0.3064599 -0.4444945 0.3163113 -0.4532006 0.1955431 -0.4532006 0.1955431 -0.6442748 0.2002156 -0.405166 0.1290765 -0.1898598 0.1346046
188 -0.3053816 0.3200679 -0.6306572 0.3034386 0.3313284 0.3087051 -0.922333 0.3397573 -1.047969 0.311003 -0.6183317 0.189867 -0.3615411 0.1861692 -0.6554069 0.2021051 -0.6632942 0.1300487 -0.2961051 0.1342852
189 -0.3854117 0.2937334 -0.4706044 0.3088329 -0.8452979 0.3039391 -0.5314187 0.2998443 -0.4719207 0.2945429 -0.3854117 0.1797686 -0.4264543 0.1935941 -0.4246797 0.1976003 -0.4691303 0.1325567 -0.3762748 0.1473969
190 -0.6498909 0.3342574 -0.7231952 0.3050014 -0.5353588 0.2888231 -0.6479829 0.2871211 -0.6397767 0.2949719 -0.3615411 0.1861692 -0.5814973 0.1836896 -0.3444292 0.1815929 -0.4662044 0.1347031 -0.2473118 0.1285811
191 -0.4893853 0.3152582 -0.5804962 0.3015667 -0.4058358 0.301682 -0.4058358 0.301682 -0.8973083 0.3342255 -0.6290332 0.1976155 -0.6183317 0.189867 -0.8042985 0.1837229 -0.3528071 0.1332556 -0.5136953 0.1317072
192 -0.5182681 0.2958893 -0.5245245 0.2977749 -0.6523611 0.2881745 -0.4971494 0.302717 -0.3218565 0.2842782 -0.06667358 0.1826026 -0.3414993 0.1954869 -0.6497385 0.2011439 -0.4117577 0.1425279 -0.5385583 0.1386699
193 -0.6590445 0.2897793 -0.830971 0.3300504 -0.8072925 0.2960321 -0.2282587 0.3026137 -0.6479829 0.2871211 -0.2545559 0.1845208 -0.7201438 0.2034482 -0.2672542 0.1958261 -0.4085826 0.1283093 -0.4425925 0.141142
194 -0.4971494 0.302717 -1.026799 0.3319571 -0.2135741 0.2926136 -0.7081851 0.291939 -0.4971494 0.302717 -0.372595 0.1890773 -0.5055486 0.1879504 -0.3763798 0.1856248 -0.4279285 0.1371378 -0.3799892 0.1440331
195 -0.2408508 0.3109525 -0.6873163 0.2871695 -0.483116 0.2851465 -0.679975 0.2947801 -1.086045 0.3260623 -0.5388106 0.1847682 -0.4560825 0.1883233 -0.1784077 0.1890594 -0.5969629 0.1317314 -0.4117577 0.1425279
196 -0.3315461 0.2886245 -0.4183685 0.2904481 -0.4309984 0.2949691 -1.071307 0.3507059 -0.3999856 0.2994219 -0.1764716 0.1982292 -0.4515699 0.1873477 -0.7472144 0.1964598 -0.3516331 0.1282353 -0.3993198 0.1308601
197 -0.7927086 0.3212122 -0.5322168 0.2879237 -0.8873032 0.3550357 -0.4624058 0.3059994 -0.7053673 0.3112217 -0.588758 0.1906638 -0.2336305 0.1829232 -0.5330754 0.1808197 -0.384994 0.1284146 -0.4551612 0.1343527
198 -0.7641174 0.3045893 -0.4855078 0.2858859 -0.5994486 0.29522 -0.8353772 0.3205028 -0.6869552 0.29644 -0.177622 0.1798274 -0.5871599 0.1874534 -0.3666093 0.1831285 -0.4784972 0.132683 -0.3676701 0.1282113
199 -0.293513 0.2901766 -0.5126097 0.2941773 -0.3898064 0.2954577 -0.5654467 0.2973528 -0.6903022 0.3188695 -0.3254224 0.1808101 -0.55914 0.2057338 -0.4549134 0.1918832 -0.3647976 0.1391381 -0.3698707 0.1286054
200 -0.7200766 0.2946437 -0.9368604 0.2906532 0.2458493 0.3142065 -0.6216882 0.301088 -0.2282587 0.3026137 -0.1224878 0.187147 -0.6455191 0.1836449 -0.57091 0.1875407 -0.5627921 0.141971 -0.6554069 0.1429099
201 -0.9544425 0.2938705 -0.4773459 0.2963135 -0.6397767 0.2949719 -0.4269293 0.3097273 -0.5245245 0.2977749 -0.3076944 0.1803349 -0.4690627 0.1839846 -0.6216882 0.1995264 -0.3641624 0.1371944 -0.7001027 0.1289321
202 -0.467023 0.2929382 -1.026799 0.3319571 -0.6903022 0.3188695 -0.5891575 0.3039774 -0.2827681 0.2847225 -0.3145215 0.2055043 -0.331414 0.1981518 -0.6906947 0.1905757 -0.6393757 0.1309576 -0.4539508 0.1290769
203 -1.108587 0.2939402 -0.1416122 0.307446 -0.2503657 0.289309 -0.4122448 0.3041433 -0.8644189 0.2994448 -0.3083742 0.1909807 -0.4566041 0.1963104 -0.3166195 0.1935729 -0.54405 0.129248 -0.551363 0.1291577
204 -0.8153413 0.2977101 -0.9353894 0.2976293 -0.3053816 0.3200679 -0.2026291 0.2849481 -0.4073069 0.2864445 -0.3722395 0.1804458 -0.5015389 0.1808414 -0.3083742 0.1909807 -0.5139036 0.1404193 -0.5134457 0.1294651
205 -0.5389965 0.2898623 -0.8109302 0.325427 0.08581592 0.2929976 -0.5389965 0.3021089 -0.3525602 0.3187087 -0.3220185 0.1798394 -0.5773154 0.1857612 -0.6118731 0.1860356 -0.4726588 0.1460918 -0.6741277 0.1397032
206 -0.6204627 0.3126092 -0.4058358 0.301682 -0.5564203 0.307278 -0.5314187 0.2998443 -0.8165262 0.2898054 -0.7345011 0.1827654 -0.5549036 0.1847149 -0.6820201 0.1918598 -0.4408657 0.130828 -0.6921847 0.1305611
207 -0.8048065 0.3042357 -0.9754268 0.2977101 -0.5695909 0.2872437 -0.5994486 0.29522 -0.9946226 0.3012235 -0.7076217 0.2014654 -0.5165396 0.1972189 -0.4206604 0.188095 -0.6197786 0.1456516 -0.3797619 0.1384047
208 -0.2679025 0.2994175 -0.6884743 0.287435 -0.6681797 0.2919664 -0.9115175 0.3088833 -0.2962658 0.2915595 -0.4963598 0.186142 -0.5037362 0.181258 -0.4228569 0.1886045 -0.398879 0.1337137 -0.3351878 0.1314762
209 -0.293513 0.2901766 -0.3292056 0.2875804 -0.6281424 0.2920488 -1.166113 0.3035119 -0.7937771 0.2932096 -0.1852479 0.1926763 -0.4658415 0.1867741 -0.5515332 0.2004374 -0.4264543 0.1368917 -0.2344954 0.140037
210 -0.7752397 0.2978451 -0.8744783 0.3014633 -0.7032996 0.3003124 -0.4418328 0.2988071 -0.9838152 0.3147613 -0.5774623 0.2054431 -0.4474232 0.203055 -0.3961421 0.1905945 -0.5761989 0.1312169 -0.506974 0.1380811
211 -0.6122595 0.3554993 -0.7758389 0.30722 -0.3200199 0.3032655 -0.8167611 0.3068109 -0.5531011 0.2938705 -0.4286892 0.1823431 -0.3667506 0.1875442 -0.435249 0.183788 -0.405166 0.1290765 -0.4996452 0.1286942
212 -1.457557 0.3388333 -0.5431499 0.291046 -0.4719207 0.2945429 -0.4586966 0.2901959 -0.6626105 0.3006705 -0.6351313 0.1845335 -0.5695541 0.1934722 -0.3342021 0.1990048 -0.3954711 0.1288175 -0.2961051 0.1342852
213 -0.589272 0.3168931 -0.5389965 0.2898623 -0.8401246 0.294562 -0.4624058 0.3059994 -0.4120725 0.2881745 -0.2411621 0.1795367 -0.4893853 0.1993868 -0.784119 0.1918855 -0.342959 0.1366247 -0.4467488 0.1372373
214 -0.7032996 0.3003124 -0.4899189 0.3003895 -0.3027199 0.2947797 -0.3778772 0.2907584 -1.104443 0.3214026 -0.4085826 0.1814568 -0.4095055 0.1816688 -0.5867928 0.1999654 -0.5749888 0.1331178 -0.5245245 0.133169
215 -1.088167 0.310821 -0.7495613 0.3219938 -0.4899189 0.3003895 -0.6359888 0.362994 -0.9671491 0.3115279 -0.3254224 0.1808101 -0.3557175 0.189249 -0.5336403 0.1809212 -0.363668 0.1304709 -0.5623076 0.1315396
216 -0.9389821 0.3233179 -0.2679025 0.2994175 -0.5773154 0.3134123 -0.9141145 0.2936214 -0.6616312 0.3237908 -0.5029516 0.1841965 -0.7255618 0.2138568 -0.6087683 0.1828884 -0.2475621 0.1439386 -0.4089095 0.1296923
217 -1.659797 0.3591677 -0.2032282 0.3192185 -0.6498909 0.2875804 -0.3371881 0.2911283 -0.3778772 0.2907584 -0.3734624 0.1807506 -0.4454338 0.1860151 -0.5569021 0.1850691 -0.3091883 0.1416836 -0.5075144 0.1308682
218 0.4095055 0.2872437 -0.5753641 0.2887954 -0.5055486 0.3384972 -0.7534605 0.302192 -0.8873032 0.3550357 -0.4742095 0.1850391 -0.2671393 0.1890941 -0.615285 0.1839416 -0.5733641 0.1372956 -0.3591984 0.1362287
219 -0.3577496 0.3001064 -0.7937771 0.2932096 -0.5695909 0.2872437 -0.7357068 0.2892411 -0.7032996 0.2908252 -0.3760876 0.2054436 -0.3256124 0.1907721 -0.2669892 0.2031702 -0.6173806 0.142892 -0.3997966 0.1354127
220 -0.7481904 0.2919664 -0.5654467 0.2973528 -0.978468 0.3057413 -0.5232481 0.3110241 -0.6232889 0.2908252 -0.4515699 0.1873477 -0.7057626 0.1854496 -0.5921511 0.1912544 -0.4773937 0.1350645 -0.6351844 0.1393816
221 -1.039189 0.344036 -0.7534605 0.302192 -0.4655471 0.3240768 0.5880407 0.2921864 -0.8167611 0.3068109 -0.5225616 0.1817954 -0.6651706 0.1842006 -0.692173 0.1858274 -0.4143162 0.1348528 -0.2366015 0.1301758
222 -0.7032996 0.3003124 -0.7761181 0.3173638 0.4183685 0.3254136 -0.5564203 0.307278 -0.6204627 0.3126092 -0.2965365 0.1872054 -0.2176466 0.199236 -0.4702908 0.2037595 -0.1764383 0.1329402 -0.2783317 0.1321562
223 -0.5389965 0.3318418 -0.4833325 0.2982589 -0.784119 0.2997678 -0.2362766 0.3079472 -0.6631313 0.3118803 -0.2023411 0.18382 -0.5549036 0.1847149 -0.4418328 0.1889822 -0.4955873 0.1434048 -0.6046116 0.1462486
224 -0.5232481 0.3110241 -0.6336275 0.2934287 -0.5646361 0.2859081 -0.5295536 0.2871599 -0.2403854 0.2834106 -0.3123494 0.1922342 -0.4467772 0.1900825 -0.5080821 0.1884471 -0.5322017 0.1319462 -0.5431499 0.1301597
225 -0.8283294 0.2921864 -0.6216882 0.301088 -0.5353588 0.2888231 -0.6947134 0.2982805 -0.6466272 0.2966868 -0.218829 0.1836927 -0.5690537 0.1843344 -0.5450657 0.2111364 -0.5643547 0.1476175 -0.4982323 0.1368181
226 -0.6023722 0.320684 -0.6631313 0.3118803 -0.4221322 0.2918008 -0.6216882 0.301088 -0.4353181 0.3128842 -0.4549134 0.1918832 -0.5447588 0.1829108 -0.4578293 0.1925257 -0.5241728 0.1379396 -0.5808118 0.1288508
227 -0.880162 0.2946437 -0.4073069 0.2864445 -0.4058358 0.301682 -0.5126097 0.2941773 -0.5646361 0.2859081 -0.3877063 0.1803207 -0.4299633 0.190246 -0.7294435 0.1865288 -0.4815786 0.1343906 -0.4675789 0.1349111
228 -0.7137665 0.3521475 -0.6523611 0.2881745 -0.8342799 0.3016509 -0.7334496 0.3180802 -0.6135329 0.2989429 -0.3537592 0.1887129 -0.2969551 0.1820076 -0.42216 0.1808965 -0.4661041 0.130871 -0.5753218 0.137547
229 -0.7537718 0.2931823 -0.9754268 0.2977101 -0.3826743 0.310706 -0.6718492 0.3029629 -0.4552198 0.2890455 0.2370383 0.1912696 -0.4392864 0.2011158 -0.6197201 0.1820963 -0.2658508 0.1271225 -0.3997966 0.1354127
230 -0.5478424 0.2923799 -0.3746934 0.2894941 0.2818511 0.2842501 -0.6632942 0.2907976 -0.187199 0.3062607 -0.4617537 0.1859149 -0.4706044 0.1953231 -0.5659017 0.1896617 -0.4506424 0.1298001 -0.3311039 0.1467402
231 -0.8183542 0.3167167 -0.4081919 0.3212724 -0.2018084 0.2843628 -0.4183685 0.2904481 -1.168159 0.3252336 -0.3448838 0.1911727 -0.1962327 0.1810006 -0.4885779 0.1846014 -0.420881 0.1316471 -0.3330599 0.1364675
232 -0.4833325 0.2982589 -0.4295414 0.3299158 -1.041281 0.2955253 -0.7200766 0.2946437 -0.4833325 0.2982589 -0.3199379 0.1890642 -0.2566933 0.1853048 -0.3562391 0.1804486 -0.879022 0.1467347 -0.267542 0.1361178
233 -0.2642236 0.2973225 -0.3313284 0.3087051 -0.6737291 0.2932916 -0.9194603 0.3192865 -0.5001261 0.3188943 -0.3414993 0.1954869 -0.2797226 0.1873714 -0.6535806 0.1956869 -0.3810097 0.1336391 -0.3316118 0.1324875
234 -0.7350414 0.298035 -0.4825218 0.2849592 -0.6523611 0.2881745 -0.7700856 0.2882453 -0.8472979 0.2960051 -0.3985562 0.1911947 -0.3114773 0.1814624 -0.2223961 0.1928046 -0.362044 0.1350378 -0.5021005 0.1301305
235 -0.3105711 0.2986563 -0.6090641 0.3094803 -0.5126097 0.2941773 -0.4895482 0.2871321 -0.8299061 0.3096375 -0.2129653 0.1886293 -0.4823557 0.1801917 -0.528772 0.1924723 -0.3228588 0.1425509 -0.3267957 0.1281276
236 -0.3690975 0.3049687 0.5389965 0.3021089 -0.960462 0.3277531 -0.3904272 0.3139453 -0.3377835 0.3117745 -0.1989086 0.1822407 -0.767869 0.1919708 -0.4324253 0.1831671 -0.5844954 0.1435947 -0.451597 0.1410461
237 -0.4971494 0.302717 -0.679975 0.2947801 -0.4361539 0.2967999 -1.058607 0.3055311 -0.483116 0.2851465 -0.3747968 0.1852222 -0.259011 0.1861515 -0.5381052 0.1978169 -0.4717273 0.1281527 -0.6306572 0.1357019
238 -0.6122595 0.288035 -0.3577496 0.3001064 -0.7137665 0.2932096 -0.3442197 0.294224 -0.5431499 0.291046 -0.310519 0.1976179 -0.4043571 0.1842803 -0.4905609 0.1817954 -0.4428313 0.1380839 -0.2751773 0.1458877
239 -0.5137517 0.3080179 -0.6027123 0.3355536 -0.7032996 0.3003124 -0.7137665 0.2932096 -0.6466272 0.2867945 -0.2284831 0.1808742 -0.4381603 0.1808993 -0.4811472 0.19368 -0.6558523 0.1452758 -0.2722419 0.1373278
240 -0.9273406 0.2961133 -0.1391128 0.3047087 -0.3746934 0.2894941 -0.4353181 0.3128842 -0.7200766 0.2946437 -0.5190446 0.1841431 -0.4040211 0.1882392 -0.5187198 0.193997 -0.4467772 0.1344086 -0.4845873 0.1417159
241 -0.5273549 0.2865285 -0.6306572 0.3034386 -0.5118946 0.322848 -0.6397767 0.2949719 -0.3702823 0.3268672 -0.3483067 0.1872138 -0.3577496 0.1898039 -0.146317 0.180403 -0.4360955 0.1433392 -0.4693729 0.1289646
242 -0.5001261 0.3188943 -0.5137517 0.3080179 -0.5478424 0.2923799 -0.5232481 0.3110241 -0.5029516 0.2912403 -0.5272032 0.1888386 -0.337389 0.2062004 -1.168017 0.1929928 -0.4338031 0.1297331 -0.2367845 0.1326322
243 -0.3610133 0.3226208 -0.3483067 0.296011 -0.5075144 0.2926302 -0.8452979 0.3039391 -0.3105711 0.2986563 -0.5969873 0.2018346 -0.3148915 0.1824748 -0.6262599 0.1831325 -0.3677104 0.1397096 -0.5071604 0.1408106
244 -0.5001261 0.3188943 -0.5075144 0.2926302 -0.5773154 0.3134123 -0.2411621 0.2838724 -0.5674565 0.2866688 -0.333101 0.1829797 -0.2551829 0.1985559 -0.5047146 0.1845365 -0.372543 0.1305657 -0.3845476 0.1283379
245 -0.8443458 0.3127373 -0.3746934 0.2894941 -0.3315461 0.2886245 -0.32396 0.2852287 -1.01857 0.3056098 -0.6198159 0.1930102 -0.5055486 0.1816011 -0.5389965 0.2098752 -0.44416 0.1288236 -0.4525573 0.1276851
246 -0.3898064 0.2954577 -0.6781093 0.32822 -0.4953214 0.2889063 -0.3315461 0.2886245 -0.4095055 0.2872437 -0.3985562 0.1911947 -0.4893853 0.1993868 -0.4903984 0.1849626 -0.3799657 0.1275476 -0.3612063 0.1331979
247 -0.4624058 0.3059994 -0.5245245 0.2977749 -0.2247552 0.3002558 0.2408508 0.3109525 -0.5050743 0.3052547 -0.156177 0.1977508 -0.38668 0.184019 -0.3103261 0.1915971 -0.1605898 0.1300971 -0.4006976 0.142302
248 -0.3989077 0.3174592 -0.8540775 0.3246537 -0.3898064 0.2954577 0.3200199 0.3032655 -0.4309984 0.2949691 -0.2811674 0.187863 -0.4950603 0.209352 -0.8040479 0.1900543 -0.393647 0.1328037 -0.4833923 0.1400751
249 -0.2962658 0.2915595 -0.8299061 0.3096375 -0.3804638 0.331482 -0.8109302 0.325427 -0.3904272 0.3139453 -0.3320516 0.1826845 -0.4760827 0.1854218 -0.3989077 0.1829917 -0.306836 0.1434866 -0.4916319 0.1298144
250 -0.8167611 0.3068109 -0.7230001 0.3272052 -0.4473122 0.2864166 -0.7495613 0.3219938 -0.5891575 0.3039774 -0.09880869 0.1988685 -0.4394962 0.1884606 -0.5629169 0.1891261 -0.3046114 0.1285857 -0.4344892 0.1311352
251 -0.3989077 0.3174592 -0.315081 0.3008638 -0.7081851 0.291939 -0.5232481 0.3110241 -0.3371881 0.2911283 -0.4521015 0.1912622 -0.2564991 0.1793053 -0.4373444 0.2054629 -0.670788 0.1291563 -0.4985612 0.1285473
252 -0.6023722 0.320684 -0.9659258 0.3033794 -0.2458493 0.3142065 -0.5050743 0.3052547 -0.3999856 0.2994219 -0.4557269 0.1812325 -0.4290754 0.1861216 -0.7345011 0.1827654 -0.4435489 0.1312422 -0.5814127 0.1383277
253 -0.6306572 0.3034386 -1.055727 0.298035 -0.2076971 0.2885212 -0.7937771 0.2932096 -0.760999 0.3138466 -0.4887347 0.1915371 -0.1995324 0.1825287 -0.498345 0.2055602 -0.5674373 0.1343056 -0.5512629 0.1391518
254 -0.545017 0.3178497 -0.2018084 0.2843628 -0.7418251 0.3319723 -0.2466415 0.2871211 -0.901701 0.3156175 -0.2743715 0.1799514 -0.5012695 0.1838718 -0.6554069 0.2021051 -0.5968211 0.1288628 -0.4422051 0.1365067
255 -0.7758389 0.30722 -0.3755834 0.30772 -0.2503657 0.289309 -0.4833325 0.2982589 -0.6690496 0.3396611 -0.221555 0.201037 -0.5248374 0.1988945 -0.4126762 0.1862342 -0.4453329 0.1432302 -0.3631672 0.1352533
256 -0.173746 0.2949713 -0.6781093 0.32822 -0.6405034 0.3060092 -0.4444945 0.3163113 -0.4953214 0.2889063 -0.6077074 0.2074013 -0.5055486 0.1913747 -0.3256124 0.1907721 -0.4157542 0.1398163 -0.2644839 0.1402849
257 -0.5674565 0.2866688 -0.3292056 0.2875804 -0.5273549 0.2865285 -0.5531011 0.2938705 -0.6737291 0.2932916 -0.3577496 0.1898039 -0.3287238 0.1973258 -0.4126762 0.1862342 -0.296148 0.1285205 -0.4392032 0.1318739
258 -0.6061358 0.2969906 -0.901701 0.3156175 -0.5230132 0.2852747 -0.7672552 0.2961133 -0.6204627 0.3126092 -0.2091593 0.1795481 -0.5118946 0.1926409 -0.5088189 0.1956518 -0.6204627 0.1398031 -0.5075144 0.1308682
259 -0.8165262 0.2898054 -0.5804962 0.3015667 -0.6498909 0.3342574 -0.2910548 0.2889368 -0.4549134 0.303394 -0.3934744 0.1817 -0.3596531 0.1813344 -0.6786684 0.1862385 -0.5301319 0.1327843 -0.269087 0.1415206
260 -0.2550738 0.2920538 -0.4263339 0.2933054 -0.5986563 0.3066096 -0.7495613 0.3219938 -0.4480718 0.3010011 -0.2732797 0.1851652 -0.195783 0.1807915 -0.8133186 0.1848904 -0.2376382 0.1281798 -0.4422689 0.1323526
261 -0.3999856 0.2994219 -0.901701 0.3156175 -0.3826743 0.310706 -0.7472144 0.3106302 -0.4549134 0.303394 -0.2255527 0.1941836 -0.1161396 0.1968407 -0.5219478 0.1878388 -0.4432806 0.1428846 -0.4879239 0.1379643
262 -0.6466272 0.3197359 -0.6306572 0.3034386 -0.4028161 0.284807 -0.5248061 0.3271514 -0.3053816 0.3200679 -0.4101544 0.1987067 -0.5773154 0.1857612 -0.2747642 0.1800822 -0.4504956 0.1323102 -0.5586499 0.1331899
263 -0.5654467 0.2973528 -0.942893 0.3151601 -0.4795731 0.3119123 -0.5353588 0.2888231 -0.7346469 0.3076892 -0.5956745 0.1889104 -0.4473976 0.1864423 -0.7221693 0.1878262 -0.5654467 0.1329802 -0.4715085 0.1411712
264 -0.8744783 0.3014633 -0.3946542 0.2973507 -0.483116 0.2851465 -0.3898064 0.2954577 -0.5478424 0.2923799 -0.08507951 0.1845099 -0.4777144 0.1968681 -0.3025512 0.2014682 -0.3427931 0.1384987 -0.3997123 0.1281752
265 -0.3639654 0.2852006 -0.4795731 0.3119123 -0.9841307 0.332642 -0.5891575 0.3039774 -0.4058358 0.301682 -0.5302168 0.1831997 -0.2552484 0.2067432 -0.6405034 0.1935372 -0.2061205 0.1340352 -0.4212404 0.1290425
266 -0.4655471 0.3240768 -0.8574502 0.3064599 -0.6090641 0.3094803 -0.8001193 0.2945349 -0.9808293 0.3227486 -0.5086636 0.1919969 -0.5369214 0.184424 -0.5912 0.1853273 -0.2428887 0.1425543 -0.616854 0.1284398
267 -0.3778772 0.2907584 -0.3271679 0.2866688 -0.4899189 0.3003895 -0.6626105 0.3006705 -0.6947134 0.2982805 -0.2279899 0.1806767 -0.346414 0.202706 -0.4185462 0.1876037 -0.5934292 0.1313115 -0.276644 0.1435286
268 -0.6718492 0.3029629 -0.7418251 0.3319723 -0.7137665 0.3521475 -0.5234441 0.2854031 -0.5726107 0.2993628 -0.5088037 0.1822163 -0.6339295 0.1984525 -0.9386884 0.1925282 -0.5831559 0.1310645 -0.4317199 0.1409266
269 -0.6498909 0.2875804 -0.5711536 0.3259342 -0.5646361 0.2859081 -0.5029516 0.2912403 -0.4418328 0.334818 -0.2427307 0.1801277 -0.4927972 0.1822303 -0.3826743 0.1965077 -0.4733274 0.1295322 -0.6072268 0.1392956
270 -0.3577496 0.3001064 -0.4263339 0.2933054 -0.5531011 0.2938705 -0.187199 0.3062607 -0.3654598 0.2858018 -0.3547761 0.1800679 -0.3974389 0.1954878 -0.5148037 0.1864743 -0.4425925 0.141142 -0.4335797 0.1396343
271 -0.7271535 0.2962491 -0.6631313 0.3118803 -0.2135741 0.2926136 -0.6405034 0.3060092 -0.3483067 0.296011 -0.1983149 0.1819663 -0.3604871 0.1815503 -0.4460134 0.1981753 -0.4777144 0.1392068 -0.5629949 0.1371083
272 -1.055727 0.298035 -0.7481904 0.2919664 -0.4624058 0.3059994 -0.8401246 0.294562 -0.4073069 0.2864445 -0.3895984 0.1847345 -0.5157248 0.1835199 -0.4074752 0.1850145 -0.4493905 0.1348185 -0.6498909 0.1286099
273 -0.6281424 0.2920488 -0.7437909 0.3000119 -0.4440081 0.285313 -0.4873176 0.2864445 -0.5314187 0.2998443 -0.2255527 0.1941836 -0.2933478 0.1808784 -0.535119 0.1840954 -0.4872503 0.1352205 -0.7231331 0.1296646
274 -0.5245245 0.2977749 -0.4183685 0.2904481 -0.2910548 0.2889368 -0.4150215 0.2892411 -0.7334496 0.3180802 -0.3666093 0.1831285 -0.382771 0.1830572 -0.2157948 0.1983774 -0.3765178 0.1360767 -0.4524566 0.1427791
275 -0.5234441 0.2854031 -0.298493 0.3163606 -0.5256094 0.2860265 -0.2993288 0.2930916 -0.5531011 0.2938705 -0.436835 0.1806146 -0.4513856 0.1837229 -0.4735479 0.1816011 -0.5659017 0.134111 -0.3829964 0.1372803
276 -0.7537718 0.2931823 -0.6760944 0.3152225 -0.6306572 0.3034386 -0.5478424 0.2923799 -0.5353588 0.2888231 -0.2612155 0.1809697 -0.4181447 0.1916237 -0.6118731 0.1860356 -0.5086636 0.1357623 -0.4575455 0.1284173
277 -0.5389965 0.2898623 -0.9382696 0.3059263 -0.7200766 0.2946437 -0.7641174 0.3045893 -0.1603426 0.2832975 -0.3952086 0.2050838 -0.3428392 0.1811628 -0.2757059 0.1859987 -0.2958396 0.1432665 -0.5975099 0.1298743
278 -0.524308 0.285652 -0.7058862 0.3228518 -0.4795731 0.3119123 -0.8855378 0.3122757 -0.5232481 0.3110241 -0.2056821 0.1853449 -0.4658671 0.2027499 -0.6201472 0.2025721 -0.3633797 0.1388593 -0.4955873 0.1434048
279 -0.6737291 0.2932916 -0.7127714 0.3025479 -0.3814431 0.2921694 -0.7350414 0.298035 -0.4624058 0.3059994 -0.3100427 0.1810355 -0.4228569 0.1886045 -0.5898859 0.1879205 -0.3596531 0.1282228 -0.394534 0.1377067
280 -0.654222 0.2985827 -0.8243173 0.2995791 0.1945033 0.3122281 -0.4773459 0.2963135 -0.3027199 0.2947797 -0.3853205 0.1878859 -0.3462186 0.1820758 -0.5526766 0.19364 -0.5728092 0.1288464 -0.3882398 0.1275964
281 -0.8153413 0.2977101 -0.5055486 0.3594847 -0.5473104 0.3045818 -0.4521741 0.288035 -0.8001193 0.2945349 -0.2756609 0.1803804 -0.441539 0.1816236 -0.8080425 0.1905918 -0.8152276 0.1362506 -0.3458066 0.1318918
282 -0.2094434 0.2897429 -0.3778772 0.2907584 -0.718763 0.3144996 -0.3690975 0.3049687 -0.2962658 0.2915595 -0.1709341 0.1950728 -0.3552161 0.1801825 -0.3299845 0.1868943 -0.5490666 0.136446 -0.432327 0.133496
283 -0.8973083 0.3342255 -0.4120725 0.2881745 -0.7399785 0.359398 -0.6306572 0.3034386 -0.3999856 0.2994219 -0.3911552 0.1851152 -0.463756 0.1863361 -0.4740956 0.1960827 -0.8084132 0.129575 -0.5120701 0.1338038
284 -0.4361539 0.2967999 -0.4329478 0.3545366 -0.3292056 0.2875804 -1.047969 0.2966868 -0.4549134 0.303394 -0.2031247 0.1924074 -0.6030794 0.1845892 -0.4319059 0.2092561 -0.3400875 0.1419839 -0.4118779 0.1344405
285 -0.5986563 0.3066096 -0.3826743 0.310706 -0.2047944 0.2864799 -0.4825218 0.2849592 -0.7137665 0.2932096 -0.3741508 0.1809219 -0.5252617 0.2028774 -0.6347364 0.1819735 -0.3080363 0.1391649 -0.1835875 0.1323454
286 -0.4719207 0.2945429 -0.3064596 0.2966316 -0.4893853 0.3152582 -0.5248061 0.3271514 -0.4655471 0.3240768 -0.573602 0.1880136 -0.1524902 0.19539 -0.6195671 0.1872964 -0.4334924 0.1336832 -0.5907549 0.1431515
287 -0.7032996 0.3003124 -0.3755834 0.30772 -0.4873176 0.2864445 -0.2451225 0.2862242 -0.4039707 0.2852287 -0.5753641 0.1826502 -0.4324253 0.1831671 -0.3400875 0.2007956 -0.3236515 0.13448 -0.3838995 0.1357751
288 -0.7537718 0.2931823 -0.6781093 0.32822 -0.7418251 0.3319723 -0.6190392 0.2897517 -0.3303028 0.3331859 -0.447189 0.1828303 -0.5339434 0.1970006 -0.5900667 0.197188 -0.5369261 0.1314747 -0.6970833 0.1444647
289 -0.3618939 0.2843628 -0.4353181 0.3128842 -0.3631672 0.3024355 -0.9671491 0.3115279 -0.901701 0.3156175 -0.1865384 0.184319 -0.6390077 0.1993188 0.07679547 0.1959894 -0.5319182 0.1390191 -0.1891286 0.1412636
290 -0.6466272 0.3197359 -0.6820032 0.305474 -0.5353588 0.2888231 -0.5118946 0.322848 -0.8973083 0.3342255 -0.2946634 0.1812909 -0.4760827 0.1854218 -0.3431933 0.2017353 -0.4109963 0.1300347 -0.3316208 0.130758
291 -0.6167404 0.3248163 -0.4263339 0.2933054 -0.7391835 0.290001 -0.8553787 0.2976293 -0.4095055 0.2872437 -0.6151016 0.1893295 -0.4521015 0.1912622 -0.555509 0.1975994 -0.3364461 0.1391463 -0.587844 0.1391495
292 -0.4655471 0.3240768 -0.7672552 0.2961133 -0.6076549 0.286866 -1.007641 0.3112382 -0.7937771 0.2932096 -0.212872 0.1811505 -0.2301582 0.1815433 -0.7151535 0.1844918 -0.5020272 0.1386922 -0.4590799 0.128642
293 -0.2076971 0.2885212 -0.4444945 0.3163113 0.2910548 0.2889368 -0.1682514 0.2902403 -0.5314187 0.2998443 -0.570978 0.1846673 -0.7134123 0.1865591 -0.2858399 0.1894451 -0.38771 0.1364697 -0.6183317 0.1342562
294 -0.5389965 0.3021089 -0.6523611 0.2881745 -0.09193424 0.3032807 -0.5564203 0.307278 -0.2282587 0.3026137 -0.07563325 0.1944988 -0.71116 0.1936821 -0.3448838 0.1911727 -0.57103 0.1295987 -0.2572783 0.1290318
295 -0.2263131 0.3370615 -0.4361539 0.2967999 -0.654222 0.2985827 -0.4719207 0.2945429 -0.4833325 0.2982589 -0.6498909 0.1818818 -0.5223016 0.1912192 -0.2578291 0.1857201 -0.3215895 0.1287201 -0.6902304 0.1415375
296 -0.8574502 0.3064599 -0.7350414 0.298035 -0.7334496 0.3180802 -0.6869552 0.29644 -0.3200199 0.3032655 -0.4934507 0.20449 -0.4996669 0.183562 -0.6491435 0.1867362 -0.27343 0.133082 -0.6718492 0.1354891
297 -0.679975 0.2947801 -0.5994486 0.29522 -0.4440081 0.285313 -0.6884743 0.287435 -0.9115175 0.3088833 -0.5080821 0.1884471 -0.4062667 0.2026922 -0.8361205 0.2067472 -0.555509 0.1397239 -0.2516705 0.1297242
298 -0.4150215 0.2892411 -0.7672552 0.326276 -0.6167404 0.3248163 -0.7350414 0.298035 -0.8685277 0.2923799 -0.5272032 0.1888386 -0.2921968 0.1805168 -0.2689899 0.1836832 -0.4253429 0.1352149 -0.5341398 0.146194
299 -0.9546172 0.3012501 -0.5314187 0.2998443 -0.4122448 0.3041433 -0.8644189 0.2994448 -0.6636055 0.3537518 -0.1503325 0.1828733 -0.5643276 0.1958129 -0.3083742 0.1909807 -0.4176664 0.1297792 -0.311102 0.1282344
300 -0.293513 0.2901766 -0.7081851 0.291939 -0.5182681 0.2958893 -0.6325226 0.3293263 -0.6737291 0.2932916 -0.4748423 0.1923422 -0.2370383 0.1912696 -0.5526766 0.19364 -0.5457367 0.1348477 -0.3373394 0.1354718
301 -0.901701 0.3156175 -0.4833325 0.2982589 -0.4429177 0.2849481 -0.3129272 0.324087 -0.1096989 0.3313585 -0.3407366 0.1899899 -0.235554 0.1906624 -0.5381052 0.1978169 -0.5520742 0.1323515 -0.4522822 0.1366755
302 -0.4706044 0.3088329 -0.6718492 0.3029629 -0.2503657 0.289309 -0.5431499 0.291046 -0.7672552 0.326276 -0.5165396 0.1972189 -0.8419199 0.1928848 -0.5134508 0.1894967 -0.526042 0.1290008 -0.4034311 0.1345015
303 -0.8602013 0.3161355 -0.4122448 0.3041433 -0.8973083 0.3342255 -0.3672695 0.2865285 -0.6931472 0.3082206 -0.4541627 0.1809078 -0.4674994 0.1836635 -0.4726044 0.1814116 -0.3098256 0.1441996 -0.4810678 0.1283427
304 -0.2047944 0.2864799 -0.5137517 0.3080179 -0.4624058 0.3059994 -0.4122448 0.3041433 -0.7357068 0.2892411 -0.2145649 0.1818763 -0.4916436 0.1820061 -0.5733641 0.1941653 -0.4025203 0.1426375 -0.3777675 0.1363095
305 -0.5934292 0.2936214 -0.3254224 0.3058744 -0.6931472 0.3082206 -0.2061502 0.287435 -0.5322168 0.2879237 -0.7965307 0.189042 -0.6510897 0.1982595 -0.6367032 0.1958528 -0.8268869 0.1319769 -0.4014914 0.1284698
306 -0.7481904 0.2919664 -0.3746934 0.2894941 -0.9393295 0.2911051 -0.8581088 0.3480741 -0.8744783 0.3014633 -0.6331618 0.1842229 -0.2516705 0.1834577 -0.8953808 0.1933117 -0.3920973 0.1296317 -0.5300486 0.1284854
307 -0.3027199 0.2947797 -0.8353772 0.3205028 -0.4841097 0.2854539 -0.2888775 0.2878348 -0.5718859 0.3425694 -0.2075673 0.1862002 -0.579296 0.2181725 -0.4083848 0.1892898 -0.5954355 0.1463516 -0.5993284 0.1361185
308 -0.5986563 0.3066096 -0.5674565 0.2866688 -0.3898064 0.2954577 -1.105324 0.3138991 -0.6820032 0.305474 -0.3407366 0.1899899 -0.3804638 0.2010869 -0.3434496 0.18587 -0.4093 0.1386847 -0.4790462 0.1315405
309 -0.6466272 0.2966868 -0.4192584 0.3068198 -0.8299061 0.3096375 -0.9389821 0.3233179 -0.6554069 0.2889063 -0.4036552 0.1924576 -0.4905609 0.1817954 -0.799303 0.2158539 -0.3051756 0.1407411 -0.7389546 0.1418526
310 -0.8167611 0.3068109 -0.5473104 0.3045818 -0.5245245 0.2977749 -0.1623427 0.3293025 -0.7625757 0.337204 -0.1191317 0.1845572 -0.3301048 0.1821357 -0.4185462 0.1876037 -0.5549036 0.1306131 -0.5545704 0.1285647
311 -0.5663955 0.3102149 -0.5431499 0.291046 -0.4833325 0.2982589 -0.9044563 0.2993645 -0.4183685 0.2904481 -0.4001749 0.183292 -0.5349869 0.1811628 -0.5956745 0.1889104 -0.335229 0.1350367 -0.2633356 0.1305639
312 -0.9115175 0.3088833 -0.6232889 0.2908252 -0.7231952 0.3050014 -0.589272 0.3168931 -0.545017 0.3178497 -0.4658415 0.1867741 -0.4742095 0.1850391 -0.9691393 0.1884761 -0.3697909 0.1315965 -0.7125243 0.1335209
313 -0.4795731 0.3119123 -0.5564203 0.307278 -0.3898064 0.2954577 -0.5589572 0.2955253 -0.5182681 0.2958893 -0.3012758 0.2081528 -0.3989077 0.2007788 -0.86969 0.1880142 -0.3427726 0.1347543 -0.4178049 0.1369665
314 -0.5711536 0.3259342 -0.6023722 0.320684 -0.6632942 0.2907976 -0.5001261 0.3188943 -0.7346469 0.3076892 -0.521551 0.1816095 -0.3989077 0.2007788 -0.3920628 0.1989865 -0.5094534 0.1440164 -0.4215327 0.1345839
315 -0.6513001 0.3088166 -0.4841097 0.2854539 -0.4120725 0.2881745 -0.2466415 0.2871211 -0.4953214 0.2889063 -0.432513 0.1908324 -0.7017 0.2005254 -0.922614 0.1925738 -0.6342607 0.1294967 -0.4984825 0.1307628
316 -0.6397767 0.2949719 -0.3946542 0.2973507 -0.5589572 0.2955253 -0.215982 0.2942749 -0.6466272 0.2966868 -0.2910548 0.1911973 -0.7081938 0.1858025 -0.1729147 0.1861065 -0.3555358 0.1411214 -0.2242271 0.1398599
317 -0.786716 0.330969 -0.6513001 0.3088166 -0.7495613 0.3219938 -0.5574813 0.3217194 -0.5126097 0.2941773 -0.3274381 0.2030574 -0.173746 0.1865563 -0.411529 0.182133 -0.4873176 0.1281019 -0.2811674 0.1328392
318 -0.5029516 0.2912403 -0.6760944 0.3152225 -0.5773154 0.3134123 -0.3718742 0.2883707 -0.4893853 0.3152582 -0.2251617 0.1795395 -0.5665132 0.2033377 -0.4436925 0.1933883 -0.2910548 0.1311221 -0.3944713 0.1314684
319 0.4626235 0.2914915 -0.7137665 0.2932096 -0.7334496 0.3180802 -0.718763 0.3144996 -0.8123216 0.2889563 -0.5729951 0.1850159 -0.719009 0.19756 -0.5685011 0.196588 -0.4687753 0.1288787 -0.6648037 0.1451859
320 -0.5336403 0.3142937 -0.6626105 0.3006705 -0.9044563 0.2993645 -0.3303028 0.3331859 -0.7793819 0.2901959 -0.5934292 0.1857025 -0.411529 0.182133 -0.5357328 0.1938148 -0.4028161 0.1409125 -0.6166913 0.1404689
321 -0.7758389 0.30722 -0.7391835 0.290001 -0.3315461 0.2886245 -0.4655471 0.3240768 -0.7641174 0.3045893 -0.2056821 0.1853449 -0.2314424 0.1820548 -0.3292056 0.1818818 -0.1921748 0.1387872 -0.2136833 0.1283389
322 -0.2763448 0.3041763 -0.5322168 0.2879237 -0.467023 0.2929382 -1.005963 0.3033001 -0.3212048 0.2839853 -0.3482133 0.182613 -0.4069103 0.1810722 -0.4690627 0.1839846 -0.6048283 0.1288702 -0.4212404 0.1290425
323 -0.2550738 0.2920538 -0.5639354 0.285719 -0.4855078 0.2858859 -0.8574502 0.3064599 -0.7271535 0.2962491 -0.1729147 0.1861065 -0.7087132 0.1959794 -0.3974389 0.1954878 -0.574045 0.1289948 -0.582344 0.1340284
324 -0.3826743 0.310706 -0.4899189 0.3003895 -0.4855078 0.2858859 -0.5137517 0.3080179 -0.4552198 0.2890455 -0.4188472 0.1801591 -0.5030311 0.1982766 -0.7162047 0.1869635 -0.4022613 0.1342994 -0.6220666 0.1290246
325 -0.5050743 0.3052547 -0.1391128 0.3047087 -0.5790339 0.2897793 0.1682514 0.2902403 -0.5531011 0.2938705 -0.4598327 0.1855101 -0.4755828 0.2005516 -0.6027464 0.1962058 -0.4465498 0.1291842 -0.2950847 0.1320436
326 -0.7032996 0.2908252 -0.2572955 0.3215458 -0.298493 0.3163606 -0.5726107 0.2993628 -0.5574813 0.3217194 -0.2737529 0.1982326 -0.4578293 0.1925257 -0.2239464 0.1934831 -0.4828083 0.1385731 -0.7218323 0.1419848
327 -0.9382696 0.3059263 -0.4309984 0.2949691 -0.8167611 0.3068109 -0.3405208 0.292599 -0.4893853 0.3152582 -0.6093794 0.2006531 -0.4309984 0.1865548 -0.6946241 0.1938091 -0.2004799 0.1351559 -0.3919586 0.131035
328 -0.8072925 0.2960321 -0.6216882 0.301088 0.08581592 0.2929976 -0.6869552 0.29644 -0.2888775 0.2878348 -0.35692 0.1849425 -0.5462377 0.1831744 -0.6671505 0.1845002 -0.3120695 0.1301822 -0.3310532 0.1289786
329 -0.315081 0.3008638 -0.6027123 0.3355536 -0.6718492 0.3029629 -0.4418328 0.2988071 -0.2608728 0.2954029 -0.3980682 0.1867988 -0.3139681 0.1822015 -0.3985562 0.1911947 -0.3234052 0.1307998 -0.3467745 0.1273237
330 -1.196251 0.3563881 -0.2026291 0.2849481 -0.8338145 0.2932916 -0.4095055 0.2872437 -0.315081 0.3008638 -0.2783317 0.1868971 -0.6033782 0.187372 -0.5055486 0.1816011 -0.7230001 0.1463306 -0.3705214 0.1483906
331 -0.8283294 0.2921864 -0.3989077 0.3174592 -0.3826743 0.310706 -1.063521 0.3217932 -0.4893853 0.3152582 -0.3427726 0.1905713 -0.2385416 0.1997656 -0.4702908 0.2037595 -0.6681748 0.1400594 -0.4922187 0.13999
332 -0.5389965 0.3318418 -0.5722221 0.2879515 -0.187199 0.3062607 -0.5934292 0.2936214 -0.7625757 0.337204 -0.3555358 0.1995758 -0.4521015 0.1912622 -0.4474232 0.203055 -0.4282263 0.1419839 -0.237936 0.128261
333 -0.7537718 0.2931823 0.3525602 0.3187087 -0.4953214 0.2889063 -0.5389965 0.2898623 -0.3854117 0.2937334 -0.3746934 0.1896253 -0.2936881 0.1862871 -0.3718233 0.184464 -0.6181175 0.1303894 -0.5193433 0.1281299
334 -0.2320898 0.3051729 -0.880162 0.2946437 -0.3746934 0.2894941 -0.4473122 0.2864166 -0.7350414 0.298035 -0.3742395 0.1942597 -0.7514499 0.185105 -0.6775219 0.1836561 -0.8283371 0.1351197 -0.4237127 0.1294349
335 -0.315081 0.3008638 -0.8855378 0.3122757 -0.4922115 0.2879515 -0.8353772 0.3205028 -0.5389965 0.2898623 -0.09938659 0.1820546 -0.4176664 0.1835356 -0.6930972 0.1884069 -0.4751104 0.1321895 -0.4526135 0.1339591
336 0.2503657 0.289309 -0.106711 0.3268018 -0.4177352 0.3479711 -0.2282587 0.3026137 -0.4521741 0.288035 -0.588758 0.1906638 -0.2732797 0.1851652 -0.7123314 0.2083734 -0.482829 0.1297242 -0.2500597 0.1315297
337 -0.5050743 0.3052547 -0.5654467 0.2973528 -0.5722221 0.2879515 -0.3854117 0.2937334 -0.3778772 0.2907584 -0.4454338 0.1860151 -0.6903022 0.1831997 -0.6632942 0.1839166 -0.5343214 0.1433581 -0.4689207 0.1312843
338 -1.058607 0.3055311 -0.5994486 0.29522 -0.4263339 0.2933054 -0.2910548 0.2889368 -0.8001193 0.2945349 -0.3581381 0.1809418 -0.4996669 0.183562 -0.4436036 0.1820652 -0.562943 0.1305958 -0.7441536 0.1404696
339 -0.7834385 0.291046 -0.7437909 0.3000119 -0.6397767 0.2949719 -0.8708284 0.3642246 -0.6554069 0.2889063 -0.1304609 0.1806645 -0.4639871 0.1938775 -0.5123608 0.2132015 -0.3788844 0.128762 -0.2811674 0.1372344
340 -0.2888775 0.2878348 -0.4095055 0.2872437 -0.7834385 0.291046 -0.7433369 0.2909078 -0.7271535 0.2962491 -0.5603024 0.1950637 -0.761477 0.1864848 -0.4632468 0.182788 -0.4309984 0.1319142 -0.6513001 0.138107
341 -0.6903022 0.3188695 -1.112674 0.3079618 -0.6061358 0.2969906 -0.5118946 0.322848 0.1541507 0.3208369 -0.1338446 0.1830011 -0.211454 0.1805404 -0.6118731 0.1860356 -0.3585184 0.1295182 -0.3940955 0.1299724
342 -0.5273549 0.2865285 -0.5722221 0.2879515 -0.9520088 0.3085912 0.1255828 0.289455 0.3377835 0.3117745 -0.4574913 0.2008288 -0.4254574 0.1853044 -0.8378329 0.2043406 -0.5389965 0.1351072 -0.3900229 0.1352623
343 -0.1810801 0.3011757 -0.8744783 0.3014633 -0.5880407 0.2921864 -0.8048065 0.3042357 -0.4361539 0.2967999 -0.4213445 0.1967912 -0.4513856 0.1837229 -0.4435489 0.1856044 -0.5539699 0.1359288 -0.4058822 0.13056
344 -0.5256094 0.2860265 -0.4440081 0.285313 -0.950043 0.3458802 -0.9665881 0.3388624 -0.6122595 0.288035 -0.4635303 0.1899259 -0.6617256 0.1913654 -0.4383505 0.1844683 -0.4150215 0.1380629 -0.3372546 0.1285902
345 -0.9946226 0.3012235 -0.5118946 0.322848 -0.4626235 0.2914915 -0.5137517 0.3080179 -0.7137665 0.2932096 -0.3444292 0.1815929 -0.5134508 0.1894967 -0.2953843 0.1815166 -0.4080838 0.1418659 -0.5790339 0.1357701
346 -0.8776132 0.319862 -0.6820032 0.305474 -0.6190392 0.2897517 -0.3254224 0.3058744 -0.5639354 0.285719 -0.4645928 0.1830654 -0.4857929 0.1909296 -0.6260296 0.207113 -0.4425828 0.1298216 -0.4253398 0.1382456
347 -0.5232481 0.3110241 -0.4454704 0.2858018 -0.4549134 0.303394 -0.4309984 0.2949691 -0.4361539 0.2967999 -0.2797226 0.1873714 -0.2903739 0.1799429 -0.7892655 0.2026479 -0.3846113 0.141117 -0.5659901 0.1309727
348 -0.4795731 0.3119123 -0.5861751 0.330531 -0.5773154 0.3134123 -0.8574502 0.3064599 -0.4013414 0.2842662 -0.6159677 0.1923596 -0.5389965 0.1910704 -0.5383062 0.1877333 -0.375077 0.132562 -0.3883578 0.1333951
349 -0.3946542 0.2973507 -0.4418328 0.2988071 -0.7694305 0.2881077 -0.7481904 0.2919664 -0.4795731 0.3119123 -0.3920628 0.1989865 -0.8630302 0.1934524 -0.5832515 0.1839863 -0.7252448 0.130667 -0.4157542 0.1398163
350 -0.5722221 0.2879515 -0.7350414 0.298035 -0.5711536 0.3259342 -0.3577496 0.3001064 -0.5336403 0.3142937 -0.4990481 0.1974452 -0.2266996 0.1801591 -0.4895482 0.1815983 -0.2580075 0.14699 -0.489699 0.1368846
351 -0.589272 0.3168931 -0.3577496 0.3001064 -0.6760944 0.3152225 -0.5531011 0.2938705 -0.5473104 0.3045818 -0.4887347 0.2034554 -0.2672542 0.1958261 -0.6168931 0.1868587 -0.4665509 0.1419086 -0.5241728 0.1379396
352 -0.3746934 0.2894941 -0.3200199 0.3032655 -0.5654467 0.2973528 -0.3027199 0.2947797 -0.8028461 0.31326 -0.5814127 0.195625 -0.3815883 0.1827654 -0.6079596 0.2038367 -0.4584721 0.133529 -0.3426949 0.1312818
353 -0.6216882 0.301088 -0.5029516 0.2912403 -0.6190392 0.2897517 -0.3755834 0.30772 -0.6027123 0.3355536 -0.2471458 0.1953589 -0.4208153 0.1922586 -0.2336305 0.1829232 -0.6095026 0.1294056 -0.5533373 0.1325128
354 -1.010263 0.3380451 -0.3315461 0.2886245 -0.3946542 0.2973507 -0.1310774 0.295742 -0.4269293 0.3097273 -0.1525796 0.1842416 -0.2689899 0.1836832 -0.6658139 0.1947925 -0.4394962 0.1332618 -0.5859854 0.1400877
355 -0.4988949 0.290001 -0.7200766 0.2946437 -0.4122448 0.3041433 -0.4418328 0.2988071 -0.5245245 0.2977749 -0.2556026 0.1849051 -0.5221262 0.2063456 -0.4324253 0.1831671 -0.3577496 0.1342116 -0.3537592 0.1334402
356 -0.6281424 0.2920488 -0.3129272 0.324087 -0.1654611 0.2878092 -0.5389965 0.2898623 -0.5245245 0.2977749 -0.2606506 0.1807711 -0.2772753 0.1927072 -0.2853483 0.1835754 -0.4851765 0.1300548 -0.4321737 0.1363408
357 -0.8685277 0.2923799 -0.7058862 0.3228518 -0.5336403 0.3142937 -0.5389965 0.3318418 -0.7127714 0.3025479 -0.2642236 0.1880433 -0.3316118 0.1873656 -0.5644765 0.1993018 -0.6128376 0.1288787 -0.7845985 0.1418691
358 -0.4893853 0.3152582 -0.8644189 0.2994448 -0.3654598 0.2858018 -0.3448405 0.3151017 0.4192584 0.3068198 -0.1764383 0.1880058 -0.5245245 0.1883294 -0.4941794 0.1890925 -0.468979 0.1351227 -0.547272 0.1317373
359 -0.5295536 0.2871599 -0.4054651 0.2857738 -0.9520088 0.3085912 -0.4122448 0.3041433 -0.7058862 0.3228518 -0.5900474 0.1824347 -0.6186785 0.181931 -0.4043571 0.1842803 -0.52775 0.13136 -0.3816539 0.1370315
360 -0.7418251 0.3319723 -0.4795731 0.3119123 -0.5674565 0.2866688 -1.064606 0.2995791 -0.5646361 0.2859081 -0.2971882 0.1996372 -0.4680123 0.1872293 -0.5942592 0.1831325 -0.3367186 0.1317834 -0.3236225 0.1384173
361 -0.5478424 0.2923799 -0.3826743 0.310706 -0.901701 0.3156175 -0.5832515 0.2909078 -0.8028461 0.31326 -0.335356 0.1836128 -0.2301582 0.1815433 -0.5292169 0.1997753 -0.4181265 0.1385987 -0.5143814 0.1447539
362 -0.5322168 0.2879237 -0.4150215 0.2892411 -0.2466415 0.2871211 -0.6884743 0.287435 -0.3854117 0.2937334 -0.4868378 0.1842557 -0.4418328 0.1889822 -0.6347364 0.2123857 -0.534365 0.1344888 -0.5260654 0.1345374
363 -0.5790339 0.2897793 -0.3442197 0.294224 -0.6902189 0.2878348 -1.026416 0.3516529 -0.589272 0.3168931 -0.3814711 0.1913869 -0.6615195 0.1836477 -0.5126097 0.1964222 -0.4680586 0.1437198 -0.444563 0.1447873
364 -0.1784077 0.2989291 -0.5880407 0.2921864 -0.4552198 0.2890455 -0.4825218 0.2849592 -0.3694039 0.2873836 -0.3815883 0.1827654 -0.3190722 0.183708 -0.555649 0.1820061 -0.5190446 0.1302088 -0.4674994 0.1298697
365 -0.2853208 0.2860265 -0.3718742 0.2883707 -1.329866 0.3242249 -0.6167404 0.3248163 -0.4706044 0.3088329 -0.4742095 0.1850391 -0.7470345 0.1990863 -0.3732784 0.1848354 -0.2529578 0.134659 -0.5126097 0.1388915
366 -0.2869696 0.286866 -0.3528071 0.2979685 0.2608728 0.2954029 -0.7271535 0.2962491 -0.3672695 0.2865285 -0.6991481 0.194507 -0.4879239 0.195111 -0.6252568 0.1882261 -0.4665559 0.1285592 -0.2896142 0.1327774
367 -0.3898064 0.2954577 -0.4586966 0.2901959 -1.022329 0.3222412 -0.5531011 0.2938705 -0.4454704 0.2858018 -0.3117796 0.1865855 -0.3261278 0.196526 -0.6658139 0.1947925 -0.4937451 0.1324362 -0.425781 0.1324409
368 -0.6090641 0.3094803 -0.7927086 0.3212122 -0.8553787 0.2976293 -0.6626105 0.3006705 -0.3627787 0.2847225 -0.2457035 0.1812413 -0.5607653 0.1828968 -0.5118946 0.204187 -0.6774494 0.1324363 -0.3718233 0.1304358
369 -0.315081 0.3008638 -0.8153413 0.2977101 -0.3254224 0.3058744 -0.4773459 0.2963135 -0.5861751 0.330531 -0.5357328 0.1938148 -0.5686782 0.1815134 -0.4400089 0.1848313 -0.5137534 0.132861 -0.4453217 0.128999
370 -0.3654598 0.2858018 -0.2282587 0.3026137 -0.6096925 0.2873836 -0.7053673 0.3112217 -1.208848 0.3249025 -0.6518655 0.1871627 -0.337389 0.2062004 -0.4400089 0.1848313 -0.3980207 0.1475335 -0.4933062 0.1430556
371 -0.4841097 0.2854539 -1.145132 0.3210676 -0.7534605 0.302192 -0.5478424 0.2923799 -0.8967461 0.3239518 -0.4702705 0.187702 -0.3130918 0.1984531 -0.3421173 0.1809673 -0.5668414 0.1376092 -0.3695902 0.1331414
372 -0.3342021 0.2898054 -0.7939519 0.3018934 -0.4361539 0.2967999 -0.6760944 0.3152225 -0.467023 0.2929382 -0.3599375 0.1857442 -0.3199379 0.1890642 -0.4779378 0.1929998 -0.6287611 0.1443212 -0.5705831 0.1285787
373 -0.4545394 0.3200329 -0.4719207 0.2945429 -0.5564203 0.307278 0.5001261 0.3188943 -0.6902189 0.2878348 -0.2953843 0.1815166 -0.7022943 0.1826518 -0.5084899 0.1852632 -0.4474232 0.1435816 -0.168288 0.1331972
374 -0.8167611 0.3068109 -0.6962384 0.3330662 -0.6190392 0.2897517 -1.225952 0.3205583 -0.6479829 0.2871211 -0.2811674 0.1940787 -0.5867928 0.1999654 -0.1617462 0.2012664 -0.6232663 0.1338408 -0.3724096 0.1290589
375 -0.4586966 0.2901959 -0.5790339 0.2897793 -0.3898064 0.2954577 -0.5658078 0.2862242 -0.2864375 0.3097805 -0.3833899 0.1873995 -0.2936881 0.1862871 -0.4435489 0.1856044 -0.3497836 0.127889 -0.6742814 0.1295239
376 -0.524308 0.285652 -0.2811674 0.3068654 -0.4895482 0.2871321 -0.8153413 0.2977101 -0.8574502 0.3064599 -0.5126097 0.1964222 -0.436835 0.1806146 -0.3083742 0.1909807 -0.3914602 0.1424117 -0.7398774 0.1505186
377 -0.3342021 0.2898054 -0.7641174 0.3045893 -0.4440081 0.285313 -0.5336403 0.3142937 -0.315081 0.3008638 -0.551993 0.2083274 -0.6554069 0.1827204 -0.5870359 0.1846254 -0.3309506 0.1306226 -0.387117 0.1316612
378 -0.7291634 0.2878092 -0.2451225 0.2862242 -0.2247552 0.3002558 -0.6135329 0.2989429 -0.5001261 0.3188943 -0.2440643 0.180628 -0.5921511 0.1912544 -0.7123314 0.2083734 -0.3705214 0.1483906 -0.4927972 0.1288563
379 -0.4795731 0.3119123 -0.654222 0.2985827 -0.4971494 0.302717 -0.4309984 0.2949691 -0.5050743 0.3052547 -0.1472957 0.1810081 -0.5599115 0.1984362 -0.535119 0.1840954 -0.6288383 0.1455552 -0.2295669 0.1282037
380 -0.8685277 0.2923799 -0.2818511 0.2842501 -0.6590445 0.2897793 -0.5353588 0.2888231 -0.760999 0.3138466 -0.4845899 0.2070001 -0.5764031 0.1885049 -0.681311 0.1866364 -0.5677427 0.14264 -0.4268203 0.1326088
381 -0.3315461 0.2886245 -0.5531011 0.2938705 -0.4192584 0.3068198 -0.9544425 0.2938705 -0.8401246 0.294562 -0.1825886 0.182343 -0.5966277 0.1809177 -0.6151016 0.1893295 -0.3629727 0.1303426 -0.6693953 0.1324564
382 -0.760114 0.294562 -0.4841097 0.2854539 -0.5075144 0.2926302 -0.3690975 0.3049687 -0.7334496 0.3180802 -0.5579724 0.2095352 -0.4319059 0.2092561 -0.5484216 0.2036111 -0.451597 0.1410461 -0.3969331 0.1434399
383 -0.7271535 0.2962491 -0.3577496 0.3001064 -0.2438211 0.2854539 -0.5126097 0.2941773 -1.265666 0.3134884 -0.2757059 0.1859987 -0.3444292 0.1815929 -0.5768082 0.2092064 -0.3875662 0.1435567 -0.3598577 0.1346177
384 -1.202384 0.3483266 -0.4953214 0.2889063 -0.3525602 0.3187087 -0.09716375 0.3118046 -0.5234441 0.2854031 -0.2936881 0.1862871 -0.4460134 0.1981753 -0.4436925 0.1933883 -0.5533373 0.1325128 -0.4845873 0.1417159
385 -0.3654598 0.2858018 -0.4795731 0.3119123 -0.7127714 0.3025479 -0.3200199 0.3032655 -0.2962658 0.2915595 -0.5141857 0.1832305 -0.2736509 0.1914222 -0.410692 0.1898435 -0.8936749 0.1357994 -0.4786372 0.1291324
386 -1.505585 0.3330614 -0.4624058 0.3059994 -1.545118 0.3697701 -0.4295414 0.3299158 -0.6466272 0.2867945 -0.5526766 0.19364 -0.7025076 0.1923711 -0.4851765 0.1839253 -0.4051717 0.1396183 -0.4077278 0.1367981
387 -0.6631313 0.3118803 -0.6090641 0.3094803 -0.3999856 0.2994219 -1.035623 0.2945429 -0.5126097 0.2941773 -0.4141845 0.2047358 -0.6571428 0.193397 -0.3448838 0.1911727 -0.3534735 0.135108 -0.4074752 0.130825
388 -0.4626235 0.2914915 -0.6718492 0.3029629 -0.7032996 0.3003124 0.2578291 0.2936493 -0.6962384 0.3330662 -0.36435 0.1825474 -0.3718233 0.184464 -0.2737529 0.1982326 -0.3093913 0.1278742 -0.1049519 0.1270978
389 -0.9115175 0.3088833 -0.7625757 0.337204 -0.3448405 0.3151017 -0.9949339 0.2941773 -0.4971494 0.302717 -0.3741508 0.1809219 -0.2251617 0.1795395 -0.3690975 0.1837668 -0.5371868 0.1360407 -0.2322342 0.1313363
390 0.293513 0.2901766 -0.4120725 0.2881745 -0.5389965 0.3021089 -0.4586966 0.2901959 -0.5245245 0.2977749 -0.3333027 0.1878542 -0.5638202 0.1834274 -0.4351577 0.1914393 -0.4072747 0.1322028 -0.4368763 0.1469952
391 -0.5773154 0.3134123 -1.05341 0.3373007 -0.7081851 0.291939 -0.1473247 0.3136154 -0.4626235 0.2914915 -0.2736509 0.1914222 -0.1949661 0.1804109 -0.3815323 0.1869305 -0.3908424 0.1294173 -0.2818275 0.1397668
392 -0.3672695 0.2865285 -0.4221322 0.2918008 -0.6122595 0.288035 -0.6122595 0.288035 -0.6281424 0.2920488 -0.5683241 0.1870858 -0.2948579 0.1924664 -0.4254574 0.1853044 -0.3946542 0.1329793 -0.7063334 0.1295635
393 -1.039189 0.344036 -0.9409833 0.3333968 -0.3528071 0.2979685 -0.3405208 0.292599 -0.4122448 0.3041433 -0.3199379 0.1890642 -0.3083742 0.1909807 -0.7300907 0.1992564 -0.5640935 0.1361014 -0.8430062 0.135713
394 -0.4971494 0.302717 -0.9844669 0.2993645 -0.5663955 0.3102149 -0.3371881 0.2911283 -0.6209634 0.3410541 0.08269172 0.1818984 -0.5529958 0.1843764 -0.372595 0.1890773 -0.3568225 0.1292032 -0.2142131 0.136667
395 -0.7887141 0.310103 -0.6466272 0.2966868 -0.4495429 0.2871599 -0.05264373 0.3245123 -0.6096925 0.2873836 -0.3130918 0.1819417 -0.2946479 0.1987649 -0.4499169 0.1834108 -0.6046658 0.1297709 -0.5683241 0.1322897
396 -1.085974 0.3033001 -0.8744783 0.3014633 -0.3254224 0.2858859 -0.2864375 0.3097805 -0.6513001 0.3088166 -0.3716225 0.193558 -0.235554 0.1906624 -0.6070555 0.1938376 -0.3082543 0.1311723 -0.5439366 0.132384
397 -0.5389965 0.2898623 -0.8639649 0.2914915 -0.3105711 0.2986563 -0.5790339 0.2897793 -0.5804962 0.3015667 -0.3350587 0.1883605 -0.1709341 0.1950728 -0.3853158 0.1836838 -0.4192584 0.137214 -0.5422714 0.1332664
398 -0.3027199 0.2947797 -0.2247552 0.3002558 -0.2247552 0.3002558 -0.5773154 0.3134123 -0.3483067 0.296011 -0.4062667 0.2026922 -0.5420444 0.1824263 -0.5148037 0.1864743 -0.2901508 0.129012 -0.6153695 0.1291656
399 -0.7882278 0.2920488 -0.5245245 0.2977749 -0.7882278 0.2920488 -0.221555 0.2980871 -0.5891575 0.3039774 -0.3027522 0.1838095 -0.2923452 0.1858528 -0.6111366 0.1945419 -0.4702908 0.1440797 -0.3936165 0.1313211
400 -0.5880407 0.2921864 -0.4706044 0.3088329 -0.293513 0.2901766 -1.294263 0.3402119 -0.5546261 0.3369636 -0.5572821 0.1881127 -0.3342021 0.183289 -0.3920628 0.1989865 -0.2860782 0.1361787 -0.4851707 0.131222
401 -0.9546172 0.3012501 -0.6204627 0.3126092 -0.7346469 0.3076892 -0.2113988 0.2911051 -0.895384 0.2976024 -0.3436096 0.1813713 -0.463756 0.1863361 -0.6118731 0.1978092 -0.4072747 0.1322028 -0.3243576 0.1428895
402 -0.4480718 0.3010011 -0.4429177 0.2849481 -0.654222 0.2985827 -0.4269293 0.3097273 0.4353181 0.3128842 -0.5197488 0.1812778 -0.6576641 0.1880698 -0.6930972 0.1884069 -0.5895045 0.1298807 -0.5397852 0.129731
403 -0.6590445 0.2897793 -0.5314187 0.2998443 -0.5473104 0.3045818 -1.005963 0.3033001 -0.5050743 0.3052547 -0.6070555 0.1938376 -0.3747968 0.1852222 -0.4537826 0.1878265 -0.2966085 0.1387104 -0.2537368 0.1348692
404 -0.545017 0.3178497 -0.4706044 0.3088329 -0.4440081 0.285313 -0.4953214 0.2889063 -0.6397767 0.2949719 -0.3402367 0.1804571 -0.6268709 0.2004303 -0.2490494 0.2133116 -0.2258426 0.129496 -0.3585184 0.1295182
405 -0.8299061 0.3096375 -0.3315461 0.2886245 -0.3854117 0.2937334 -0.6090641 0.3094803 -0.7760348 0.2894941 -0.5814973 0.1836896 -0.4246797 0.1976003 -0.4750584 0.1887016 -0.4871837 0.1315077 -0.6223541 0.1327608
406 -0.96096 0.3187736 -0.5891575 0.3039774 -0.9409833 0.3333968 -0.3342021 0.2898054 -0.3654598 0.2858018 -0.4982323 0.19349 -0.3581381 0.1809418 -0.5118946 0.204187 -0.3026161 0.1357829 -0.5403226 0.1319157
407 -1.112674 0.3079618 -0.7495613 0.3219938 -0.5336403 0.3142937 -0.2679025 0.2994175 0.6216882 0.301088 -0.4537826 0.1878265 -0.3016683 0.1834738 -0.3516936 0.193102 -0.4723343 0.1383806 -0.4400089 0.1306955
408 -0.5753641 0.2887954 -0.1624307 0.2851465 -0.5589572 0.2955253 -0.4192584 0.3068198 -0.8072925 0.2960321 -0.3748912 0.1811061 -0.5733641 0.1941653 -0.5248374 0.1988945 -0.5336403 0.1405564 -0.3912448 0.1354813
409 -0.5473104 0.3045818 -0.9900362 0.2933054 -0.3718742 0.2883707 -0.6023722 0.320684 -0.4353181 0.3128842 -0.4264543 0.1935941 -0.5428565 0.1855038 -0.3555358 0.1995758 -0.3690975 0.1363861 -0.3503993 0.138139
410 -0.7495613 0.3219938 -0.6737291 0.2932916 -1.058607 0.3055311 -0.7537718 0.2931823 -0.6947134 0.2982805 -0.1283152 0.1915625 -0.5658805 0.1928026 -0.5774623 0.2054431 -0.4799614 0.1293196 -0.2081765 0.1410065
411 -0.6466272 0.2966868 -0.654222 0.2985827 -0.5531011 0.2938705 -0.4626235 0.2914915 -0.589272 0.3168931 -0.3577496 0.1898039 -0.1583467 0.1877096 -0.2950847 0.1867378 -0.6080559 0.148027 -0.1691804 0.1412135
412 -0.3804638 0.331482 -0.4624058 0.3059994 -0.880162 0.2946437 -0.3292056 0.2875804 -0.3254224 0.3058744 -0.4362613 0.1804912 -0.4841894 0.2024549 -0.3888258 0.180589 -0.2543817 0.1326773 -0.4586535 0.1406432
413 -0.5001261 0.3188943 -1.533439 0.351932 -0.5431499 0.291046 -0.3610133 0.3226208 -0.4899189 0.3003895 -0.4390215 0.1965465 -0.3063034 0.1849058 -0.3261278 0.196526 -0.3341724 0.1330104 -0.4895482 0.1284094
414 -0.2811674 0.3068654 -0.7058862 0.3228518 -0.7534605 0.302192 -0.784119 0.2997678 -0.09716375 0.3118046 -0.1794477 0.1896136 -0.5579724 0.2095352 -0.3237009 0.1803207 -0.3826743 0.138952 -0.4530932 0.1397476
415 -0.2763448 0.3041763 -0.3631672 0.3024355 -0.4221322 0.2918008 -0.6281424 0.2920488 -0.7887141 0.310103 -0.3882398 0.1804486 -0.7303136 0.2081157 -0.6251748 0.1910034 -0.2045456 0.1280391 -0.3056403 0.138611
416 -0.9389821 0.3233179 -0.6135329 0.2989429 -0.3254224 0.2858859 -0.960462 0.3277531 -0.3989077 0.3174592 -0.2525908 0.1837974 -0.4887347 0.2034554 -0.4658415 0.1867741 -0.2499505 0.1292742 -0.4680586 0.1437198
417 -0.2719337 0.3016982 -0.4269293 0.3097273 0.3746934 0.2894941 -0.6204627 0.3126092 -0.3946542 0.2973507 -0.3377177 0.1797703 -0.7123314 0.2083734 -0.7703451 0.1877026 -0.6452744 0.1316132 -0.5780886 0.1285273
418 -0.4703789 0.3460139 -0.8353772 0.3205028 -0.7032996 0.3003124 -0.7200766 0.2946437 -0.5126097 0.2941773 -0.4829574 0.1903428 -0.4074752 0.1850145 -0.4796444 0.2058832 -0.5065583 0.1342373 -0.4250532 0.1283671
419 -0.6626105 0.3006705 -0.2869696 0.286866 -0.9544425 0.2938705 -0.7927086 0.3212122 -0.8072925 0.2960321 -0.3254674 0.185581 -0.6247707 0.1828968 -0.6997622 0.1894052 -0.4687753 0.1288787 -0.3990129 0.1322488
420 -0.4418328 0.2988071 -1.096079 0.3366252 -0.2135741 0.2926136 -0.4624058 0.3059994 -0.5217249 0.3442183 -0.3598577 0.1903782 -0.321387 0.2011262 -0.2858399 0.1894451 -0.4867078 0.1420425 -0.5520526 0.1292436
421 -0.5663955 0.3102149 -0.2550738 0.2920538 -0.7472144 0.3106302 -0.784119 0.2997678 -0.5050743 0.3052547 -0.3405208 0.1850559 -0.372595 0.1890773 -0.3954711 0.1821755 -0.3275149 0.1334363 -0.3946542 0.1329793
422 -0.6153695 0.2888231 -0.6153695 0.2888231 -0.4899189 0.3003895 -0.8401246 0.294562 -0.5232481 0.3110241 -0.2987026 0.1825524 -0.4126313 0.1823855 -0.6279661 0.1859826 -0.4507336 0.1350289 -0.4561802 0.1450471
423 -0.7127714 0.3025479 -0.8574502 0.3064599 -0.5322168 0.2879237 -1.288354 0.3106916 -0.4988949 0.290001 -0.3144464 0.1928926 -0.418191 0.1800108 -0.6582687 0.196455 -0.1743026 0.1392991 -0.3977929 0.1335252
424 -0.7391835 0.290001 -0.8776132 0.319862 -0.6405034 0.3060092 -0.2550738 0.2920538 -0.6955085 0.2890455 -0.2485694 0.1887546 -0.3888258 0.180589 -0.5127253 0.1829557 -0.478002 0.1290425 -0.4008319 0.129717
425 -0.315081 0.3008638 -0.6329471 0.3160189 -0.2839227 0.285313 -0.5804962 0.3015667 -0.4586966 0.2901959 -0.1778985 0.1799678 -0.4237242 0.1812438 -0.5357328 0.1938148 -0.3064914 0.1346222 -0.6070555 0.1370639
426 -0.3946542 0.2973507 -0.4795731 0.3119123 -0.9946226 0.3012235 -0.6061358 0.2969906 -0.8048065 0.3042357 -0.163967 0.1910309 -0.5850972 0.1842981 -0.5105058 0.1856504 -0.4680586 0.1437198 -0.4806507 0.1294169
427 -0.2550738 0.2920538 -0.7927086 0.3212122 -0.7357068 0.2892411 -0.3610133 0.284009 -0.5994486 0.29522 -0.3623116 0.1820218 -0.5381052 0.1978169 -0.4829574 0.1903428 -0.5290381 0.1373604 -0.4330203 0.1445322
428 -1.252763 0.3406926 -0.4192584 0.3068198 -0.679975 0.2947801 -0.5726107 0.2993628 -0.9520088 0.3085912 -0.5580447 0.1824235 -0.3254674 0.185581 -0.3961421 0.1905945 -0.5173439 0.1299832 -0.4082503 0.1323668
429 -0.1986707 0.3155851 -0.3946542 0.2973507 -0.3371881 0.2911283 -0.3854117 0.2937334 -0.4150215 0.2892411 -0.410692 0.1898435 -0.2919349 0.2048329 -0.8362376 0.1858025 -0.501389 0.1311638 -0.2148454 0.1468247
430 -0.5314187 0.2998443 -0.8109302 0.325427 -0.8353772 0.3205028 -0.4971494 0.302717 -1.083763 0.3175872 -0.321387 0.2011262 -0.5494138 0.1897849 -0.5564203 0.1943397 -0.7237418 0.1329739 -0.3586574 0.1417579
431 -0.6737291 0.2932916 -0.4473122 0.2864166 -0.6061358 0.2969906 -0.7882278 0.2920488 -0.7761181 0.3173638 -0.3365637 0.183951 -0.36435 0.1825474 -0.4181265 0.1960082 -0.3651877 0.1339512 -0.4489663 0.1333943
432 -0.4833325 0.2982589 -0.960462 0.2949719 -0.3105711 0.2986563 -0.4841097 0.2854539 -0.7937771 0.2932096 -0.1788731 0.1804654 -0.6061358 0.1878333 -0.7865342 0.1945983 -0.2473118 0.1285811 -0.2164927 0.1317608
433 -0.6781093 0.32822 -0.3654598 0.2858018 -0.8153413 0.2977101 -0.4825218 0.2849592 -0.8540775 0.3246537 -0.1679427 0.1833946 -0.8876942 0.2087194 -0.4996523 0.1901933 -0.3623116 0.1287088 -0.4526655 0.1326425
434 -0.2572955 0.3215458 -0.2503657 0.289309 -0.5126097 0.2941773 -0.4795731 0.3119123 -0.5295536 0.2871599 -0.3962338 0.1863532 -0.3378263 0.1843042 -0.7026523 0.2036677 -0.2705136 0.1302567 -0.3177316 0.1279291
435 -0.5473104 0.3045818 -0.3371881 0.2911283 -0.4899189 0.3003895 -1.195293 0.3018934 -0.6820032 0.305474 -0.5254775 0.1918349 -0.7529582 0.1999742 -0.6325541 0.1922251 -0.3689693 0.1314459 -0.4066701 0.1306911
436 -1.208311 0.3105885 -0.4988949 0.290001 -0.4988949 0.290001 -0.7761181 0.3173638 -0.8574502 0.3064599 -0.6086869 0.1911257 -0.2652373 0.1950738 -0.4338031 0.1834703 -0.5055663 0.1317388 -0.3160335 0.1347581
437 -0.7137665 0.2932096 -0.3292056 0.2875804 -0.5273549 0.2865285 -0.7231952 0.3050014 -0.760114 0.294562 -0.4406017 0.1814229 -0.4025203 0.2017198 -0.5084899 0.1852632 -0.3194866 0.1464834 -0.5864335 0.1492598
438 -0.7231952 0.3050014 -0.7437909 0.3000119 -0.3654598 0.2858018 -0.6405034 0.3060092 -0.9044563 0.2993645 -0.5741198 0.2011234 -0.7907857 0.1861033 -0.362044 0.1909724 -0.1944242 0.1273909 -0.3631672 0.1352533
439 -0.6281424 0.2920488 -0.7231952 0.3050014 -0.483116 0.2851465 -0.4706044 0.3088329 -0.4353181 0.3128842 -0.3139681 0.1822015 -0.4726184 0.1881926 -0.6991532 0.1844891 -0.7555106 0.1353508 -0.5197488 0.1281827
440 -1.234496 0.3294698 -0.3105711 0.2986563 -0.5182681 0.2958893 -0.7927086 0.3212122 -0.5478424 0.2923799 -0.5790339 0.1920079 -0.7091812 0.2047205 -0.6707658 0.1901125 -0.3609766 0.1299737 -0.4302451 0.1304675
441 -0.9177934 0.3284468 -0.6306572 0.3034386 -0.3200199 0.3032655 -0.5230132 0.2852747 -0.4833325 0.2982589 -0.5942592 0.1947087 -0.3139681 0.1822015 -0.3873262 0.1883902 -0.3962338 0.1317716 -0.361373 0.1285374
442 -0.5245245 0.2977749 -0.7081851 0.291939 0.3483067 0.296011 -0.4221322 0.2918008 -0.4922115 0.2879515 -0.4137951 0.1826518 -0.2898315 0.1971017 -0.5856613 0.1963931 -0.5934467 0.1435037 -0.4298058 0.1278589
443 -0.2763448 0.3041763 -0.315081 0.3008638 -0.3746934 0.2894941 -0.7200766 0.2946437 -1.026799 0.3319571 -0.2472106 0.188231 -0.3025512 0.2014682 -0.4821999 0.1866681 -0.4626235 0.130359 -0.463727 0.1281512
444 -0.7481904 0.2919664 -0.978468 0.3057413 -0.7537718 0.2931823 -0.7334496 0.3180802 -0.3292056 0.2875804 -0.1988028 0.2105025 -0.1945982 0.1802392 -0.5659017 0.1896617 -0.4702908 0.1440797 -0.5832515 0.1300979
445 -0.7901394 0.3578191 -0.32396 0.2852287 -0.830971 0.3300504 -0.6135329 0.2989429 -0.4480718 0.3010011 -0.3577496 0.1898039 -0.6322469 0.1951046 -0.3944713 0.1859243 -0.2335281 0.1397442 -0.5790339 0.1295932
446 -0.3212048 0.2839853 -0.7625757 0.337204 -0.6554069 0.2889063 -0.3577496 0.3001064 -0.9202636 0.2947801 -0.2653992 0.1824344 -0.5025459 0.1907737 -0.5187198 0.193997 -0.4981422 0.1295894 -0.5288711 0.1326167
447 -1.05341 0.3373007 -0.8856259 0.3036982 -0.3442197 0.294224 -0.5773154 0.3134123 -0.7271535 0.2962491 -0.3961421 0.1905945 -0.3050687 0.1845253 -0.4181447 0.1916237 -0.2928607 0.1477566 -0.3373394 0.1354718
448 -1.002152 0.3183208 -0.9444616 0.2993378 -0.7437909 0.3000119 -0.5934292 0.2936214 -0.6458165 0.2865991 -0.5292169 0.1997753 -0.5494453 0.1837455 -0.4578293 0.1925257 -0.5643276 0.1384606 -0.4999181 0.1370622
449 -0.5217249 0.3442183 -0.3528071 0.2979685 -0.6737291 0.2932916 0.2763448 0.3041763 -0.4773459 0.2963135 -0.4990481 0.1974452 -0.4940228 0.1824684 -0.5204857 0.2018945 -0.507646 0.1452417 -0.5845424 0.132232
450 -0.6626105 0.3006705 -0.4480718 0.3010011 -0.4833325 0.2982589 -0.5589572 0.2955253 -0.8708284 0.3092315 -0.3276456 0.1913809 -0.346414 0.202706 -0.8742705 0.1927437 -0.4373432 0.1418814 -0.468979 0.1351227
451 -0.7357068 0.2892411 -0.4521741 0.288035 -0.4586966 0.2901959 -0.4309984 0.2949691 -0.7834385 0.291046 -0.176343 0.1791759 -0.6930972 0.1884069 -0.3248039 0.1806344 -0.5253139 0.1278769 -0.6314591 0.1400287
452 -0.3854117 0.2937334 -0.8472979 0.2960051 -0.4269293 0.3097273 -0.4586966 0.2901959 -0.2550738 0.2920538 -0.2853458 0.1955417 -0.4418328 0.2117575 -0.4275725 0.1820963 -0.486574 0.145083 -0.4495429 0.1284218
453 -0.9409833 0.3333968 -0.5804962 0.3015667 -0.5753641 0.2887954 -0.3639654 0.2852006 -0.3898064 0.2954577 -0.4281366 0.1984364 -0.2259939 0.1798736 -0.6177234 0.1817794 -0.4655471 0.1284138 -0.5904386 0.1350266
454 -0.922333 0.3397573 -0.8342799 0.3016509 0.6466272 0.2966868 -0.5245245 0.2977749 -0.6336275 0.2934287 -0.4867128 0.1875839 -0.5375574 0.1816236 -0.4265185 0.1818631 -0.5405676 0.1389453 -0.2719337 0.128592
455 -0.942893 0.3151601 -0.6397767 0.2949719 -0.5431499 0.291046 -0.5232481 0.3110241 -0.6336275 0.2934287 -0.3543834 0.1799656 -0.4068029 0.1978621 -0.5471674 0.1960083 -0.1349754 0.1389399 -0.2807934 0.1287495
456 -0.5431499 0.291046 -0.4480718 0.3010011 -0.4150215 0.2892411 -0.8001193 0.2945349 -0.7937771 0.2932096 -0.3686257 0.1880372 0.1383746 0.1989601 -0.3010963 0.1945325 -0.4846005 0.1335692 -0.5163088 0.13321
457 -0.3371881 0.2911283 -0.9141145 0.2936214 -0.5531011 0.2938705 -0.5050743 0.3052547 -0.5322168 0.2879237 -0.2499505 0.1828213 -0.4397266 0.1812353 -0.5751069 0.1853804 -0.4558801 0.1293629 -0.5293706 0.1399568
458 -0.9273406 0.2961133 -0.4899189 0.3003895 -0.6616312 0.3237908 -0.4545394 0.3200329 -0.5473104 0.3045818 -0.5494453 0.1837455 -0.5600447 0.18861 -0.4324253 0.1831671 -0.5934292 0.1313115 -0.5080821 0.1332522
459 -0.8540775 0.3246537 -0.5722221 0.2879515 -1.324925 0.3166658 -0.5994486 0.29522 -1.393842 0.3088833 -0.1865371 0.1933508 -0.5126097 0.1964222 -0.378029 0.1860435 -0.6076549 0.1360681 -0.6110392 0.1295814
460 -0.215982 0.2942749 -0.7058862 0.3228518 -0.3577496 0.3001064 -0.6513001 0.3088166 -0.6027123 0.3355536 -0.4058822 0.1846397 -0.7559528 0.1926883 -0.6015738 0.2062622 -0.4506424 0.1298001 -0.3092821 0.1295875
461 -0.3946542 0.2973507 -0.2427307 0.284807 -0.7328875 0.2886245 -0.4833325 0.2982589 -0.5336403 0.3142937 -0.6095222 0.1856495 -0.7382437 0.1877794 -0.35322 0.2047449 -0.480076 0.1316888 -0.3714842 0.1319064
462 -0.7834385 0.291046 -0.6760944 0.3152225 -0.4873176 0.2864445 -0.9353894 0.2976293 -0.5574813 0.3217194 -0.5357328 0.1938148 -0.4188472 0.1801591 -0.3839503 0.2020376 -0.2642553 0.1376784 -0.3622925 0.130217
463 -0.8028461 0.31326 -0.3826743 0.310706 0.3654598 0.2858018 -0.7793819 0.2901959 -0.7672552 0.2961133 -0.178199 0.1801228 -0.2151924 0.1821447 -0.7300907 0.1992564 -0.4968645 0.1340909 -0.5346913 0.1290802
464 -0.6616312 0.3237908 -0.5910047 0.3487224 -0.5994486 0.29522 -0.7053673 0.3112217 -0.6306572 0.3034386 -0.4095055 0.1816688 -0.3516059 0.1835236 -0.7470345 0.1990863 -0.4174413 0.1401109 -0.2886264 0.130564
465 -0.3254224 0.2858859 -0.5473104 0.3045818 -0.4263339 0.2933054 -0.7437909 0.3000119 -0.4953214 0.2889063 -0.406162 0.1887552 -0.6279505 0.1943819 -1.079611 0.2013648 -0.3990129 0.1322488 -0.3384234 0.1356948
466 -0.5137517 0.3080179 -0.5934292 0.2936214 -0.9115175 0.3088833 -0.7231952 0.3050014 -0.6325226 0.3293263 -0.4213445 0.1967912 -0.3063034 0.1849058 -0.5764031 0.1885049 -0.3350587 0.133191 -0.5895045 0.1298807
467 -0.8744783 0.3014633 -0.5986563 0.3066096 -0.4552198 0.2890455 -0.8236369 0.2912403 -0.4624058 0.3059994 -0.5165396 0.1972189 -0.535119 0.1840954 -0.3306335 0.204071 -0.6583885 0.1286778 -0.3504864 0.1280207
468 -0.2503657 0.289309 -0.5658078 0.2862242 -0.7346469 0.3076892 -0.8236369 0.2912403 -0.7032996 0.2908252 -0.2056821 0.1853449 -0.5173439 0.183824 -0.5644765 0.1993018 -0.6908427 0.149514 -0.5240726 0.1319778
469 -0.7230001 0.3272052 -0.6554069 0.2889063 -0.978468 0.3057413 -0.5118946 0.322848 -0.4361539 0.2967999 -0.2145649 0.1818763 -0.2887975 0.1794447 -0.3632101 0.1866106 -0.5067476 0.1367529 -0.7395943 0.1363239
470 -0.467023 0.2929382 -0.3371881 0.2911283 -0.3064596 0.2966316 -0.487015 0.3524272 -0.6869552 0.29644 -0.4886048 0.1814144 -0.2129653 0.1886293 -0.4317199 0.1993003 -0.350933 0.1312379 -0.3628009 0.1287981
471 -0.2418458 0.2842782 -1.022329 0.3222412 -0.2408508 0.3109525 -0.5531011 0.2938705 8.751228e-16 0.3031694 -0.2239464 0.1934831 -0.6445282 0.1886322 -0.7125243 0.1888271 -0.4979107 0.1437599 -0.4495522 0.1439389
472 -0.5001261 0.3188943 -0.2525908 0.2906091 -0.5029516 0.2912403 -0.467023 0.2929382 -0.784119 0.2997678 -0.4229127 0.1810637 -0.5603024 0.1950637 -0.4829574 0.1903428 -0.2291134 0.1445881 -0.6643882 0.1346615
473 -0.8856259 0.3036982 -0.5336403 0.3142937 -0.5389965 0.2898623 -0.7081851 0.291939 -0.8353772 0.3205028 -0.5055486 0.1816011 -0.3276456 0.1913809 -0.4165121 0.18713 -0.3803352 0.1367869 -0.4464311 0.1417807
