1 -0.4773459 0.2963135 -0.5773154 0.3134123 -0.6820032 0.305474 -0.8048065 0.3042357 -0.8001193 0.2945349 -0.5055486 0.1879504 -0.5088189 0.1956518 -0.4619709 0.1825247 -0.3465798 0.1373633 -0.4345619 0.1465877
2 -0.298493 0.3163606 -0.9923369 0.3083539 -0.942893 0.3151601 -0.5790339 0.2897793 -0.6737291 0.2932916 -0.2807934 0.1820793 -0.4601318 0.1971035 -0.4248367 0.2023755 -0.3405208 0.1308542 -0.4645928 0.1294468
3 -0.9674422 0.2962491 -0.5050743 0.3052547 -0.8744783 0.3014633 -0.5861751 0.330531 -0.4480718 0.3010011 -0.3320516 0.1826845 -0.3763798 0.1856248 -0.3428392 0.1811628 -0.2752569 0.1293878 -0.4844114 0.1323119
4 -0.6023722 0.320684 -0.6498909 0.3342574 -0.4624058 0.3059994 -0.9194603 0.3192865 -0.9145799 0.3013299 -0.4324253 0.1831671 -0.458552 0.181818 -0.4549134 0.1918832 -0.2974173 0.1270285 -0.389073 0.1291146
5 -0.6947134 0.2982805 -0.8602013 0.3161355 -0.8776132 0.319862 -0.3342021 0.2898054 -1.034628 0.3012501 -0.5394073 0.1945213 -0.3470727 0.1917946 -0.615285 0.1839416 -0.3478451 0.1415474 -0.6153695 0.1380774
6 -0.5994486 0.29522 -0.4418328 0.334818 -0.7793819 0.2901959 -0.6737291 0.2932916 -0.5126097 0.2941773 -0.3130918 0.1984531 -0.8498456 0.1855244 -0.3873262 0.1883902 -0.3862557 0.1315099 -0.228941 0.1383481
7 -1.193574 0.3298508 -0.2962658 0.2915595 -0.5050743 0.3052547 -0.7053673 0.3112217 -0.7307103 0.2881479 -0.6628771 0.181475 -0.6060539 0.1824487 -0.3954236 0.1998681 -0.339527 0.1359216 -0.4268266 0.14345
8 -0.5880407 0.2921864 -0.5711536 0.3259342 -0.4988949 0.290001 -0.5726107 0.2993628 -0.5182681 0.2958893 -0.4108705 0.1858115 -0.4779378 0.1929998 -0.6800751 0.1970786 -0.4266859 0.1273763 -0.4698724 0.1302143
9 -0.5126097 0.2941773 -0.5126097 0.2941773 -0.6306572 0.3034386 -0.5994486 0.29522 -0.4549134 0.303394 -0.2811674 0.1940787 -0.1592 0.1882175 -0.36435 0.1825474 -0.4372983 0.1290125 -0.2815538 0.130884
10 -0.8342799 0.3016509 -0.7271535 0.2962491 -0.4073069 0.2864445 -0.3483067 0.296011 -0.6931472 0.3082206 -0.1769345 0.1794776 -0.7001027 0.1823376 -0.4155692 0.1910099 -0.3976965 0.1366325 -0.5941843 0.1333998
11 -0.545017 0.3178497 -0.5790339 0.2897793 -0.4552198 0.2890455 -0.679975 0.2947801 -0.4054651 0.2857738 -0.3599375 0.1857442 -0.3260862 0.1809986 -0.6378243 0.2023344 -0.4045404 0.1412251 -0.3813676 0.1405005
12 -0.6336275 0.2934287 -0.830971 0.3300504 -0.4776276 0.3284756 -0.7495613 0.3219938 -0.5589572 0.2955253 -0.3064914 0.1903846 -0.4748807 0.2048034 -0.5134508 0.1894967 -0.4813583 0.1295168 -0.4671318 0.1390079
13 -0.5314187 0.2998443 -1.368742 0.3623769 -0.8708284 0.3092315 -0.5531011 0.2938705 -0.2525908 0.2906091 -0.3717039 0.1803122 -0.3677104 0.1975791 -0.7514499 0.185105 -0.2401712 0.1361503 -0.3949503 0.1287299
14 -0.4706044 0.3088329 -0.545017 0.3178497 -0.4192584 0.3068198 -0.6616312 0.3237908 -0.4895482 0.2871321 -0.8937012 0.185128 -0.3427726 0.1905713 -0.7442553 0.2042753 -0.4135101 0.1378016 -0.4014914 0.1284698
15 -0.5663955 0.3102149 -0.3405208 0.292599 -0.4624058 0.3059994 -0.7053673 0.3112217 -0.4521741 0.288035 -0.5468939 0.1995343 -0.4549134 0.1810637 -0.3555033 0.1845651 -0.6910715 0.1395819 -0.3810097 0.1336391
16 -0.6886325 0.3611182 -0.2047944 0.2864799 -0.3814431 0.2921694 -0.7137665 0.2932096 -0.8183542 0.3167167 -0.335356 0.1836128 -0.364311 0.1915868 -0.784119 0.1895898 -0.6236629 0.1319568 -0.4996523 0.134487
17 -0.5001261 0.3188943 -0.3442197 0.294224 -0.4361539 0.2967999 -0.4586966 0.2901959 -0.6153695 0.2888231 -0.4061596 0.1808993 -0.4205754 0.1841975 -0.5826335 0.1926482 -0.4762171 0.1323509 -0.3806984 0.1305305
18 -0.4776276 0.3284756 -0.4480718 0.3010011 -0.4495429 0.2871599 -0.4521741 0.288035 -0.7733789 0.2889368 -0.5025459 0.1907737 -0.411529 0.182133 -0.5729951 0.1850159 -0.5513764 0.1502201 -0.2416906 0.1315856
19 -0.6616312 0.3237908 -0.5880407 0.2921864 -0.5137517 0.3080179 -0.5861751 0.330531 -0.9674422 0.2962491 -0.441539 0.1816236 -0.3888207 0.1981332 -0.5197488 0.1812778 -0.3051756 0.1407411 -0.5743515 0.1300011
20 -0.8081624 0.3361236 -0.5654467 0.2973528 -0.8236369 0.2912403 -0.6405034 0.3060092 -0.4795731 0.3119123 -0.2843489 0.183248 -0.4062667 0.2026922 -0.4141845 0.2047358 -0.4942875 0.1313328 -0.2480892 0.1384066
21 -0.6931472 0.3082206 -0.9389821 0.3233179 -1.05341 0.3373007 -1.526839 0.3059994 -0.3814431 0.2921694 -0.2314092 0.1889573 -0.6330297 0.1867946 -0.3633037 0.1822777 -0.4788968 0.1339969 -0.4504956 0.1323102
22 -0.4309984 0.2949691 -0.7760348 0.2894941 -0.5314187 0.2998443 -0.6590445 0.2897793 -0.4122448 0.3041433 -0.7825694 0.2016658 -0.2898155 0.1850322 -0.4845899 0.2070001 -0.36953 0.141972 -0.5674373 0.1343056
23 -0.545017 0.3178497 -0.4549134 0.303394 -0.7137665 0.2932096 -0.6190392 0.2897517 -0.4361539 0.2967999 -0.2824843 0.1826359 -0.5462377 0.1831744 -0.4418328 0.2065627 -0.4091374 0.1311011 -0.2792705 0.1283941
24 -1.105324 0.3138991 -0.467023 0.2929382 -0.5773154 0.3134123 -0.5431499 0.291046 -0.8530533 0.3351327 -0.2953843 0.1815166 -0.2948579 0.1924664 -0.6007796 0.1815929 -0.4869223 0.1280474 -0.4149749 0.1364839
25 -0.6061358 0.2969906 -0.7758389 0.30722 -0.784119 0.2997678 -0.2827681 0.2847225 -0.5295536 0.2871599 -0.4104874 0.1818942 -0.5197488 0.1812778 -0.7721054 0.2028367 -0.4279285 0.1371378 -0.4353181 0.1399261
26 -0.4309984 0.2949691 -0.5029516 0.2912403 -0.960462 0.3277531 -0.7641174 0.3045893 -0.5075144 0.2926302 -0.3934744 0.1817 -0.3297533 0.1920103 -0.6368803 0.1823064 -0.4680141 0.133666 -0.2262379 0.1296105
27 -0.6061358 0.2969906 -0.4773459 0.2963135 -0.3854117 0.2937334 -0.786716 0.330969 -0.7231952 0.3050014 -0.4887347 0.2034554 -0.4779378 0.1929998 -0.4101544 0.1987067 -0.3820651 0.1338299 -0.4718572 0.135557
28 -0.7939519 0.3018934 -0.8967461 0.3239518 -0.7346469 0.3076892 -0.8353772 0.3205028 -0.4263339 0.2933054 -0.2314424 0.1820548 -0.5658078 0.1810241 -0.4460134 0.1981753 -0.7247254 0.1298228 -0.3592744 0.1380494
29 -0.3898064 0.2954577 -0.5994486 0.29522 -0.6513001 0.3088166 -1.086045 0.3260623 -0.6190392 0.2897517 -0.3016683 0.1834738 -0.5357328 0.1938148 -0.5292169 0.1997753 -0.8029334 0.1375255 -0.434024 0.1285093
30 -0.4776276 0.3284756 -0.524308 0.285652 -0.7350414 0.298035 -0.786716 0.330969 -0.2763448 0.3041763 -0.4934507 0.20449 -0.2890457 0.2037966 -0.6346901 0.1897627 -0.3954236 0.1413281 -0.3694039 0.1285219
31 -0.6947134 0.2982805 -0.2458493 0.3142065 -0.4549134 0.303394 -0.6903022 0.3188695 -0.784119 0.2997678 -0.2965365 0.1872054 -0.1968516 0.1893866 -0.3254674 0.185581 -0.3369439 0.143458 -0.4043764 0.1429784
32 -1.177235 0.2989429 -0.8299061 0.3096375 -0.7481904 0.2919664 -0.8685277 0.2923799 -0.4495429 0.2871599 -0.321705 0.1797503 -0.2715092 0.1974047 -0.4221322 0.184551 -0.5299867 0.1339025 -0.2832675 0.1354959
33 -0.4922115 0.2879515 -0.6051274 0.2862234 0.4545394 0.3200329 -0.8318555 0.3418005 -0.5431499 0.291046 -0.3954711 0.1821755 -0.5302168 0.2038942 -0.5272032 0.1888386 -0.3125273 0.1320973 -0.4857929 0.1350076
34 -0.6626105 0.3006705 -0.901701 0.3156175 -0.6931472 0.3082206 -1.072637 0.3080399 -0.4295414 0.3299158 -0.4528476 0.1806344 -0.5981925 0.1865028 -0.3301048 0.1821357 -0.5134508 0.1339944 -0.3946439 0.1394237
35 -0.3303028 0.3331859 -0.9923369 0.3083539 -0.4899189 0.3003895 -0.950043 0.3458802 -0.4586966 0.2901959 -0.5447588 0.1829108 -0.2256866 0.1797503 -0.6786684 0.1862385 -0.391731 0.1371997 -0.4986771 0.1355984
36 -0.4719207 0.2945429 -0.7760348 0.2894941 -0.6616312 0.3237908 -0.6122595 0.288035 -0.7127714 0.3025479 -0.5773154 0.1948826 -0.7384347 0.1833092 -0.4418328 0.1889822 -0.6428853 0.1381639 -0.3944713 0.1314684
37 -0.6204627 0.3126092 -0.7752397 0.2978451 -0.3690975 0.3049687 -1.152382 0.3302879 -0.6466272 0.2966868 -0.3707292 0.1984139 -0.8082266 0.1976413 -0.3276456 0.1913809 -0.5339449 0.1368043 -0.4707196 0.1425734
38 -0.5322168 0.2879237 -0.5891575 0.3039774 -0.6479829 0.2871211 -0.9444616 0.2993378 -0.4073069 0.2864445 -0.4532006 0.1955431 -0.4857929 0.1909296 -0.7974789 0.198617 -0.4467772 0.1344086 -0.5208283 0.1304452
39 -0.7053673 0.3112217 -0.4773459 0.2963135 -0.4855078 0.2858859 -0.7761181 0.3173638 -0.4122448 0.3041433 -0.3654516 0.1828309 -0.5549036 0.1847149 -0.4372467 0.1879575 -0.2337202 0.1369618 -0.2904288 0.1309784
40 -0.5722221 0.2879515 -0.6681797 0.2919664 -0.5654467 0.2973528 -0.6122595 0.288035 -0.760999 0.3138466 -0.719822 0.209598 -0.6111366 0.1945419 -0.7515852 0.1920619 -0.4679618 0.1311437 -0.4828083 0.1385731
41 -0.950043 0.3458802 -0.5726107 0.2993628 -0.2550738 0.2920538 -0.6397767 0.2949719 -0.5663955 0.3102149 -0.5981925 0.1865028 -0.4248367 0.2023755 -0.5511769 0.1840534 -0.3496189 0.1399085 -0.4619132 0.1381913
42 -0.5722221 0.2879515 -0.4795731 0.3119123 -0.7939519 0.3018934 -0.96096 0.3187736 -0.5832515 0.2909078 -0.2996113 0.1881923 -0.4010596 0.1918155 -0.5055486 0.1816011 -0.5019293 0.1323983 -0.4553739 0.1305095
43 -0.6616312 0.3237908 -0.7231952 0.3050014 -0.7231952 0.3050014 -0.874646 0.3292112 -0.8283294 0.2921864 -0.2978064 0.1822732 -0.5793161 0.1890152 -0.4309984 0.1865548 -0.6438002 0.1323661 -0.4441409 0.1464606
44 -0.2962658 0.2915595 -0.7162282 0.3383806 -0.8856259 0.3036982 0.4899189 0.3003895 -0.4549134 0.303394 -0.6171491 0.1842424 -0.5248061 0.1822079 -0.6367032 0.1958528 -0.4455064 0.134209 -0.6623942 0.1299523
45 -0.7334496 0.3180802 -0.5473104 0.3045818 -0.6027123 0.3355536 -0.7495613 0.3219938 -0.4073069 0.2864445 -0.6093794 0.2006531 -0.3623116 0.1820218 -0.9051174 0.1884326 -0.3633037 0.1288898 -0.36435 0.1290805
46 -0.4549134 0.303394 -0.4988949 0.290001 -0.5389965 0.2898623 -0.8856259 0.3036982 -0.4039707 0.2852287 -0.3934744 0.1817 -0.3769515 0.1949847 -0.2620097 0.2012355 -0.7316179 0.1495684 -0.6134726 0.1346913
47 -0.2888775 0.2878348 -0.5050743 0.3052547 -0.7927086 0.3212122 -0.6554069 0.2889063 -0.6135329 0.2989429 -0.2556026 0.1849051 -0.5088189 0.1956518 -0.6380874 0.1824937 -0.4780376 0.1313951 -0.9935037 0.1431201
48 -0.6903022 0.3188695 -0.8644189 0.2994448 -0.5722221 0.2879515 -0.7495613 0.3219938 -0.4549134 0.303394 -0.4317199 0.1993003 -0.5814127 0.195625 -0.5182338 0.1809986 -0.333434 0.1278425 -0.5631038 0.1286355
49 -0.6216882 0.301088 -0.5389965 0.3021089 -0.8950133 0.2900198 -0.9409833 0.3333968 -0.3916718 0.3365049 -0.4035694 0.1970447 -0.4181265 0.1960082 -0.676035 0.2089165 -0.4318722 0.1393474 -0.6527058 0.1448922
50 -0.5832515 0.2909078 -0.8048065 0.3042357 -1.225952 0.3205583 -0.8353772 0.3205028 -0.5986563 0.3066096 -0.4857929 0.1909296 -0.4208153 0.1922586 -0.344669 0.2084749 -0.5485023 0.1482829 -0.3307903 0.1323194
51 -0.7758389 0.30722 -0.895384 0.2976024 -0.5589572 0.2955253 -0.4269293 0.3097273 -0.8472979 0.2960051 -0.3053816 0.2024287 -0.4798076 0.2014874 -0.6347364 0.1819735 -0.5627979 0.1446119 -0.4706202 0.1291438
52 -0.5726107 0.2993628 -0.3690975 0.3049687 -1.110882 0.3307829 -0.8644189 0.2994448 -0.5075144 0.2926302 -0.7772448 0.1842981 -0.7414407 0.1882331 -0.3894648 0.1807421 -0.4058822 0.13056 -0.4110007 0.1287019
53 -0.2962658 0.2915595 -0.7350414 0.298035 -0.3483067 0.296011 -0.4418327 0.2845825 -1.105324 0.3138991 -0.2719337 0.1908107 -0.4091374 0.185405 -0.6695774 0.1926077 -0.5181625 0.1424221 -0.1967103 0.1281437
54 -0.9860676 0.292599 -0.8967461 0.3239518 -0.4895482 0.2871321 0.3129272 0.324087 -0.6513001 0.3088166 -0.5029516 0.1841965 -0.2525908 0.1837974 -0.6211709 0.1848904 -0.6582687 0.12951 -0.5345698 0.1322574
55 -0.4473122 0.2864166 -0.6397767 0.2949719 -0.4626235 0.2914915 -0.4549134 0.303394 -0.6405034 0.3060092 -0.2715092 0.1974047 -0.3448838 0.1911727 -0.6019325 0.1899775 -0.6392931 0.1300531 -0.4981422 0.1295894
56 -0.6631313 0.3118803 -0.6336275 0.2934287 -0.8774422 0.3407347 -0.5431499 0.291046 -0.6903022 0.3188695 -0.4715085 0.1996463 -0.6072744 0.1852799 -0.4821999 0.1866681 -0.2888775 0.1287236 -0.5388106 0.1306508
57 -0.4988949 0.290001 -0.942893 0.3151601 -0.5994486 0.29522 -0.8048065 0.3042357 -0.3227734 0.2846944 -0.5992724 0.1839612 -0.4367643 0.1841206 -0.4755828 0.2005516 -0.3330599 0.1364675 -0.3872427 0.139807
58 -0.8342799 0.3016509 -0.7200766 0.2946437 -0.9145799 0.3013299 -0.6090641 0.3094803 -0.5832515 0.2909078 -0.3815883 0.1827654 -0.4459274 0.1825614 -0.433 0.187005 -0.5646374 0.129803 -0.4015047 0.1298295
59 -0.8342799 0.3016509 -0.3773161 0.356843 -0.4953214 0.2889063 -0.895384 0.2976024 -0.5726107 0.2993628 0.1667748 0.182752 -0.7616592 0.2040646 -0.378029 0.1860435 -0.698185 0.1457022 -0.2270984 0.127505
60 -0.7357068 0.2892411 -0.3442197 0.294224 -0.5861751 0.330531 -1.201084 0.2966316 -0.4081919 0.3212724 -0.4095055 0.1816688 -0.6518655 0.1871627 -0.4351577 0.1914393 -0.3000098 0.1373018 -0.4330586 0.1283607
61 -1.391774 0.302717 -1.032535 0.3081704 -0.4081919 0.3212724 -0.8153413 0.2977101 -0.6329471 0.3160189 -0.1897922 0.1859319 -0.8563238 0.1904368 -0.7051234 0.2071928 -0.4775546 0.1377779 -0.1802929 0.1281172
62 -0.7752397 0.2978451 -0.3718742 0.2883707 -0.4626235 0.2914915 -1.041281 0.2955253 -0.5232481 0.3110241 -0.2596298 0.1804118 -0.3202437 0.1840524 -0.6198159 0.1930102 -0.485354 0.1403743 -0.3886124 0.138317
63 -0.3303028 0.3331859 -0.5832515 0.2909078 -0.5473104 0.3045818 -0.96096 0.3187736 -0.6135329 0.2989429 -0.5814127 0.195625 -0.2151924 0.1821447 -0.4062667 0.2026922 -0.4554908 0.1416817 -0.3064892 0.1410502
64 -0.8299061 0.3096375 -0.2921968 0.312939 -0.7433369 0.2909078 -0.7834385 0.291046 -0.5934292 0.2936214 -0.3168826 0.1830631 -0.2710438 0.1843941 -0.2167182 0.190301 -0.4916319 0.1298144 -0.3648938 0.1291795
65 -0.6947134 0.2982805 -0.6216882 0.301088 -0.874646 0.3292112 -1.16868 0.3418327 0.2026291 0.2849481 -0.7934858 0.1864628 -0.3006327 0.1831525 -0.5927231 0.188406 -0.6462716 0.1345354 -0.2914392 0.1274761
66 -1.024504 0.2994448 -0.9546172 0.3012501 -0.5663955 0.3102149 -0.3904272 0.3139453 -0.7058862 0.3228518 -0.4978992 0.2012111 -0.5685011 0.196588 -0.3080363 0.1968089 -0.4709763 0.1367778 -0.5668241 0.1331533
67 -0.5663955 0.3102149 -0.4454704 0.2858018 -0.830971 0.3300504 -0.8342799 0.3016509 -0.7939519 0.3018934 -0.6615195 0.1836477 -0.4019599 0.1877415 -0.4968645 0.1896331 -0.3351323 0.1388674 -0.3323052 0.130896
68 -0.6306572 0.3034386 -1.002698 0.3271264 -0.8739161 0.2934287 -0.5994486 0.29522 -0.6955085 0.2890455 -0.3320516 0.1826845 -0.7857745 0.1854358 -0.5993284 0.1925006 -0.3872427 0.139807 -0.4526369 0.131351
69 -0.7053673 0.3112217 -0.4353181 0.3128842 -0.7937771 0.2932096 -0.5891575 0.3039774 -0.6479829 0.2871211 -0.6407772 0.1829108 -0.4867128 0.1875839 -0.3840132 0.1833632 -0.4077572 0.1384132 -0.5566259 0.1298124
70 -0.3904272 0.3139453 -0.6869552 0.29644 -0.5589572 0.2955253 -0.5773154 0.3134123 -0.3814431 0.2921694 -0.3581381 0.1809418 -0.5134508 0.1894967 -0.4264543 0.1935941 -0.4108705 0.1389607 -0.480076 0.1316888
71 -0.5262898 0.3672827 -1.045969 0.3032737 -0.5654467 0.2973528 -0.6718492 0.3029629 -0.3525602 0.3187087 -0.4383505 0.1844683 -0.2843489 0.183248 -0.4176664 0.1835356 -0.2635279 0.1327888 -0.3562391 0.1275964
72 -1.155497 0.2954029 -0.6513001 0.3088166 -0.5589572 0.2955253 -0.4855078 0.2858859 -0.4988949 0.290001 -0.4120255 0.1945172 -0.574045 0.1824263 -0.4467488 0.1940828 -0.4847918 0.1288628 -0.4391539 0.129297
73 -0.5934292 0.2936214 -0.4183685 0.3254136 -0.5232481 0.3110241 -0.5431499 0.291046 -0.6046245 0.2860954 -0.5755647 0.1913896 -0.4678209 0.1804489 -0.2653992 0.1824344 -0.3959735 0.1379666 -0.3985238 0.1307251
74 -0.6718492 0.3029629 -1.104443 0.3214026 -0.6718492 0.3029629 -0.6405034 0.3060092 -0.6090641 0.3094803 -0.5321891 0.1931321 -0.4058822 0.1846397 -0.6671423 0.20093 -0.4680855 0.1470233 -0.3930954 0.1391402
75 -0.4192584 0.3068198 -0.5431499 0.291046 -0.5880407 0.2921864 -0.5994486 0.29522 -0.8299061 0.3096375 -0.3925617 0.1814823 -0.7722727 0.1925915 -0.2618173 0.1811811 -0.4848737 0.1361728 -0.5912904 0.1330499
76 -0.9409833 0.3333968 -0.7761181 0.3173638 -0.4795731 0.3119123 -0.4263339 0.2933054 -0.6306572 0.3034386 -0.3378263 0.1843042 -0.5384679 0.2016284 -0.5331572 0.2086575 -0.1801262 0.1310829 -0.4245991 0.1308927
77 -0.7758389 0.30722 -1.196251 0.3563881 -0.4473122 0.2864166 -0.4454704 0.2858018 -0.784119 0.2997678 -0.2946479 0.1987649 -0.2451225 0.1810241 -0.7189068 0.192262 -0.449135 0.1491402 -0.5290974 0.1349483
78 -0.6405034 0.3060092 -0.5994486 0.29522 -0.4971494 0.302717 -0.4019955 0.2845041 -0.3672695 0.2865285 -0.5358801 0.1904822 -0.3029249 0.1892509 -0.3771013 0.2001668 -0.4130859 0.1346449 -0.7091812 0.1447592
79 -0.8048065 0.3042357 -0.7927086 0.3212122 -0.6232889 0.2908252 -0.4703789 0.3460139 -0.7418251 0.3319723 -0.3107378 0.1812425 -0.4715085 0.1996463 -0.2446403 0.1872369 -0.4176664 0.1297792 -0.5769916 0.146563
80 -0.5314187 0.2998443 -0.6167404 0.3248163 -0.5248061 0.3271514 -0.5994486 0.29522 -0.4624058 0.3059994 -0.1736049 0.1966012 -0.4563618 0.2100947 -0.6919601 0.1961312 -0.2444138 0.1373635 -0.3064596 0.1326577
81 -1.024504 0.3144192 -0.4192584 0.3068198 -0.3315461 0.2886245 -0.9671491 0.3115279 -0.8081624 0.3361236 -0.5526471 0.1814823 -0.7068613 0.2141673 -0.6472939 0.1839194 -0.1474771 0.1280712 -0.4465498 0.1291842
82 -0.5389965 0.3021089 -0.7346469 0.3076892 -0.7625757 0.337204 -0.4521741 0.288035 -0.760114 0.294562 -0.2921968 0.19792 -0.4058822 0.1846397 -0.4715085 0.1996463 -0.6080419 0.1405419 -0.6261268 0.1303811
83 -0.4971494 0.302717 -0.6325226 0.3293263 -0.9044563 0.2993645 -0.2811674 0.3068654 -0.4773459 0.2963135 -0.7172447 0.1847904 -0.3130918 0.1819417 -0.5850972 0.1842981 -0.2761935 0.1296113 -0.6130878 0.131688
84 -0.654222 0.2985827 -0.830971 0.3300504 -0.7282385 0.2876066 -0.4122448 0.3041433 -0.6061358 0.2969906 0.1820387 0.2136082 -0.4724162 0.1846721 -0.8731147 0.1884435 -0.4851955 0.1278089 -0.5355089 0.1358145
85 -0.5075144 0.2926302 -0.5646361 0.2859081 -0.4626235 0.2914915 -0.545017 0.3178497 -1.104443 0.3214026 -0.4829574 0.1903428 -0.6969526 0.1969137 -0.4903984 0.1849626 -0.5069219 0.129678 -0.4345619 0.1465877
86 0.8353772 0.3205028 -1.204781 0.3168939 -0.960462 0.3277531 -0.7053673 0.3112217 -0.9520088 0.3085912 -0.4126762 0.1862342 -0.3974389 0.1954878 -0.5685011 0.196588 -0.7045443 0.1410853 -0.4707702 0.1395753
87 0.2993288 0.2930916 -0.3690975 0.3049687 -0.8048065 0.3042357 -0.6781093 0.32822 -0.8639649 0.2914915 -0.2767085 0.1807283 -0.452926 0.1840497 -0.2747642 0.1800822 -0.2919802 0.1354158 -0.3731375 0.1277527
88 -0.9008904 0.2911283 -0.3814431 0.2921694 -0.4545394 0.3200329 -0.6820032 0.305474 -0.4873176 0.2864445 -0.4575455 0.1816095 -0.3093913 0.1808414 -0.788216 0.1857611 -0.2624566 0.128273 -0.5957593 0.1315884
89 -0.760999 0.3138466 -0.8243173 0.2995791 -0.9044563 0.2993645 -0.5790339 0.2897793 -0.760999 0.3138466 -0.5644765 0.1993018 -0.6452833 0.1914812 -0.7761181 0.2007185 -0.4396571 0.1346702 -0.4941911 0.1279537
90 -0.7901394 0.3578191 -0.6681797 0.2919664 -0.6232889 0.2908252 -0.5353588 0.2888231 -0.7887141 0.310103 -0.5648326 0.1808577 -0.4338031 0.1834703 -0.4760827 0.1854218 -0.3307903 0.1323194 -0.2364143 0.1469035
91 -0.6167404 0.3248163 -0.298493 0.3163606 -0.2438211 0.2854539 -0.5986563 0.3066096 -0.6632942 0.2907976 -0.5223016 0.1912192 -0.6414752 0.1881451 -0.4150215 0.1952504 -0.3737489 0.1390442 -0.280965 0.1307447
92 0.4054651 0.2857738 -1.138618 0.3055311 -0.5574813 0.3217194 -0.3254224 0.2858859 -0.9177934 0.3284468 -0.3144464 0.1928926 -0.4942875 0.1857326 -0.7529582 0.1999742 -0.272763 0.1425005 -0.6902304 0.1415375
93 -0.6902432 0.3455994 -0.654222 0.2985827 -0.4095055 0.2872437 -0.7053673 0.3112217 -0.5050743 0.3052547 -0.4275725 0.1820963 -0.6072268 0.1969937 -0.411529 0.182133 -0.5139036 0.1404193 -0.8836655 0.1419282
94 -0.4150215 0.2892411 -0.8644189 0.2994448 -0.6931472 0.3082206 -0.8153413 0.2977101 -0.8283294 0.2921864 -0.2892532 0.1905936 -0.528772 0.1924723 -0.6442748 0.2002156 -0.5170898 0.1321665 -0.4545799 0.1316451
95 -0.3377835 0.3117745 -0.5137517 0.3080179 -0.7032996 0.3003124 -0.7495613 0.3219938 -0.3778772 0.2907584 -0.382771 0.1830572 -0.3046756 0.1898081 -0.6118731 0.1860356 -0.4771814 0.1277984 -0.5886594 0.1297808
96 -0.9520088 0.3085912 -0.5891575 0.3039774 -0.880162 0.2946437 -0.3999856 0.2994219 -0.9860676 0.292599 -0.3815883 0.1827654 -0.7300907 0.1992564 -0.7231952 0.1928998 -0.4802252 0.134192 -0.3566331 0.1323283
97 -0.7334496 0.3180802 -0.4719207 0.2945429 -0.7137665 0.2932096 -0.5589572 0.2955253 -0.4418328 0.2988071 -0.394534 0.1947467 -0.3199379 0.1890642 -0.485354 0.1985192 -0.4811271 0.13184 -0.5046901 0.1418534
98 -0.9389821 0.3233179 -0.6405034 0.3060092 -0.4150215 0.2892411 -0.7231952 0.3050014 -0.240676 0.2835835 -0.432513 0.1950215 -0.4715085 0.1996463 -0.4406017 0.1814229 -0.2946634 0.1281921 -0.4680855 0.1470233
99 -0.9194603 0.3192865 -0.8338145 0.2932916 -0.6523611 0.2881745 -0.7350414 0.298035 -0.5234441 0.2854031 -0.4521015 0.1912622 -0.335356 0.1836128 -0.5494138 0.1897849 -0.4832946 0.1321515 -0.3419418 0.1403082
100 -0.5245245 0.2977749 -0.5182681 0.2958893 -0.5245245 0.2977749 -0.6590445 0.2897793 -0.7137665 0.2932096 -0.2785704 0.1813452 -0.3287238 0.1973258 -0.3276456 0.1913809 -0.528772 0.1360985 -0.5568068 0.1288404
101 -0.8540775 0.3246537 -0.9044563 0.2993645 0.4150215 0.2892411 -0.5589572 0.2955253 -0.4480718 0.3010011 -0.3158627 0.182762 -0.4281366 0.1984364 -0.6554069 0.2021051 -0.6233323 0.1309831 -0.4239866 0.1335486
102 -0.8644189 0.2994448 -0.9409833 0.3333968 -0.3826743 0.310706 -0.7282385 0.2876066 -0.173746 0.2949713 -0.532878 0.1899145 -0.5792123 0.2020818 -0.588758 0.1906638 -0.3949503 0.1287299 -0.4643566 0.1331179
103 -1.096119 0.3909924 -0.8774422 0.3407347 -0.3271679 0.2866688 -0.545017 0.3178497 -0.4054651 0.2857738 -0.3212048 0.1796081 -0.3604871 0.1815503 -0.5071604 0.1991363 -0.2335281 0.1397442 -0.4150215 0.1380629
104 -0.4361539 0.2967999 -0.760114 0.294562 -0.5232481 0.3110241 -0.4183685 0.2904481 -0.6631313 0.3118803 -0.5832515 0.1839863 -0.3496189 0.1978606 -0.2620097 0.2012355 -0.5026881 0.1444882 -0.4324253 0.1295187
105 -0.5695909 0.2872437 -0.6216882 0.301088 -0.5295536 0.2871599 -0.6737291 0.2932916 -0.5832515 0.2909078 -0.5798329 0.1834079 -0.2453084 0.1946213 -0.4467488 0.1940828 -0.2814758 0.1350591 -0.503796 0.1338503
106 -0.4269293 0.3097273 -0.5389965 0.3318418 -0.7927086 0.3212122 -0.8856259 0.3036982 -0.6023722 0.320684 -0.3666093 0.1831285 -0.5086636 0.1919969 -0.3581381 0.1809418 -0.2987005 0.143972 -0.5337396 0.1310601
107 -0.7437909 0.3000119 -0.6090641 0.3094803 -0.4545394 0.3200329 0.3315461 0.2886245 -1.024504 0.3144192 -0.4025203 0.2017198 -0.3067731 0.1800594 -0.3075906 0.1853018 -0.1811733 0.1420381 -0.4461611 0.1279176
108 -0.9353894 0.2976293 -0.6718492 0.3029629 0.4833325 0.2982589 -0.6820032 0.305474 -0.7058862 0.3228518 -0.3471899 0.1823376 -0.6947118 0.1862026 -0.4760827 0.1854218 -0.4307577 0.1361079 -0.3783441 0.1381377
109 -0.3206853 0.2837516 -0.3690975 0.3049687 -0.5473104 0.3045818 -1.126011 0.3033794 -0.4706044 0.3088329 -0.5648326 0.1808577 -0.3212048 0.1950017 -0.3881071 0.1843691 -0.4195196 0.1439192 -0.3729592 0.1291568
110 -0.4773459 0.2963135 -0.3746934 0.2894941 -0.3898064 0.2954577 -1.002698 0.3271264 -0.654222 0.2985827 -0.4019599 0.1877415 -0.3765306 0.1815134 -0.3368818 0.1888849 -0.4091348 0.1370428 -0.3685105 0.1283619
111 -0.9353894 0.2976293 -0.4221322 0.2918008 -1.138618 0.3055311 -0.4719207 0.2945429 -0.5001261 0.3188943 -0.5515332 0.2004374 -0.5113423 0.1826951 -0.2290087 0.1810843 -0.3432183 0.128174 -0.4257377 0.1297556
112 -1.370636 0.3460791 -0.6135329 0.2989429 -0.7357068 0.2892411 -0.6626105 0.3006705 -0.6718492 0.3029629 -0.3310532 0.1824032 -0.4978992 0.2012111 -0.4150215 0.1829321 -0.5620161 0.1393619 -0.3732784 0.1306983
113 -0.4549134 0.303394 -0.5726107 0.2993628 -0.5986563 0.3066096 -0.6737291 0.2932916 -0.9946226 0.3012235 -0.3027522 0.1838095 -0.3139681 0.1822015 -0.3185219 0.2002064 -0.4227796 0.1347907 -0.3772987 0.1270851
114 -0.8081624 0.3361236 -0.6281424 0.2920488 -0.3254224 0.2858859 -0.4549134 0.303394 -0.6631313 0.3118803 -0.3974389 0.1954878 -0.3944439 0.181931 -0.6030794 0.1845892 -0.5460511 0.1372318 -0.3331168 0.1277803
115 -0.3718742 0.2883707 -0.8452979 0.3039391 0.4521741 0.288035 -0.8774422 0.3407347 -0.589272 0.3168931 -0.5383062 0.1877333 -0.4205754 0.1841975 -0.3769515 0.1949847 -0.4004494 0.1387722 -0.2698663 0.1280947
116 -0.4833325 0.2982589 -0.5245245 0.2977749 -0.6590445 0.2897793 -0.9382696 0.3059263 -0.7230001 0.3272052 -0.3718233 0.184464 -0.6255966 0.1856021 -0.6844618 0.2007239 -0.4818334 0.1443356 -0.3483067 0.1323802
117 -0.7032996 0.3003124 -1.010263 0.3380451 -1.00079 0.29522 -0.8639649 0.2914915 -0.5389965 0.3021089 -0.2632906 0.1943453 -0.2732797 0.1851652 -0.5549036 0.1847149 -0.2399989 0.1335406 -0.6907117 0.132101
118 -0.6867388 0.2870371 -0.4719207 0.2945429 -0.5389965 0.3318418 -0.4776276 0.3284756 -0.4444945 0.3163113 -0.4036552 0.1924576 -0.3537592 0.1887129 -0.724448 0.1983932 -0.5986563 0.1393636 -0.3542676 0.1287274
119 -0.7200766 0.2946437 -0.8856259 0.3036982 -0.6498909 0.3342574 -0.6190392 0.2897517 -0.7032996 0.3003124 -0.5315282 0.1805417 -0.2618173 0.1811811 -0.5016347 0.1941865 -0.4480718 0.1346118 -0.4587112 0.1322689
120 -0.4521741 0.288035 -0.3946542 0.2973507 -0.4626235 0.2914915 -0.4454704 0.2858018 -0.4552198 0.2890455 -0.4609538 0.1893726 -0.3962338 0.1863532 -0.372595 0.1890773 -0.4705704 0.1340481 -0.5101864 0.1372429
121 -1.168159 0.3252336 -0.5029516 0.2912403 -0.5431499 0.291046 -0.5126097 0.2941773 -0.5663955 0.3102149 -0.4299633 0.190246 -0.3586574 0.2004759 -0.4893853 0.1993868 -0.2263774 0.1375623 -0.3754651 0.1412218
122 -0.718763 0.3144996 -0.4549134 0.303394 -0.9368604 0.2906532 -0.4773459 0.2963135 -0.7537718 0.2931823 -0.5339434 0.1970006 -0.5844954 0.2030735 -0.4658671 0.2027499 -0.3133886 0.136161 -0.327722 0.1372853
123 -0.6902432 0.3455994 -0.487015 0.3524272 -0.3639654 0.2852006 -0.8197099 0.2904481 -0.8338145 0.2932916 -0.4688685 0.18066 -0.3316118 0.1873656 -0.4891062 0.1880683 -0.4358898 0.1340676 -0.2142131 0.136667
124 -0.960462 0.3277531 -0.4795731 0.3119123 -0.5773154 0.3134123 -0.6718492 0.3029629 -0.942893 0.3151601 -0.5898859 0.1879205 -0.6072268 0.1969937 -0.4275059 0.1896796 -0.6571698 0.130252 -0.3842355 0.1342218
125 -0.5473104 0.3045818 0.2247552 0.3002558 -0.4841097 0.2854539 -0.5804962 0.3015667 -0.4263339 0.2933054 -0.310519 0.1976179 -0.7188602 0.2003344 -0.3468154 0.1970436 -0.3829809 0.1309335 -0.3355826 0.1282635
126 -0.8774422 0.3407347 -0.7882278 0.2920488 -0.3254224 0.2858859 -0.8535136 0.289455 -0.5001261 0.3188943 -0.4436925 0.1933883 -0.4246797 0.1976003 -0.6111366 0.1945419 -0.4549134 0.1400412 -0.3083171 0.1438402
127 -0.9844669 0.2993645 -0.6397767 0.2949719 -0.7733789 0.2889368 -0.3694039 0.2873836 -0.7793819 0.2901959 -0.3063742 0.17994 -0.3046756 0.1898081 -0.3117796 0.1865855 -0.452926 0.1301428 -0.3210621 0.1358502
128 -0.9923369 0.3083539 -0.3755834 0.30772 -0.5431499 0.291046 -0.6061358 0.2969906 -0.3746934 0.2894941 -0.3748912 0.1811061 -0.3954711 0.1821755 -0.6743747 0.1906735 -0.5143814 0.1447539 -0.3105711 0.1335632
129 -1.210916 0.3412319 -0.9177934 0.3284468 -0.2869696 0.286866 -0.5055486 0.3384972 -0.5245245 0.2977749 -0.361373 0.1817794 -0.3652498 0.2023662 -0.7447748 0.1887059 -0.4175256 0.1435628 -0.3097178 0.1333757
130 -0.8318555 0.3418005 -1.368742 0.3623769 -0.5726107 0.2993628 -0.4895482 0.2871321 -1.08846 0.2969906 -0.221555 0.201037 -0.5126097 0.1964222 -0.4176664 0.1835356 -0.478002 0.1290425 -0.5563447 0.1423912
131 -0.5880407 0.2921864 -0.5639354 0.285719 -0.8353772 0.3205028 -0.7271535 0.2962491 -0.8443458 0.3127373 -0.4499169 0.1834108 -0.3839503 0.2020376 -0.6061358 0.1878333 -0.4132054 0.129059 -0.4776276 0.1468988
132 -0.4624058 0.3059994 -0.9520088 0.3085912 -0.5245245 0.2977749 -0.8353772 0.3205028 -0.9177934 0.3284468 -0.3894648 0.1807421 -0.4130859 0.1904166 -0.547272 0.1863047 -0.3196358 0.1396328 -0.479528 0.1367099
133 -0.2503657 0.289309 -0.4545394 0.3200329 -0.9382696 0.3059263 -0.5531011 0.2938705 -0.4269293 0.3097273 -0.6582687 0.1831548 -0.5366263 0.1814568 -0.4985199 0.1865682 -0.5321891 0.136565 -0.5338614 0.1355923
134 -0.6281424 0.2920488 -0.8318555 0.3418005 -0.6590445 0.2897793 -0.6135329 0.2989429 0.2827681 0.2847225 -0.5118946 0.204187 -0.2595983 0.1929567 -0.5126097 0.1964222 -0.5722221 0.1287758 -0.4165121 0.1323209
135 -0.2888775 0.2878348 -0.654222 0.2985827 -0.786716 0.330969 -0.8856259 0.3036982 -0.6306572 0.3034386 -0.4040211 0.1882392 -0.4108705 0.1858115 -0.5956671 0.2051622 -0.5614749 0.1324803 -0.5229328 0.1318257
136 -0.6681797 0.2919664 -0.315081 0.3008638 -0.4586966 0.2901959 -0.7713994 0.2885212 -0.6955085 0.2890455 -0.4197255 0.1803548 -0.8190143 0.1836067 -0.573602 0.1880136 -0.3974651 0.1278024 -0.5341398 0.146194
137 -0.8855378 0.3122757 -0.6631313 0.3118803 -0.4841097 0.2854539 -0.5389965 0.3021089 -0.5314187 0.2998443 -0.5535701 0.1816434 -0.4004494 0.1962535 -0.8162864 0.1894916 -0.5479302 0.134005 -0.6267525 0.1332685
138 -0.6737291 0.2932916 -1.110882 0.3307829 -0.5654467 0.2973528 -0.3826743 0.310706 -0.7137665 0.2932096 -0.3915709 0.189454 -0.3391449 0.1846723 -0.8527989 0.2091391 -0.6635859 0.1374858 -0.5838644 0.1352845
139 -0.6167404 0.3248163 -0.5232481 0.3110241 -0.7793819 0.2901959 -0.2993288 0.2930916 -0.6513001 0.3088166 -0.3619868 0.1959887 -0.3365637 0.183951 -0.3989077 0.1829917 -0.5357697 0.1282008 -0.5086636 0.1357623
140 -0.9382696 0.3059263 -0.7761181 0.3173638 -0.5314187 0.2998443 -0.6903022 0.3188695 -0.6955085 0.2890455 -0.3756842 0.1813032 -0.6743747 0.1906735 -0.5187198 0.193997 -0.3022042 0.129853 -0.3211514 0.1286305
141 -0.7081851 0.291939 -0.8283294 0.2921864 -0.589272 0.3168931 -0.7887141 0.310103 -1.151996 0.357239 -0.5302168 0.2038942 -0.3632101 0.1866106 -0.5729951 0.1850159 -0.382771 0.129441 -0.5938957 0.1354518
142 -1.002698 0.3271264 -0.8299061 0.3096375 -0.7334496 0.3180802 -0.5663955 0.3102149 -0.8967461 0.3239518 -0.2561594 0.1916554 -0.4557269 0.1812325 -0.6312915 0.1839277 -0.3117796 0.1319359 -0.5334018 0.1299534
143 -0.4309984 0.2949691 -0.315081 0.3008638 -0.4719207 0.2945429 -0.874646 0.3292112 -0.5891575 0.3039774 -0.4004494 0.1962535 -0.2652373 0.1950738 -0.570978 0.1846673 -0.4965767 0.136578 -0.4009632 0.1311383
144 -0.901701 0.3156175 -0.5773154 0.3134123 -0.6760944 0.3152225 -0.5336403 0.3142937 -0.4971494 0.302717 -0.4706044 0.1953231 -0.3687304 0.2033585 -0.8445333 0.2135834 -0.3944439 0.1286446 -0.4827884 0.1477338
145 -0.6513001 0.3088166 -0.5396587 0.3504949 -0.8048065 0.3042357 0.5531011 0.2938705 -0.6513001 0.3088166 -0.3705731 0.1885481 -0.5190446 0.1841431 -0.2912065 0.1802052 -0.3940955 0.1299724 -0.5050743 0.136514
146 -0.4361539 0.2967999 -0.8873032 0.2960321 -0.6329471 0.3160189 -0.874646 0.3292112 -0.467023 0.2929382 -0.2969551 0.1820076 -0.3287238 0.1973258 -0.2302744 0.2050023 -0.6463942 0.1299523 -0.342959 0.1366247
147 -0.6590445 0.2897793 -0.5050743 0.3052547 -0.1810801 0.3011757 -0.4773459 0.2963135 -0.6554069 0.2889063 -0.6671423 0.20093 -0.7063334 0.1832305 -0.7703451 0.1877026 -0.4154129 0.1414401 -0.327722 0.1372853
148 -0.7793819 0.2901959 -0.7334496 0.3180802 -0.6023722 0.320684 -0.4473122 0.2864166 -0.5674565 0.2866688 -0.7091812 0.2047205 -0.5141857 0.1832305 -0.3920628 0.1989865 -0.5408065 0.1288384 -0.4786372 0.1291324
149 -0.5832515 0.2909078 -1.305672 0.3135139 -0.679975 0.2947801 -0.6209634 0.3410541 -0.5137517 0.3080179 -0.3618939 0.2014057 -0.441539 0.1816236 -0.7025076 0.1923711 -0.3482439 0.1340776 -0.3389799 0.1377059
150 -0.6329471 0.3160189 -0.7137665 0.2932096 -0.7127714 0.3025479 -1.114767 0.3014633 -0.9949339 0.2941773 -0.3574559 0.1807647 -0.6840724 0.1870518 -0.3742395 0.1942597 -0.2417952 0.1293097 -0.4381543 0.1436922
151 -0.8401246 0.294562 -0.3200199 0.3032655 -0.4039707 0.2852287 -0.3672695 0.2865285 -0.3064596 0.2966316 -0.4868378 0.1842557 -0.3840132 0.1833632 -0.6282783 0.1887189 -0.4902684 0.1396971 -0.5732334 0.1408476
152 -0.7346469 0.3076892 -0.5994486 0.29522 -0.5295536 0.2871599 -0.760114 0.294562 -0.8776132 0.319862 -0.3633037 0.1822777 -0.4750584 0.1887016 -0.5245245 0.1883294 -0.5018175 0.1360484 -0.489478 0.1306592
153 -0.8472979 0.2960051 -0.3227734 0.2846944 -0.4120725 0.2881745 -0.7534605 0.302192 -0.4988949 0.290001 -0.2401712 0.1925456 -0.3856926 0.1973073 -0.364946 0.1870688 -0.5214599 0.1294547 -0.4402512 0.1440512
154 -0.5245245 0.2977749 -0.4521741 0.288035 -0.4183685 0.2904481 -0.5654467 0.2973528 -0.6090641 0.3094803 -0.4942875 0.1857326 -0.6118731 0.1860356 -0.7001468 0.1870048 -0.2376382 0.1281798 -0.4150215 0.1293526
155 -0.9451454 0.2921694 -0.7334496 0.3180802 -0.3371881 0.2911283 -0.7672552 0.326276 -0.6061358 0.2969906 -0.4272289 0.1857049 -0.2998214 0.200538 -0.2996444 0.1828454 -0.5058443 0.1392488 -0.5831441 0.1330833
156 -0.4795731 0.3119123 -0.6631313 0.3118803 -0.4893853 0.3152582 -0.5546261 0.3369636 -0.5336403 0.3142937 -0.2652373 0.1950738 -0.5408065 0.182205 -0.3157582 0.1993157 -0.4704049 0.135338 -0.6622147 0.1404244
157 -0.3718742 0.2883707 -1.044545 0.3265638 -0.3778772 0.2907584 -0.6135329 0.2989429 -0.5389965 0.2898623 -0.6019325 0.1899775 -0.2723464 0.2052334 -0.5888157 0.1822303 -0.4205754 0.1302473 -0.5039186 0.1389681
158 -0.5531011 0.2938705 -0.8776132 0.319862 -0.3814431 0.2921694 -0.785508 0.3429614 -0.7231952 0.3050014 -0.1878727 0.1940473 -0.1532042 0.1846202 -0.6651706 0.1842006 -0.52775 0.13136 -0.5235879 0.1446479
159 -0.8855378 0.3122757 -1.047969 0.311003 -0.5589572 0.2955253 -0.4120725 0.2881745 -0.4893853 0.3152582 -0.5126097 0.186054 -0.4037128 0.1803349 -0.4499169 0.1834108 -0.2055216 0.1338385 -0.2451225 0.1280034
160 -0.7793819 0.2901959 -0.3613064 0.2841268 -0.5431499 0.291046 -1.058607 0.3055311 -0.7534605 0.302192 -0.3342021 0.183289 -0.435709 0.1957714 -0.5134508 0.1894967 -0.4845873 0.1417159 -0.4321548 0.1282214
161 -0.4521741 0.288035 -0.7433369 0.2909078 -0.2247552 0.3002558 -0.4988949 0.290001 -0.3946542 0.2973507 -0.4383505 0.1844683 -0.4635303 0.1899259 -0.6023722 0.2028184 -0.3229557 0.1472962 -0.558019 0.1413243
162 -0.5574813 0.3217194 -0.3405208 0.292599 -0.4855078 0.2858859 -0.5773154 0.3134123 -0.7641174 0.3045893 -0.3615411 0.1861692 -0.4424548 0.1973475 -0.5394073 0.1945213 -0.2437964 0.1399214 -0.3782381 0.1399038
163 -0.5790339 0.2897793 -0.3442197 0.294224 -0.4120725 0.2881745 -0.8639649 0.2914915 0.2993288 0.2930916 -0.6821413 0.1820076 -0.2671106 0.1830306 -0.4141845 0.2047358 -0.3864872 0.1346274 -0.5446367 0.1407808
164 -0.4971494 0.302717 -0.5137517 0.3080179 -0.6397767 0.2949719 -0.3631672 0.3024355 0.4855078 0.2858859 -0.2689899 0.1836832 -0.7025076 0.1923711 -0.719822 0.209598 -0.5613355 0.1430745 -0.368125 0.1379614
165 -0.8353772 0.3205028 -0.6884743 0.287435 -0.7053673 0.3112217 -0.7032996 0.3003124 -0.5182681 0.2958893 -0.5685011 0.196588 -0.2615178 0.1870634 -0.4966942 0.1829866 -0.5080821 0.1332522 -0.7537333 0.1343321
166 -0.9199059 0.3627997 -1.002152 0.3183208 -0.3371881 0.2911283 -0.4719207 0.2945429 -0.4495429 0.2871599 -0.4532006 0.1955431 -0.5248061 0.1822079 -0.5644765 0.1993018 -0.5447588 0.1293375 -0.5114418 0.1414391
167 -0.8299061 0.3096375 -0.5075144 0.2926302 -0.3448405 0.3151017 -0.8028461 0.31326 -0.9544425 0.2938705 -0.5375574 0.1816236 -0.5088037 0.1822163 -0.5898859 0.1879205 -0.6122181 0.1499443 -0.3405208 0.1308542
168 -0.6135329 0.2989429 -0.8708284 0.3092315 -0.4624058 0.3059994 -0.5295536 0.2871599 -0.5753641 0.2887954 -0.379746 0.1864787 -0.1844306 0.1832671 -0.6140787 0.2085813 -0.373858 0.1409095 -0.2986906 0.130932
169 -0.7882278 0.2920488 -0.7472144 0.3106302 -0.4873176 0.2864445 -0.4122448 0.3041433 0.3442197 0.294224 -0.6033782 0.187372 -0.4949508 0.1928167 -0.2301255 0.1884263 -0.6729922 0.1416781 -0.4595283 0.1423386
170 -0.4776276 0.3284756 -0.922333 0.3397573 -0.4361539 0.2967999 -0.7437909 0.3000119 -0.7053673 0.3112217 -0.3414432 0.1807846 -0.498345 0.2055602 -0.4237242 0.1812438 -0.6049663 0.1390146 -0.5473104 0.1362131
171 -1.196251 0.3563881 -0.5232481 0.3110241 -0.5182681 0.2958893 -0.3448405 0.3151017 -0.5654467 0.2973528 -0.392779 0.1855118 -0.5190446 0.1841431 -0.4235841 0.1929152 -0.652462 0.1436966 -0.3309506 0.1306226
172 -0.7230001 0.3272052 -0.7641174 0.3045893 -0.5478424 0.2923799 -0.5773154 0.3134123 -0.5075144 0.2926302 -0.6143292 0.1864385 -0.5107153 0.1889624 -0.3765306 0.1815134 -0.3954236 0.1413281 -0.4959985 0.1292957
173 -0.5478424 0.2923799 -1.154965 0.3016509 -0.7271535 0.2962491 -0.7383294 0.3442248 -0.589272 0.3168931 -0.5187198 0.193997 -0.447189 0.1828303 -0.784119 0.1918855 -0.5619471 0.1458674 -0.4804598 0.1410787
174 -0.5994486 0.29522 -0.4353181 0.3128842 -0.5804962 0.3015667 -0.7200766 0.2946437 -0.4706044 0.3088329 -0.4251379 0.1891326 -0.6111366 0.1945419 -0.4887347 0.2034554 -0.2320898 0.1364775 -0.5185582 0.1397436
175 -0.4988949 0.290001 -0.9838152 0.3147613 -0.5564203 0.307278 -0.4773459 0.2963135 -0.8572153 0.2901766 -0.3319379 0.1926609 -0.391731 0.1940296 -0.6442748 0.2002156 -0.5902416 0.1371773 -0.4566041 0.1282794
176 -0.8774422 0.3407347 -0.7032996 0.2908252 -0.2550738 0.2920538 -0.7882278 0.2920488 -0.3064596 0.2966316 -0.4952059 0.1966411 -0.5755647 0.1913896 -0.2736509 0.1914222 -0.3765589 0.1297972 -0.4593273 0.1363692
177 -0.718763 0.3144996 -1.114767 0.3014633 -0.8028461 0.31326 -0.2993288 0.2930916 -0.5137517 0.3080179 -0.5158814 0.2009441 -0.4083848 0.1892898 -0.4914994 0.1958633 -0.3685105 0.1283619 -0.3505035 0.1486927
178 -0.6397767 0.2949719 -0.7346469 0.3076892 -0.6632942 0.2907976 -1.007641 0.29644 -0.3718742 0.2883707 -0.2615178 0.1870634 -0.6874403 0.1851271 -0.5546261 0.187634 -0.3869194 0.1287454 -0.5484216 0.1439748
179 -0.7887141 0.310103 -0.830971 0.3300504 -0.8549902 0.2897429 -0.6306572 0.3034386 -0.2910548 0.2889368 -0.5494138 0.1897849 -0.3687304 0.2033585 -0.2858399 0.1894451 -0.4322907 0.1461871 -0.5322168 0.1287634
180 -0.8109302 0.325427 -0.5986563 0.3066096 -0.7752397 0.2978451 -0.4429177 0.2849481 -0.4549134 0.303394 -0.7063334 0.1832305 -0.3839503 0.2020376 -0.3387737 0.1894279 -0.3557018 0.1355451 -0.4853938 0.1289467
181 -0.3342021 0.2898054 -1.007641 0.29644 -0.5646361 0.2859081 -0.9444616 0.2993378 -0.3989077 0.3174592 -0.2314092 0.1889573 -0.3652498 0.2023662 -0.4190873 0.1838591 -0.545191 0.1325464 -0.6533094 0.131597
182 -0.3212048 0.328448 -0.3898064 0.2954577 -0.2910548 0.2889368 -0.9382696 0.3059263 -1.210916 0.3412319 -0.3566569 0.1944983 -0.3686257 0.1880372 -0.7057626 0.1854496 -0.3215895 0.1287201 -0.4082503 0.1323668
183 -1.112674 0.3079618 -0.2061502 0.287435 -0.5322168 0.2879237 -0.2763448 0.3041763 -0.8856259 0.3036982 -0.2950847 0.1867378 -0.5622503 0.1831548 -0.5831627 0.2104478 -0.4026762 0.1314279 -0.5248327 0.141997
184 -0.9389821 0.3233179 -0.4309984 0.2949691 -0.5230132 0.2852747 0.4095055 0.2872437 -0.654222 0.2985827 -0.2167182 0.190301 -0.4981422 0.183267 -0.4941794 0.1890925 -0.4477269 0.1281512 -0.2257557 0.1435118
185 -0.4309984 0.2949691 -0.8283294 0.2921864 -0.4706044 0.3088329 -0.9258242 0.3035119 -0.6498909 0.3342574 -0.2916817 0.1803548 -0.3060161 0.1798308 -0.5496236 0.1867303 -0.5909881 0.1361701 -0.2873301 0.1283724
186 -0.7032996 0.3003124 -0.3027199 0.2947797 -0.5695909 0.2872437 -0.8153413 0.2977101 -0.3946542 0.2973507 -0.411529 0.182133 -0.5722221 0.1907929 -0.436835 0.1806146 -0.2344954 0.140037 -0.492301 0.1310549
187 -0.9409833 0.3333968 -0.7887141 0.310103 -0.7127714 0.3025479 -0.5994486 0.29522 -1.243443 0.3869863 -0.4373444 0.2054629 -0.3301048 0.1821357 -0.3387737 0.1894279 -0.2870491 0.1364138 -0.2435227 0.1345301
188 -0.6466272 0.3197359 -0.4081919 0.3212724 -0.5353588 0.2888231 -0.3525602 0.3187087 -0.6167404 0.3248163 -0.3405208 0.1850559 -0.5774623 0.2054431 -0.5957593 0.1860942 -0.6355836 0.141649 -0.5753641 0.1291532
189 -0.4480718 0.3010011 -0.8708284 0.3642246 -0.298493 0.3163606 -0.7537718 0.2931823 -0.7231952 0.3050014 -0.379746 0.1864787 -0.5773154 0.1982193 -0.3954711 0.1821755 -0.3428933 0.1296871 -0.2382423 0.1283445
190 -0.7700856 0.2882453 -0.3999856 0.2994219 -0.6122595 0.288035 -0.5001261 0.3188943 -0.4922115 0.2879515 -0.3840132 0.1833632 -0.5383062 0.1877333 -0.5192408 0.1906246 -0.4245952 0.1282954 -0.3243576 0.1428895
191 -0.5891575 0.3039774 -0.5336403 0.3142937 -0.6023722 0.320684 -0.7937771 0.2932096 -0.3999856 0.2994219 -0.2719337 0.1908107 -0.478002 0.1824937 -0.6775219 0.1836561 -0.3829748 0.1408062 -0.3742395 0.1373623
192 -0.4586966 0.2901959 -0.7058862 0.3228518 -0.7625757 0.337204 0.3999856 0.2994219 -0.4473122 0.2864166 -0.4574913 0.2008288 -0.4844746 0.1943835 -0.6690496 0.2077197 -0.5290381 0.1373604 -0.5831559 0.1310645
193 -0.3105711 0.2986563 -1.344465 0.3338404 -0.4586966 0.2901959 -0.5126097 0.2941773 -0.5804962 0.3015667 -0.4298695 0.1826037 -0.5433614 0.1826615 -0.3566569 0.1944983 -0.4404743 0.1294992 -0.4609538 0.1339066
194 -0.4263339 0.2933054 -0.654222 0.2985827 -0.9838152 0.3147613 -0.9258242 0.3035119 -0.5773154 0.3134123 -0.5025459 0.1907737 -0.5375574 0.1816236 -0.3888258 0.180589 -0.2943796 0.1318828 -0.3612063 0.1331979
195 -0.6061358 0.2969906 -1.072637 0.3080399 -0.6336275 0.2934287 -0.8153413 0.2977101 -0.5389965 0.2898623 -0.2987026 0.1825524 -0.4464929 0.2077002 -0.5433533 0.202603 -0.2234399 0.1338807 -0.4888673 0.1423746
196 -0.7625757 0.337204 -0.9393295 0.2911051 -0.4988949 0.290001 -0.5574813 0.3217194 -0.4626235 0.2914915 -0.3466238 0.1867491 -0.3618939 0.2014057 -0.4025203 0.2017198 -0.3883578 0.1333951 -0.3225015 0.1289065
197 -1.007641 0.3112382 -0.4953214 0.2889063 -0.6466272 0.3197359 -1.128268 0.3106916 -0.2438211 0.2854539 -0.3815883 0.1827654 -0.36435 0.1825474 -0.5221262 0.2063456 -0.4412257 0.1378223 -0.3408183 0.1326032
198 -0.6903022 0.3188695 -0.8243173 0.2995791 -0.7230001 0.3272052 -0.293513 0.2901766 -0.7625757 0.337204 -0.3944439 0.181931 -0.3056403 0.1960256 -0.8080425 0.1905918 -0.3433781 0.1406105 -0.5093861 0.1334327
199 -0.4361539 0.2967999 -0.3946542 0.2973507 -0.5050743 0.3052547 -0.4549134 0.303394 -0.4833325 0.2982589 -0.6183317 0.189867 -0.5773154 0.1982193 -0.4294294 0.194296 -0.2795632 0.1391941 -0.1733263 0.1317547
200 -0.6216882 0.301088 -0.2451225 0.2862242 -0.6458165 0.2865991 -0.4150215 0.2892411 -0.6820032 0.305474 -0.3284189 0.1864401 -0.4176664 0.1835356 -0.5016347 0.1941865 -0.3953437 0.1316185 -0.5503003 0.1300352
201 -0.7495613 0.3219938 -0.4626235 0.2914915 -0.8744783 0.3014633 -0.4895482 0.2871321 -0.293513 0.2901766 -0.3666093 0.1831285 -0.240054 0.1854512 -0.3130918 0.1984531 -0.6134375 0.1289467 -0.4619437 0.1396606
202 -0.5589572 0.2955253 -0.6820032 0.305474 -0.3064596 0.2966316 -0.901701 0.3156175 -0.3946542 0.2973507 -0.344669 0.2084749 -0.391731 0.1940296 -0.3793967 0.1822237 -0.4190873 0.130008 -0.4639871 0.1370921
203 -0.5546261 0.3369636 0.3027199 0.2947797 -0.6955085 0.2890455 -1.045969 0.3032737 -0.4183685 0.2904481 -0.4155692 0.1910099 -0.5546261 0.187634 -0.4120255 0.1945172 -0.6295343 0.1420536 -0.5942592 0.1376798
204 -0.679975 0.2947801 -0.6820032 0.305474 -0.3405208 0.292599 -0.6718492 0.3029629 -0.784119 0.2997678 -0.3428392 0.1811628 -0.3954711 0.1821755 -0.4675789 0.1987705 -0.3792566 0.1302755 -0.192592 0.1324477
205 -0.4120725 0.2881745 -0.7834385 0.291046 -0.5564203 0.307278 -0.950043 0.3458802 -0.5478424 0.2923799 -0.5047146 0.1845365 -0.478002 0.1824937 -0.3064914 0.1903846 -0.6510897 0.1401906 -0.4156321 0.1336024
206 -0.5256094 0.2860265 -0.5880407 0.2921864 -0.6306572 0.3034386 -0.5389965 0.2898623 -0.4922115 0.2879515 -0.4272289 0.1857049 -0.6186785 0.181931 -0.4748423 0.1923422 -0.3616412 0.1404016 -0.4698201 0.1278814
207 -0.4122448 0.3041433 -0.4054651 0.2857738 -0.7700856 0.2882453 -0.9544425 0.2938705 -0.950043 0.3458802 -0.4706044 0.1953231 -0.7021316 0.1977243 -0.5187198 0.193997 -0.6542458 0.1474985 -0.4109963 0.1300347
208 -0.4150215 0.2892411 -0.4549134 0.303394 -0.6626105 0.3006705 -0.8342799 0.3016509 -0.6690496 0.3396611 -0.3283548 0.1816413 -0.6137586 0.2048908 -0.7427764 0.1861281 -0.3769802 0.1329083 -0.7094535 0.1315114
209 -0.4183685 0.2904481 -0.8167611 0.3068109 -0.2811674 0.3068654 -0.3315461 0.2886245 -0.4480718 0.3010011 -0.4545394 0.1843916 -0.4190873 0.1838591 -0.9099628 0.1995531 -0.4028984 0.1300624 -0.3091883 0.1416836
210 -0.2888775 0.2878348 -0.9900362 0.2933054 -0.7882278 0.2920488 -0.3718742 0.2883707 -0.6216882 0.301088 -0.4473976 0.1864423 -0.465614 0.2073443 -0.4886048 0.1814144 -0.5935025 0.1294056 -0.6142488 0.132789
211 -0.4429177 0.2849481 -0.5248061 0.3271514 -0.6737291 0.2932916 -0.3371881 0.2911283 -0.4873176 0.2864445 -0.4742095 0.1850391 -0.6347364 0.1819735 -0.6508448 0.2079972 -0.5146314 0.1307149 -0.6915042 0.1449254
212 -0.8602013 0.3161355 -0.8197099 0.2904481 -0.4833325 0.2982589 -0.3702823 0.3268672 -0.6990819 0.2898623 -0.5471674 0.1960083 -0.3492899 0.1829023 -0.8352163 0.2093607 -0.5996549 0.1430635 -0.5767677 0.1293216
213 -0.8401246 0.294562 -1.034628 0.3012501 -0.4221322 0.2918008 -0.7418251 0.3319723 -0.5389965 0.2898623 -0.2996113 0.1881923 -0.5100355 0.1824487 -0.3840132 0.1833632 -0.4590799 0.128642 -0.4370879 0.1402226
214 -0.8452979 0.3039391 -0.7481904 0.2919664 -0.5314187 0.2998443 -0.4549134 0.303394 -0.6631313 0.3118803 -0.4141845 0.2047358 -0.3436096 0.1813713 -0.854918 0.2041605 -0.3351323 0.1388674 -0.3078266 0.1413643
215 -0.6632942 0.2907976 -0.6590445 0.2897793 -0.6869552 0.29644 -0.6167404 0.3248163 -0.6204627 0.3126092 -0.2545299 0.1910359 -0.4953214 0.1827204 -0.5433533 0.202603 -0.4383781 0.1344658 -0.4406017 0.1282854
216 -0.4773459 0.2963135 -0.9946226 0.3012235 -0.9949339 0.3449174 -0.4833325 0.2982589 -0.96096 0.3187736 -0.4560825 0.1883233 -0.3853158 0.1836838 -0.391317 0.2040348 -0.4101544 0.1405069 -0.5942592 0.1294942
217 -0.8443458 0.3127373 -0.6636055 0.3537518 -0.5986563 0.3066096 -0.5934292 0.2936214 -0.3804638 0.331482 -0.3283548 0.1816413 -0.4537826 0.1878265 -0.6390077 0.1993188 -0.5769916 0.146563 -0.5381052 0.1398777
218 -0.3064596 0.2966316 -0.4263339 0.2933054 -1.195511 0.295742 -0.9115175 0.3088833 -0.6096925 0.2873836 -0.4019599 0.1877415 -0.468979 0.1910924 -0.4474232 0.203055 -0.3385632 0.1438115 -0.4818334 0.1443356
219 -0.8452979 0.3039391 -0.5531011 0.2938705 -0.467023 0.2929382 -0.8685277 0.2923799 -0.6869552 0.29644 -0.9204771 0.190307 -0.3493418 0.1924375 -0.4025203 0.2017198 -0.3982973 0.1292923 -0.4379004 0.135812
220 -0.9344818 0.3538109 -0.6051274 0.2862234 -0.4899189 0.3003895 -0.7162282 0.3383806 -0.6523611 0.2881745 -0.2208998 0.1921478 -0.4715085 0.1996463 -0.5221262 0.2063456 -0.6049663 0.1390146 -0.5497147 0.1279649
221 -0.6925595 0.2883707 -0.7887141 0.310103 -0.5478424 0.2923799 -0.2082179 0.3231526 -0.8602013 0.3161355 -0.5016347 0.1941865 -0.5292169 0.1997753 -0.5030311 0.1982766 -0.3122793 0.13798 -0.3769515 0.137875
222 -0.6325226 0.3293263 -0.5654467 0.2973528 -0.4855078 0.2858859 -0.4095055 0.2872437 -0.5658078 0.2862242 -0.3974389 0.1954878 -0.4436925 0.1933883 -0.7994714 0.1851465 -0.2974529 0.1306553 -0.4941911 0.1279537
223 -0.9946226 0.3012235 -0.4521741 0.288035 -0.4893853 0.3152582 -0.5994486 0.29522 -0.6990819 0.2898623 -0.4532006 0.1955431 -0.6122595 0.1917317 -0.6290332 0.1976155 -0.4190873 0.130008 -0.5831627 0.1488091
224 -0.7032996 0.3003124 -0.9044563 0.2918008 -0.3271679 0.2866688 -0.4825218 0.2849592 -0.8979416 0.3061654 -0.6322469 0.2013659 -0.714492 0.182157 -0.4639871 0.1938775 -0.4779378 0.1364714 -0.3256124 0.1348962
225 -0.4899189 0.3003895 -0.7137665 0.2932096 -0.5722221 0.2879515 -0.6626105 0.3006705 -0.6737291 0.2932916 -0.4598327 0.1855101 -0.5641867 0.2107863 -0.4706044 0.1953231 -0.5895045 0.1298807 -0.5455189 0.1478504
226 -0.4120725 0.2881745 -0.6061358 0.2969906 -0.8452979 0.3039391 -0.2578291 0.2936493 -0.3989077 0.3174592 -0.1967103 0.1812226 -0.3434496 0.18587 -0.5170898 0.1869117 -0.5491967 0.138873 -0.2833939 0.1313183
227 -0.467023 0.2929382 -0.6336275 0.2934287 -1.192685 0.3079618 -0.4429177 0.2849481 -0.3672695 0.2865285 -0.3436096 0.1813713 -0.3448838 0.1911727 -0.7652005 0.1940127 -0.5001261 0.1426139 -0.4371224 0.134265
228 -0.5726107 0.2993628 -0.9838152 0.3147613 -0.4269293 0.3097273 -0.3610133 0.3226208 -0.1643031 0.2867945 -0.4616028 0.2017734 -0.6547048 0.1876071 -0.5790339 0.1920079 -0.3824521 0.1323441 -0.6693673 0.1315676
229 -0.6947134 0.2982805 -0.5126097 0.2941773 0.4549134 0.303394 -0.5726107 0.2993628 -0.3778772 0.2907584 -0.214171 0.1891679 -0.3276456 0.1913809 -0.6015738 0.2062622 -0.4360955 0.1433392 -0.3575132 0.132496
230 -0.8048065 0.3042357 -0.7693214 0.3674662 -0.5880407 0.2921864 -0.3442197 0.294224 -0.5245245 0.2977749 -0.3468154 0.1970436 -0.2272169 0.194907 -0.4068029 0.1978621 -0.7777821 0.140248 -0.4330203 0.1445322
231 -0.5880407 0.2921864 -0.6281424 0.2920488 -0.3989077 0.3174592 -0.4895482 0.2871321 -0.6027123 0.3355536 -0.3633037 0.1822777 -0.4185462 0.1876037 -0.4690627 0.1839846 -0.6450698 0.1476006 -0.3545681 0.1472684
232 -0.7334496 0.3180802 -0.5118946 0.322848 -0.7346469 0.3076892 -0.545017 0.3178497 -0.4795731 0.3119123 -0.4579911 0.1851215 -0.2208998 0.1921478 -0.4120255 0.1945172 -0.41215 0.1443998 -0.5043183 0.1327303
233 -0.4626235 0.2914915 -0.3690975 0.3049687 -0.8452979 0.3039391 -0.4776276 0.3284756 -1.022329 0.3222412 -0.4435489 0.1856044 -0.2118968 0.1807311 -0.4407442 0.1927166 -0.4379004 0.1291049 -0.4181447 0.1354984
234 0.3342021 0.2898054 -0.8001193 0.2945349 -0.7200766 0.2946437 -0.9923369 0.3083539 -0.7834385 0.291046 -0.4091374 0.185405 -0.7191227 0.1873857 -0.573602 0.1880136 -0.3826743 0.138952 -0.5902416 0.1371773
235 -0.5891575 0.3039774 -0.5478424 0.2923799 -0.7713994 0.2885212 -0.7053673 0.3112217 -0.8574502 0.3064599 -0.2719337 0.1908107 -0.3707292 0.1984139 -0.3448838 0.1911727 -0.3331168 0.1277803 -0.2473159 0.1307965
236 -0.4263339 0.2933054 -0.6232889 0.2908252 -0.5473104 0.3045818 -0.4150215 0.2892411 -0.7328875 0.2886245 -0.6728984 0.2018839 -0.5556358 0.1909284 -0.2737529 0.1982326 -0.4574913 0.1420074 -0.4707011 0.1303344
237 -0.5564203 0.307278 -0.7166777 0.3693097 -1.026799 0.3319571 -0.3946542 0.2973507 -0.6990819 0.2898623 -0.4460134 0.1981753 -0.3690975 0.1928791 -0.6860653 0.1924863 -0.4035694 0.1393316 -0.4815786 0.1343906
238 -0.7137665 0.2932096 -0.784119 0.2997678 -0.5336403 0.3142937 -0.5232481 0.3110241 -0.7346469 0.3076892 -0.3089315 0.1857136 -0.4851765 0.1839253 -0.4985199 0.1865682 -0.3909038 0.1280474 -0.4285476 0.1387874
239 -0.7433369 0.2909078 -0.4418328 0.2988071 -0.4361539 0.2967999 -0.6947134 0.2982805 -0.5564203 0.307278 -0.3894648 0.1807421 -0.5902416 0.193998 -0.4367733 0.2104852 -0.3938145 0.1343605 -0.5855022 0.1294071
240 -0.7127714 0.3025479 -1.164583 0.3170723 -0.6947134 0.2982805 -0.5663955 0.3102149 -0.5396587 0.3504949 -0.4021331 0.1799678 -0.5204857 0.2018945 -0.7255618 0.2138568 -0.3306335 0.1443 -0.3932513 0.1427488
241 -0.7081851 0.291939 -0.4988949 0.290001 -1.041281 0.2955253 -0.6090641 0.3094803 -1.114767 0.3014633 -0.2418232 0.1932153 -0.4755828 0.2005516 -0.392779 0.1855118 -0.4655471 0.1284138 -0.5060459 0.1284779
242 -0.6090641 0.3094803 -0.6737291 0.2932916 -0.7346469 0.3076892 -0.5726107 0.2993628 -0.6760944 0.3152225 -0.4407442 0.1927166 -0.485354 0.1985192 -0.5080821 0.1884471 -0.4779378 0.1301918 -0.5105058 0.1312747
243 -0.7127714 0.3025479 -0.5639354 0.285719 -0.4495429 0.2871599 -0.4953214 0.2889063 -0.6760944 0.3152225 -0.373858 0.1992761 -0.8118201 0.1826879 -0.2411342 0.1858732 -0.3592554 0.12815 -0.353338 0.128554
244 -1.074665 0.3013299 -0.4480718 0.3010011 -0.3371881 0.2911283 -0.8553787 0.2976293 -0.6466272 0.3197359 -0.485354 0.1985192 -0.5153665 0.1804694 -0.7336371 0.2055777 -0.3166195 0.1368767 -0.5470081 0.1296209
245 -0.6737291 0.2932916 -0.3916718 0.3365049 -0.7472144 0.3106302 -0.8236369 0.2912403 -0.4095055 0.2872437 -0.2167182 0.190301 -0.4802252 0.1897762 -0.5388106 0.1847682 -0.244845 0.12793 -0.5317286 0.130798
246 -0.5431499 0.291046 -0.4480718 0.3010011 -0.3315461 0.2886245 -0.5256094 0.2860265 -1.010263 0.3380451 -0.6973689 0.186595 -0.5288281 0.185972 -0.8695121 0.1921324 -0.5223222 0.137681 -0.3322757 0.1446672
247 -0.4706044 0.3088329 -0.4263339 0.2933054 -0.5126097 0.2941773 -0.960462 0.2949719 -0.4418328 0.2988071 -0.3254674 0.185581 -0.5299292 0.1962113 -0.3989077 0.2007788 -0.5491967 0.138873 -0.3641644 0.1337579
248 -0.6216882 0.301088 -0.9194603 0.3192865 -0.6631313 0.3118803 -0.8602013 0.2907584 -0.4893853 0.3152582 -0.364946 0.1870688 -0.3427726 0.1905713 -0.5107153 0.1889624 -0.2545559 0.1304759 -0.4880614 0.1366433
249 -0.5663955 0.3102149 -0.4988949 0.290001 -0.3746934 0.2894941 -0.3064596 0.2966316 -0.8401246 0.294562 -0.5529958 0.1843764 -0.3179521 0.1833784 -0.6631313 0.1972504 -0.4317616 0.1294153 -0.4036552 0.1360881
250 -0.895384 0.2976024 -0.5431499 0.291046 -0.4361539 0.2967999 -0.4873176 0.2864445 -0.6681797 0.2919664 -0.6223541 0.1877521 -0.3954711 0.1821755 -0.7232285 0.1903979 -0.503796 0.1338503 -0.4117642 0.1315366
251 -0.2113988 0.2911051 -0.6135329 0.2989429 -0.6076549 0.286866 -0.3718742 0.2883707 -1.192685 0.3079618 -0.3148588 0.1875243 -0.4537826 0.1878265 -0.5100355 0.1824487 -0.4036195 0.1301828 -0.3723051 0.1387669
252 -0.4655471 0.3240768 -0.7058862 0.3228518 -0.4418327 0.2845825 -0.5861751 0.330531 -0.7834385 0.291046 -0.4868378 0.1842557 -0.6775219 0.1836561 -0.4417412 0.1852099 -0.393011 0.1284031 -0.6878152 0.1402298
253 -0.5322168 0.2879237 -0.4833325 0.2982589 -0.5431499 0.291046 -0.4988949 0.290001 -0.3342021 0.2898054 -0.4616028 0.2017734 -0.1435123 0.1895226 -0.5317683 0.1834834 -0.3528927 0.1284708 -0.5067476 0.1367529
254 -0.6925595 0.2883707 -0.4586966 0.2901959 -0.9923369 0.3083539 -0.2763448 0.3041763 -0.4706044 0.3088329 -0.2596298 0.1804118 -0.3747968 0.1852222 -0.2671393 0.1890941 -0.4981422 0.1295894 -0.6375191 0.1298571
255 -0.3442197 0.294224 -0.6781093 0.32822 -0.7882278 0.2920488 -0.6498909 0.2875804 -0.8602013 0.3161355 -0.4917861 0.192166 -0.432513 0.1908324 -0.4248367 0.2023755 -0.5550173 0.1296125 -0.5307564 0.1306712
256 -0.7230001 0.3272052 -0.4873176 0.2864445 -0.4893853 0.3152582 -0.3254224 0.3058744 -1.024504 0.3144192 -0.3793967 0.1822237 -0.784119 0.1831285 -0.6788325 0.1998095 -0.3999856 0.1339055 -0.3103261 0.1354796
257 -0.901701 0.3156175 -1.096079 0.3366252 -0.6626105 0.3006705 -0.7230001 0.3272052 -0.7032996 0.2908252 -0.3199379 0.1890642 -0.5208283 0.1844774 -0.5358801 0.1904822 -0.6681748 0.1400594 -0.4549134 0.1356819
258 -0.7534605 0.302192 -0.2135741 0.2926136 -0.5994486 0.29522 -0.6781093 0.32822 -0.6903022 0.3188695 -0.3860896 0.1799307 -0.3202437 0.1840524 -0.8563238 0.1904368 -0.3863139 0.1330321 -0.4583521 0.1390905
259 -0.96096 0.3187736 -0.6090641 0.3094803 0.5182681 0.2958893 -0.3989077 0.3174592 -0.4971494 0.302717 -0.4557269 0.1812325 -0.3148915 0.1824748 -0.57091 0.1875407 -0.5050771 0.1405041 -0.3243576 0.1428895
260 -0.4081919 0.3212724 -0.960462 0.3277531 -0.6153695 0.2888231 -0.830971 0.3300504 -0.3989077 0.3174592 -0.7469602 0.1823306 -0.2402925 0.1792096 -0.4702705 0.187702 -0.2801683 0.136986 -0.6554069 0.130936
261 -0.5137517 0.3080179 -0.5646361 0.2859081 -0.5832515 0.2909078 -1.138618 0.3055311 -0.6090641 0.3094803 -0.5767677 0.1828884 -0.4213445 0.1967912 -0.7012444 0.1847932 -0.29301 0.1315699 -0.4686163 0.1422382
262 -0.6523611 0.2881745 -0.3826743 0.310706 -0.96096 0.3187736 -0.830971 0.3300504 -0.6513001 0.3088166 -0.3199379 0.1890642 -0.2056821 0.1853449 -0.4499169 0.1834108 -0.358794 0.134413 -0.4584721 0.133529
263 -1.024504 0.2994448 -0.6329471 0.3160189 -0.5029516 0.2912403 -1.180162 0.3354674 -0.7937771 0.2932096 -0.5127253 0.1829557 -0.2671393 0.1890941 -0.9473813 0.2044089 -0.1944164 0.1432417 -0.6204627 0.1398031
264 -0.6216882 0.301088 -0.4418328 0.334818 -0.4361539 0.2967999 -0.4120725 0.2881745 -0.718763 0.3144996 -0.638543 0.1876767 -0.7273161 0.1839612 -0.5927231 0.188406 -0.4428313 0.1380839 -0.5264235 0.132291
265 -0.5654467 0.2973528 -0.6090641 0.3094803 -0.3639654 0.2852006 -0.6090641 0.3094803 -0.3292056 0.2875804 -0.4996523 0.1901933 -0.3500557 0.1876958 -0.4579911 0.1851215 -0.4269293 0.1385143 -0.4689207 0.1312843
266 -0.8973083 0.3342255 -0.5880407 0.2921864 -0.8530533 0.3351327 -0.6281424 0.2920488 -0.7334496 0.3180802 -0.2929223 0.1918214 -0.1000233 0.1826381 -0.692173 0.1858274 -0.4773459 0.1325154 -0.3911552 0.1308962
267 -0.8353772 0.3205028 -0.7761181 0.3173638 -0.7334496 0.3180802 -0.6820032 0.305474 -0.3027199 0.2947797 -0.5016347 0.1941865 -0.4942875 0.1857326 -0.8376811 0.188036 -0.5358801 0.1346913 -0.4996669 0.129798
268 -0.901701 0.3156175 -0.6306572 0.3034386 -0.3639654 0.2852006 -0.4361539 0.2967999 -0.4353181 0.3128842 -0.6330297 0.1867946 -0.4165121 0.18713 -0.4330203 0.2043994 -0.4645227 0.1415843 -0.3781655 0.1436754
269 -0.6306572 0.3034386 -0.7752397 0.2978451 -0.8342799 0.3016509 -0.4480718 0.3010011 -0.1840036 0.3036153 -0.5070569 0.2031615 -0.3873262 0.1883902 -0.5512629 0.1967904 -0.2735121 0.1289705 -0.4844746 0.1374499
270 -0.8553787 0.2976293 -0.5646361 0.2859081 -0.6216882 0.301088 -0.5389965 0.2898623 -0.4655471 0.3240768 -0.4709158 0.1810722 -0.6554069 0.1827204 -0.4432806 0.2020693 -0.3792566 0.1302755 -0.4250532 0.1283671
271 -0.8167611 0.3068109 -0.4922115 0.2879515 -0.6232889 0.2908252 -0.5986563 0.3066096 -0.4719207 0.2945429 -0.4190873 0.1838591 -0.4885779 0.1846014 -0.6243119 0.1968069 -0.5385583 0.1386699 -0.5950593 0.1305366
272 -0.4552198 0.2890455 -0.5695909 0.2872437 -0.7733789 0.2889368 -0.3755834 0.30772 -0.7939519 0.3018934 -0.2180331 0.183355 -0.4949508 0.1928167 -0.6216882 0.1904248 -0.5941197 0.1285493 -0.4407442 0.1362712
273 -0.5663955 0.3102149 -0.3916718 0.3365049 -0.7053673 0.3112217 -0.293513 0.2901766 -0.6466272 0.2966868 -0.4841894 0.2024549 -0.5876682 0.1820399 -0.5658805 0.1928026 -0.2943916 0.1338886 -0.5931851 0.1284407
274 -1.072637 0.3080399 -0.6990819 0.2898623 -0.5654467 0.2973528 -0.2578291 0.2936493 -1.069035 0.3313384 -0.3555033 0.1845651 -0.5037362 0.181258 -0.6607466 0.1885513 -0.3736345 0.1338899 -0.4388898 0.1405241
275 -0.6466272 0.2966868 -0.5295536 0.2871599 -0.4899189 0.3003895 -0.4971494 0.302717 -0.4418328 0.2988071 -0.2165454 0.1827221 -0.9531267 0.1884571 -0.5299867 0.1893668 -0.4513053 0.1394587 -0.3839503 0.1428621
276 -0.5473104 0.3045818 -0.5126097 0.2941773 -0.762844 0.3506736 -1.007641 0.3112382 -0.6090641 0.3094803 -0.5513764 0.2124433 -0.4246797 0.1976003 -0.5436455 0.1887212 -0.5273549 0.1281394 -0.3765306 0.1283494
277 -0.5431499 0.291046 -0.6869552 0.29644 -1.055727 0.298035 -0.6867388 0.2870371 -0.545017 0.3178497 -0.5690023 0.1902171 -0.3901573 0.1809078 -0.5169149 0.2052479 -0.6963128 0.1401675 -0.4477269 0.1281512
278 -0.6820032 0.305474 -0.5674565 0.2866688 -0.6167404 0.3248163 -0.6232889 0.2908252 -0.5722221 0.2879515 -0.5634609 0.1862287 -0.3566569 0.1944983 -0.8365969 0.1838591 -0.4224445 0.1292337 -0.6027464 0.1387384
279 -0.2993288 0.2930916 -0.4833325 0.2982589 -0.8299061 0.3096375 -0.4776276 0.3284756 -0.7641174 0.3045893 -0.3123494 0.1922342 -0.2971882 0.1996372 -0.4517208 0.204074 -0.5859854 0.1400877 -0.2217743 0.1283119
280 -0.6869552 0.29644 -0.654222 0.2985827 -0.784119 0.2997678 -0.5126097 0.2941773 -0.760999 0.3138466 -0.4579911 0.1851215 -0.294933 0.2059035 -0.603689 0.1820652 -0.6237908 0.1329267 -0.3249956 0.1408266
281 -0.8153413 0.2977101 -0.814068 0.289309 -0.5589572 0.2955253 -0.6051274 0.2862234 -0.6554069 0.2889063 -0.4040211 0.1882392 -0.2779104 0.1811268 -0.5768082 0.2092064 -0.5229654 0.1296522 -0.3525602 0.1425309
282 -1.035623 0.2945429 -0.4855078 0.2858859 -0.5075144 0.2926302 -0.1632947 0.2859081 -0.5431499 0.291046 -0.406162 0.1887552 -0.4820843 0.1833092 -0.2255527 0.1941836 -0.3881071 0.1303687 -0.1906898 0.1317867
283 -0.6061358 0.2969906 -0.7081851 0.291939 -0.4495429 0.2871599 -0.6023722 0.320684 -0.4893853 0.3152582 -0.3179521 0.1833784 -0.2401712 0.1925456 -0.5107153 0.1889624 -0.6301342 0.1366636 -0.4545394 0.1431231
284 -0.5726107 0.2993628 -0.4309984 0.2949691 -0.6153695 0.2888231 -0.5804962 0.3015667 -0.4122448 0.3041433 -0.335356 0.1836128 -0.6159677 0.1923596 -0.2485694 0.1887546 -0.4455064 0.134209 -0.5419101 0.1444412
285 -0.5029516 0.2912403 -0.2282587 0.3026137 -0.4895482 0.2871321 -0.6232889 0.2908252 -0.5832515 0.2909078 -0.3974389 0.1954878 -0.2047944 0.1849409 -0.5223222 0.1947103 -0.362799 0.1446478 -0.4633126 0.1280914
286 -0.6631313 0.3118803 -0.895384 0.2976024 0.3377835 0.3117745 -0.5256094 0.2860265 -0.6405034 0.3060092 -0.719009 0.19756 -0.2710438 0.1843941 -0.5055486 0.1879504 -0.5641867 0.1490484 -0.5192408 0.134792
287 -0.9145799 0.3013299 -0.6626105 0.3006705 -0.9177934 0.3284468 -0.7887141 0.310103 -0.5654467 0.2973528 -0.4397266 0.1812353 -0.3168826 0.1830631 -0.7812666 0.1848348 -0.2628451 0.1326141 -0.2989483 0.1392676
288 -1.159237 0.296011 -0.8774422 0.3407347 -0.3631672 0.3024355 -0.5050743 0.3052547 -0.786716 0.330969 -0.5383062 0.1877333 -0.4010596 0.1918155 -0.7722339 0.2116331 -0.398879 0.1337137 -0.4045404 0.1412251
289 -0.6820032 0.305474 -0.9830046 0.2920538 -0.5353588 0.2888231 -0.4586966 0.2901959 -0.4263339 0.2933054 -0.555649 0.1820061 -0.4532006 0.1955431 -0.6007314 0.1869286 -0.5149453 0.1296646 -0.4222447 0.1377212
290 -0.3448405 0.3151017 -0.5773154 0.3134123 -0.8028461 0.31326 -0.5055486 0.3384972 -0.6336275 0.2934287 -0.3292056 0.1818818 -0.3080363 0.1968089 -0.5406961 0.2060345 -0.7036882 0.1452252 -0.4203085 0.1343807
291 -0.5473104 0.3045818 -0.5695909 0.2872437 -0.7200766 0.2946437 -0.5137517 0.3080179 -0.4953214 0.2889063 -0.2833944 0.1829349 -0.4435489 0.1856044 -0.5248374 0.1988945 -0.3088849 0.1372117 -0.4436381 0.1353048
292 -0.5182681 0.2958893 -0.6513001 0.3088166 -0.3577496 0.3001064 -0.6498909 0.2875804 -0.5431499 0.291046 -0.3599375 0.1857442 -0.4990481 0.1974452 -0.4145561 0.1866736 -0.4597013 0.1337161 -0.5524665 0.1345952
293 -1.126011 0.3424979 -0.4295414 0.3299158 -0.4521741 0.288035 -0.6466272 0.2966868 -0.5232481 0.3110241 -0.3888207 0.1981332 -0.4091374 0.185405 -0.5477994 0.1834526 -0.6182596 0.1294927 -0.4588212 0.1438284
294 -0.6232889 0.2908252 -0.5232481 0.3110241 -0.2679025 0.2994175 -0.4971494 0.302717 -0.3999856 0.2994219 -0.485354 0.1985192 -0.4499169 0.1948009 -0.391317 0.2040348 -0.2932509 0.1379076 -0.4795731 0.1394914
295 -0.6216882 0.301088 -0.7433369 0.2909078 -0.4495429 0.2871599 -0.6122595 0.288035 -0.874646 0.3292112 -0.4354348 0.2001931 -0.637202 0.1848598 -0.9010402 0.1961791 -0.5253748 0.1299678 -0.5207571 0.1350003
296 -0.718763 0.3144996 -0.4549134 0.303394 -0.2719337 0.3016982 -0.5804962 0.3015667 -0.4418327 0.2845825 -0.3566569 0.1944983 -0.5114418 0.2000251 -0.2783317 0.1868971 -0.6573397 0.1357895 -0.4440755 0.1300495
297 -0.3403258 0.3383414 -0.7127714 0.3025479 -0.6216882 0.301088 -0.718763 0.3144996 -0.4095055 0.2872437 -0.7011491 0.1824876 -0.2792705 0.1815767 -0.5956732 0.1918665 -0.3093414 0.1352599 -0.4100343 0.147816
298 -0.7334496 0.3180802 -0.9264601 0.3118732 -0.5245245 0.2977749 0.4095055 0.2872437 -1.015528 0.2978451 -0.5603024 0.1950637 -0.4181265 0.1960082 -0.714492 0.182157 -0.3226975 0.134277 -0.3779593 0.1330861
299 -0.6061358 0.2969906 -0.5726107 0.2993628 -1.152382 0.3302879 -0.7271535 0.2962491 -0.6135329 0.2989429 -0.3407366 0.1899899 -0.4549134 0.1918832 -0.6959926 0.1996179 -0.4250532 0.1283671 -0.5780132 0.1414781
300 -1.007641 0.29644 -0.5075144 0.2926302 -0.5658078 0.2862242 -0.6397767 0.2949719 -0.5001261 0.3188943 -0.4417412 0.1852099 -0.2551829 0.1985559 -0.5383062 0.1877333 -0.5248061 0.1288404 -0.4351577 0.135368
301 -0.9194603 0.3192865 -0.3826743 0.310706 -0.7433369 0.2909078 -0.4873176 0.2864445 -0.8979416 0.3061654 -0.3492899 0.1829023 -0.5219478 0.1878388 -0.4996669 0.183562 -0.3574559 0.12782 -0.2829798 0.1273802
302 -0.6209634 0.3410541 -0.7672552 0.326276 -0.5478424 0.2923799 -0.8774422 0.3407347 -0.6737291 0.2932916 -0.3925617 0.1814823 -0.5767677 0.1828884 -0.5659017 0.1896617 -0.6287611 0.1443212 -0.5602032 0.1323201
303 -0.8540775 0.3246537 -0.901701 0.3156175 -0.7752397 0.2978451 -0.467023 0.2929382 -1.058607 0.3055311 -0.3261278 0.196526 -0.6835439 0.1894857 -0.7021316 0.1977243 -0.6762319 0.1350305 -0.3833846 0.1295479
304 -0.2503657 0.289309 -0.1945033 0.3122281 -0.5564203 0.307278 -0.6947134 0.2982805 -0.9389821 0.3233179 -0.2843371 0.2097865 -0.6317408 0.2046287 -0.5302168 0.2038942 -0.4566041 0.1282794 -0.4330586 0.1283607
305 -0.4120725 0.2881745 -0.8353772 0.3205028 -0.589272 0.3168931 -0.4120725 0.2881745 -0.3442197 0.294224 -0.4706044 0.1953231 -0.5420444 0.1824263 -0.5225616 0.1817954 -0.5156463 0.1286903 -0.5686242 0.1402382
306 -0.4444945 0.3163113 -0.5050743 0.3052547 -0.6466272 0.3197359 -0.6167404 0.3248163 -0.5336403 0.3142937 -0.4635303 0.1899259 -0.2106835 0.1876061 -0.7808979 0.2129861 -0.5181625 0.1424221 -0.6038409 0.1296756
307 -0.5589572 0.2955253 -1.245053 0.3476725 -0.7391835 0.290001 -0.814068 0.289309 -0.5245245 0.2977749 -0.5337581 0.2006863 -0.4379004 0.1920672 -0.6111366 0.1945419 -0.5806539 0.1297872 -0.4637884 0.1399529
308 -0.5232481 0.3110241 -0.5773154 0.3134123 -0.6405034 0.3060092 -0.5726107 0.2993628 -0.786716 0.330969 -0.2314092 0.1889573 -0.3139681 0.1822015 -0.3705731 0.1885481 -0.5168053 0.1288429 -0.6216644 0.1377591
309 -0.4841097 0.2854539 -0.7937771 0.2932096 -0.3577496 0.3001064 -0.4444945 0.3163113 -0.7350414 0.298035 -0.547272 0.1863047 -0.3666612 0.1922222 -0.7322703 0.1942473 -0.3562391 0.1275964 -0.4251379 0.1337369
310 -0.6216882 0.301088 -0.4440081 0.285313 -1.026799 0.3319571 -0.1643031 0.2867945 -1.044545 0.3265638 -0.4351577 0.1914393 -0.5665132 0.2033377 -0.3888258 0.180589 -0.3103261 0.1354796 -0.509426 0.1346382
311 -0.5245245 0.2977749 -0.4095055 0.2872437 -0.6479829 0.2871211 -0.7271535 0.2962491 -0.7752397 0.2978451 -0.4867128 0.1875839 -0.4028984 0.1839361 -0.7697721 0.1854275 -0.5360095 0.1302899 -0.4584721 0.133529
312 -0.6336275 0.2934287 -0.8708284 0.3092315 -0.4953214 0.2889063 -0.4626235 0.2914915 -0.4873176 0.2864445 -0.5956671 0.2051622 -0.4557269 0.1812325 -0.6461183 0.1974293 -0.2500597 0.1315297 -0.5252523 0.1393769
313 -0.4988949 0.290001 -0.7672552 0.2961133 -0.5431499 0.291046 -0.5986563 0.3066096 -0.7418251 0.3319723 -0.3274381 0.2030574 -0.4126762 0.1862342 -0.4108705 0.1858115 -0.3534735 0.135108 -0.6643339 0.1385828
314 -0.922333 0.3397573 -0.7472144 0.3106302 -0.4221322 0.2918008 -0.3778772 0.2907584 -0.7383294 0.3442248 -0.3980682 0.1867988 -0.3915709 0.189454 -0.3214679 0.1844116 -0.4843621 0.1347983 -0.6483201 0.1284408
315 -0.5531011 0.2938705 -0.3916718 0.3365049 -0.4823241 0.2848984 -0.6306572 0.3034386 -1.07215 0.294224 -0.4879239 0.195111 -0.5409237 0.188218 -0.6392689 0.2094981 -0.2199458 0.1277764 -0.3406608 0.1292537
316 -0.3342021 0.2898054 -0.9841307 0.332642 -0.9665881 0.3388624 -0.9382696 0.3059263 -0.5753641 0.2887954 -0.3961421 0.1905945 -0.4281366 0.1984364 -0.5012695 0.1838718 -0.4194679 0.135721 -0.4093 0.1386847
317 -0.6947134 0.2982805 -0.5994486 0.29522 -0.3212048 0.328448 -0.5674565 0.2866688 -0.6061358 0.2864799 -0.5007699 0.1870114 -0.2370383 0.1912696 -0.9603933 0.1856504 -0.4515699 0.1324748 -0.5856221 0.1284813
318 -0.6590445 0.2897793 -0.6681797 0.2919664 -0.4971494 0.302717 -1.007641 0.3112382 -0.830971 0.3300504 -0.3063034 0.1849058 -0.2596298 0.1804118 -0.8080425 0.1905918 -0.4632635 0.1445577 -0.1575369 0.1288479
319 -0.8574502 0.3064599 -1.417066 0.3390988 -0.8081624 0.3361236 -0.6867388 0.2870371 -0.8540775 0.3246537 -0.2499505 0.1828213 -0.2514415 0.189857 -0.5494138 0.1897849 -0.491312 0.1345392 -0.2761656 0.1276668
320 -0.8574502 0.3064599 -0.6760944 0.3152225 -0.7834385 0.291046 -0.6931472 0.3082206 -0.760999 0.3138466 -0.373858 0.1992761 -0.3894089 0.1889128 -0.3666612 0.1922222 -0.6642468 0.1327961 -0.3774309 0.1285073
321 -1.024504 0.2994448 -0.6931472 0.3082206 -0.5248061 0.3271514 -0.8540775 0.3246537 -0.7231952 0.3050014 -0.2946479 0.1987649 -0.2948579 0.1924664 -0.4702908 0.2037595 -0.4218224 0.1317999 -0.5135494 0.1284138
322 -0.4893853 0.3152582 -0.4586966 0.2901959 -0.4776276 0.3284756 -0.6216882 0.301088 -0.4899189 0.3003895 -0.485354 0.1985192 -0.3690975 0.1928791 -0.6660047 0.1819417 -0.6095222 0.131274 -0.5778454 0.1334718
323 -0.5336403 0.3142937 -0.4418328 0.2988071 -0.8685277 0.2923799 -0.7200766 0.2946437 -0.8401246 0.294562 -0.4494423 0.1868864 -0.783276 0.1872538 -0.5223016 0.1912192 -0.406162 0.1334701 -0.3647118 0.1410145
324 -0.9841307 0.332642 -0.7081851 0.291939 -0.4922115 0.2879515 -0.5118946 0.322848 -0.3989077 0.3174592 -0.5165396 0.1972189 -0.2056821 0.1853449 -0.5433533 0.202603 -0.7922319 0.1356549 -0.358794 0.134413
325 -0.2962658 0.2915595 -0.7137665 0.2932096 -0.9665881 0.3388624 -0.8072925 0.2960321 -0.6902432 0.3455994 -0.2910548 0.1911973 -0.5388106 0.1847682 -0.6652366 0.1866835 -0.4597966 0.1324324 -0.3440906 0.129919
326 -0.4841097 0.2854539 -1.066351 0.2932414 -0.2763448 0.3041763 -0.4269293 0.3097273 -0.6931472 0.3082206 -0.4658671 0.2027499 -0.4435489 0.1856044 -0.4941794 0.1890925 -0.3916718 0.1504896 -0.4192584 0.1274565
327 -0.7391835 0.290001 -0.6479829 0.2871211 -0.4899189 0.3003895 -0.6616312 0.3237908 -0.5880407 0.2921864 -0.3320516 0.1826845 -0.5927231 0.188406 -0.6530416 0.1927354 -0.4478428 0.1359728 -0.335356 0.1298338
328 -0.3746934 0.2894941 -0.7081851 0.291939 -0.4873176 0.2864445 -0.9353894 0.2976293 -1.041281 0.2955253 -0.6347364 0.1819735 -0.6011283 0.1842675 -0.5773681 0.2134269 -0.5084899 0.1310008 -0.5842531 0.1311966
329 -0.8001193 0.2945349 -0.6397767 0.2949719 -0.8123216 0.2889563 -0.8581088 0.3480741 -0.6498909 0.3342574 0.2614117 0.1936398 -0.2980449 0.1876901 -0.4063458 0.1931215 -0.3799231 0.1289437 -0.4694044 0.1365381
330 -0.5546261 0.3369636 -0.978468 0.3057413 -0.7032996 0.3003124 -0.3064596 0.2966316 -0.6204627 0.3126092 -0.3962338 0.1863532 -0.3704301 0.1841079 -0.5850972 0.1842981 -0.3854543 0.1284938 -0.4263108 0.1339286
331 -0.7939519 0.3018934 -0.4719207 0.2945429 -0.5137517 0.3080179 -0.7752397 0.2978451 -0.4586966 0.2901959 -0.2580131 0.1798394 -0.3301048 0.1821357 -0.2671393 0.1890941 -0.4996335 0.1320788 -0.581811 0.1372358
332 -0.4192584 0.3068198 -0.7058862 0.3228518 -0.5574813 0.3217194 -0.3271679 0.2866688 -0.3718742 0.2883707 -0.3555358 0.1995758 -0.2791868 0.1933818 -0.7322703 0.1942473 -0.5703852 0.1315153 -0.432513 0.137901
333 -0.7328875 0.2886245 -0.8299061 0.3096375 -0.4953214 0.2889063 -0.4895482 0.2871321 0.3403258 0.3383414 -0.435249 0.183788 -0.4515699 0.1873477 -0.1892564 0.1947663 -0.540636 0.1365049 -0.3351323 0.1388674
334 -0.4545394 0.3200329 -0.3854117 0.2937334 -0.4353181 0.3128842 -0.3064596 0.2966316 -0.8353772 0.3205028 -0.6019325 0.1899775 -0.3237009 0.1803207 -0.5563447 0.2013715 -0.2598715 0.1276306 -0.3300569 0.1398201
335 -0.8401246 0.294562 -0.4893853 0.3152582 -0.5182681 0.2958893 -0.8167611 0.3068109 -0.4953214 0.2889063 -0.2811674 0.187863 -0.6255966 0.1856021 -0.4802252 0.1897762 -0.545017 0.1314483 -0.4095888 0.1298039
336 -0.6760944 0.3152225 -0.4586966 0.2901959 0.3027199 0.2947797 -0.6232889 0.2908252 -0.5137517 0.3080179 -0.2265488 0.1869395 -0.3895984 0.1847345 -0.592768 0.1828856 -0.6076549 0.1360681 -0.5126097 0.1315601
337 -0.2094434 0.2897429 -0.8028461 0.31326 -1.005963 0.3033001 -0.6466272 0.2966868 -0.4971494 0.302717 -0.3274381 0.2030574 -0.3920628 0.1989865 -0.5353588 0.204946 -0.6197786 0.1456516 -0.4806045 0.1282779
338 -0.5182681 0.2958893 -0.6090641 0.3094803 -0.8318555 0.3418005 -0.4988949 0.290001 -0.7534605 0.302192 -0.3342021 0.1990048 -0.2530653 0.1977181 -0.4545394 0.1843916 -0.5314272 0.1457974 -0.571545 0.1316582
339 -0.5790339 0.2897793 -0.6718492 0.3029629 -0.8549902 0.2897429 -0.7882278 0.2920488 -0.9141145 0.2936214 -0.6279661 0.1859826 -0.4718572 0.1917066 -0.5741198 0.2011234 -0.3568162 0.1455336 -0.3760195 0.1327336
340 -0.2962658 0.2915595 -0.4624058 0.3059994 -0.6554069 0.2889063 -0.2993288 0.2930916 -0.6737291 0.2932916 -0.4145561 0.1866736 -0.222377 0.1851915 -0.7159511 0.1893305 -0.42666 0.1354326 -0.3568225 0.1292032
341 -0.3778772 0.2907584 -0.8443458 0.3127373 -0.6405034 0.3060092 -0.6204627 0.3126092 -0.4795731 0.3119123 -0.2969551 0.1820076 -0.4895482 0.1815983 -0.6973689 0.186595 -0.4340308 0.1323962 -0.5136414 0.1417613
342 -0.5050743 0.3052547 -0.4122448 0.3041433 -0.3814431 0.2921694 -0.4269293 0.3097273 -0.8443458 0.3127373 -0.3122618 0.1816954 -0.3815323 0.1869305 -0.6919601 0.1961312 -0.5406961 0.1456884 -0.3566331 0.1323283
343 -1.069035 0.3313384 -0.4263339 0.2933054 -0.7231952 0.3050014 -0.6626105 0.3006705 -1.192774 0.3655754 -0.3833899 0.1873995 -0.3652498 0.2023662 -0.7514499 0.185105 -0.1871112 0.1276535 -0.5210706 0.1442776
344 -1.210916 0.3412319 -0.7357068 0.2892411 -0.2503657 0.289309 -0.4440081 0.285313 0.4192584 0.3068198 -0.3840132 0.1833632 -0.3365637 0.183951 -0.7969759 0.1960644 -0.4521015 0.1352428 -0.3174111 0.1295553
345 -0.8028461 0.31326 -0.960462 0.3277531 -0.8873032 0.3550357 -0.7752397 0.2978451 -0.5248061 0.3271514 -0.4861818 0.1809418 -0.2923452 0.1858528 -0.4601318 0.1971035 -0.3785591 0.130152 -0.2623428 0.1371714
346 -0.7231952 0.3050014 -0.5118946 0.322848 -0.3292056 0.2875804 -0.4120725 0.2881745 -0.6947134 0.2982805 -0.3016683 0.1834738 -0.5113423 0.1826951 -0.9235795 0.2110626 -0.687628 0.1433735 -0.4528476 0.1277278
347 -0.6820032 0.305474 -0.7939519 0.3018934 -0.8028461 0.31326 -0.6616312 0.3237908 -0.5029516 0.2912403 -0.435249 0.183788 -0.2578291 0.1857201 -0.493565 0.2002837 -0.5984257 0.1382 -0.4379004 0.1291049
348 -0.6498909 0.2875804 -0.5389965 0.3021089 -0.679975 0.2947801 -0.4922115 0.2879515 -0.7357068 0.2892411 -0.4317199 0.1993003 -0.4674994 0.1836635 -0.4637884 0.1979232 -0.4796711 0.1328538 -0.4109162 0.1357894
349 -0.6204627 0.3126092 -0.7834385 0.291046 -0.5753641 0.2887954 -0.7793819 0.2901959 -0.6626105 0.3006705 -0.6118731 0.1860356 -0.767869 0.1919708 -0.4436925 0.1933883 -0.5176242 0.1333895 -0.4494423 0.1321486
350 -0.7162282 0.3383806 -0.5050743 0.3052547 -0.5658078 0.2862242 -0.4626235 0.2914915 -0.7391835 0.290001 -0.4265185 0.1818631 -0.3284128 0.2101057 -0.6567899 0.1829304 -0.4643253 0.1306095 -0.3763798 0.1312566
351 -0.7537718 0.2931823 -0.6153695 0.2888231 -0.4480718 0.3010011 -0.589272 0.3168931 -0.7357068 0.2892411 -0.6364552 0.1928695 -0.4777144 0.1968681 -0.4578293 0.1925257 -0.4263108 0.1339286 -0.3604871 0.1283754
352 -0.7537718 0.2931823 -1.195511 0.295742 -0.5126097 0.2941773 -0.5182681 0.2958893 -0.9194603 0.3192865 -0.4229127 0.1810637 -0.5118946 0.204187 -0.423759 0.1849199 -0.7232285 0.1346316 -0.4135976 0.1362485
353 -0.3631672 0.3024355 -0.6281424 0.2920488 -0.4626235 0.2914915 -0.7334496 0.3180802 -0.7081851 0.291939 -0.5856221 0.1817 -0.3890264 0.1933357 -0.6497385 0.2011439 -0.4480718 0.1346118 -0.410692 0.1342396
354 -0.2763448 0.3041763 -0.7081851 0.291939 -0.5663955 0.3102149 -0.3826743 0.310706 -0.6466272 0.2867945 -0.4061596 0.1808993 -0.6742814 0.1831744 -0.3954711 0.1821755 -0.5185859 0.1280312 -0.4704049 0.135338
355 -0.5478424 0.2923799 -0.5182681 0.2958893 -0.5075144 0.2926302 -1.026799 0.3319571 -0.5832515 0.2909078 -0.3666093 0.1831285 -0.2772899 0.1809212 -0.4985199 0.1865682 -0.5176242 0.1333895 -0.6441632 0.1305905
356 -0.6869552 0.29644 -0.5891575 0.3039774 -0.6590445 0.2897793 -0.5182681 0.2958893 -0.3804638 0.331482 -0.3342021 0.183289 -0.5987432 0.189434 -0.5088189 0.1956518 -0.2344954 0.140037 -0.6111366 0.1375619
357 -0.4361539 0.2967999 -0.3814431 0.2921694 -0.7472144 0.3106302 -1.024504 0.3144192 -1.05341 0.3373007 -0.2939848 0.1810782 -0.3566569 0.1944983 -0.6393757 0.185202 -0.6554069 0.1355709 -0.2598546 0.1296854
358 -0.6190392 0.2897517 -0.7534605 0.302192 -0.5564203 0.307278 -0.2853208 0.2860265 -0.5029516 0.2912403 -0.3815883 0.1827654 -0.5607653 0.1828968 -0.2017787 0.191763 -0.4937451 0.1324362 -0.5888915 0.1317546
359 -0.5314187 0.2998443 -0.4552198 0.2890455 -0.4655471 0.3240768 -0.5126097 0.2941773 -0.8183542 0.3167167 -0.4635303 0.1899259 -0.5782568 0.1831408 -0.4436925 0.1933883 -0.2731022 0.1288723 -0.581811 0.1372358
360 -0.6903022 0.3188695 -0.5986563 0.3066096 -0.4586966 0.2901959 -0.5986563 0.3066096 -0.8873032 0.2960321 -0.5512629 0.1967904 -0.2671393 0.1890941 -0.5384679 0.2016284 -0.3708868 0.138494 -0.3156661 0.1327733
361 -0.5273549 0.2865285 -0.6061358 0.2969906 -0.6513001 0.3088166 -0.7230001 0.3272052 -0.4624058 0.3059994 -0.3063034 0.1849058 -0.4857929 0.1909296 -0.7865342 0.1945983 -0.6908427 0.149514 -0.3989077 0.1280419
362 -0.5564203 0.307278 -0.9754268 0.2977101 -0.7350414 0.298035 -0.7328875 0.2886245 -0.7058862 0.3228518 -0.3531189 0.1796351 -0.3254224 0.1808101 -0.3310532 0.1824032 -0.5505851 0.135485 -0.5207369 0.1293598
363 -0.5389965 0.2898623 -0.6061358 0.2969906 -0.9860676 0.292599 -0.6523611 0.2881745 -0.5695909 0.2872437 -0.2656545 0.1885596 -0.4672363 0.1945882 -0.5580447 0.1824235 -0.310519 0.1397369 -0.4735272 0.1414887
364 -0.7713994 0.2885212 -0.5273549 0.2865285 -1.248317 0.3106142 -0.3448405 0.3151017 -0.7758389 0.30722 -0.2380201 0.1846541 -0.4916436 0.1820061 -0.6825088 0.1946464 -0.6175616 0.1312568 -0.5026881 0.1444882
365 -0.6955085 0.2890455 -0.5994486 0.29522 0.786716 0.330969 -0.4719207 0.2945429 -0.4833325 0.2982589 -0.5462377 0.2071611 -0.2545299 0.1910359 -0.4574913 0.2008288 -0.4864713 0.1391258 -0.2980449 0.1327169
366 -1.329866 0.3242249 -0.7495613 0.3219938 -0.4953214 0.2889063 -0.7672552 0.326276 -0.5389965 0.3021089 -0.3833899 0.1873995 -0.3103274 0.1861414 -0.3771013 0.2001668 -0.3313284 0.1380571 -0.3799231 0.1289437
367 -0.6718492 0.3029629 -0.1986707 0.3155851 -0.5564203 0.307278 -0.7433369 0.2909078 -1.058607 0.3055311 -0.468979 0.1910924 -0.4658671 0.2027499 -0.528772 0.1924723 -0.4533418 0.1289865 -0.3575132 0.132496
368 -0.8243173 0.2995791 -0.7433369 0.2909078 -0.5726107 0.2993628 -0.3631672 0.3024355 -0.9115175 0.3088833 -0.5563447 0.2013715 -0.3260862 0.1809986 -0.2689899 0.1836832 -0.329652 0.1303601 -0.5442132 0.1369853
369 -0.6306572 0.3034386 -0.4773459 0.2963135 -0.215982 0.2942749 -0.5336403 0.3142937 -0.4773459 0.2963135 -0.3254674 0.185581 -0.5494453 0.1837455 -0.5658419 0.1866486 -0.456968 0.1374145 -0.5424083 0.1367431
370 -0.6281424 0.2920488 -0.4183685 0.2904481 -0.6135329 0.2989429 -0.5389965 0.2898623 -0.3672695 0.2865285 -0.4145561 0.1866736 -0.8630302 0.1934524 -0.3667506 0.1875442 -0.6058379 0.1426335 -0.4521015 0.1352428
371 -0.7672552 0.2961133 -0.6781093 0.32822 -0.5531011 0.2938705 -0.3989077 0.3174592 -0.5773154 0.3134123 -0.5226968 0.1848272 -0.4354348 0.2001931 -0.2832195 0.1947985 -0.4428313 0.1380839 -0.5649511 0.1308443
372 -0.3746934 0.2894941 -0.6869552 0.29644 -0.3814431 0.2921694 -0.6781093 0.32822 -0.4221322 0.2918008 -0.6413249 0.1966274 -0.4474232 0.203055 -0.6238086 0.1936841 -0.5847217 0.1283754 -0.3994591 0.1403024
373 -0.6329471 0.3160189 -0.3854117 0.2937334 -0.8048065 0.3042357 -0.7672552 0.2961133 -0.3946542 0.2973507 -0.3444292 0.1815929 -0.5589254 0.1915313 -0.410692 0.1898435 -0.2194934 0.1276436 -0.6482185 0.1301517
374 -0.7752397 0.2978451 -0.5336403 0.3142937 -0.6027123 0.3355536 -1.00079 0.29522 -0.6681797 0.2919664 -0.582344 0.1895447 -0.2045193 0.193073 -0.6554069 0.1827204 -0.3746934 0.1294657 -0.1593576 0.1370273
375 -0.5804962 0.3015667 -0.8167611 0.3068109 -0.9194603 0.3192865 -0.5773154 0.3134123 -0.4120725 0.2881745 -0.4294294 0.194296 -0.4417412 0.1852099 -0.5223222 0.1947103 -0.6095288 0.1395814 -0.5873603 0.1357195
376 -0.4095055 0.2872437 0.4309984 0.2949691 -0.4418328 0.334818 -0.978468 0.3057413 -0.4773459 0.2963135 -0.2275284 0.1804917 -0.2783317 0.1868971 -0.673406 0.1989266 -0.392779 0.1311766 -0.3109168 0.1299365
377 -0.1654611 0.2878092 -0.4545394 0.3200329 -0.320815 0.28381 -0.718763 0.3144996 -0.5075144 0.2926302 -0.3256124 0.1907721 -0.4290754 0.1861216 -0.4104874 0.1818942 -0.4586966 0.1297796 -0.2234399 0.1338807
378 -0.978468 0.3057413 -0.7641174 0.3045893 -0.5986563 0.3066096 -0.4552198 0.2890455 -0.9273406 0.2961133 -0.5856613 0.1963931 -0.5981925 0.1865028 -0.2950847 0.1867378 -0.4567666 0.1403397 -0.5163088 0.13321
379 -0.5994486 0.29522 -0.6781093 0.32822 -0.5790339 0.2897793 -0.8243173 0.2995791 -0.4122448 0.3041433 -0.35322 0.2047449 -0.4379004 0.1920672 -0.3496189 0.1978606 -0.4407245 0.1408305 -0.6416171 0.1349777
380 -0.4421938 0.2847026 -0.4221322 0.2918008 -0.7882278 0.2920488 -0.6931472 0.3082206 -0.7882278 0.2920488 -0.4101544 0.1987067 -0.5433533 0.202603 -0.741593 0.1837455 -0.4655526 0.1332973 -0.330989 0.1273621
381 -0.4706044 0.3088329 -0.8001193 0.2945349 -0.3627787 0.2847225 -0.7053673 0.3112217 -0.7495613 0.3219938 -0.2835753 0.2018217 -0.6904911 0.1987416 -0.4473976 0.1864423 -0.3528475 0.1300057 -0.4013242 0.146176
382 -1.064996 0.3141322 -0.589272 0.3168931 -0.6718492 0.3029629 -0.8167611 0.3068109 -0.5994486 0.29522 -0.6490608 0.1817555 -0.3742395 0.1942597 -0.5845424 0.1870043 -0.6276513 0.1324134 -0.5654764 0.1299059
383 -1.112674 0.3079618 -0.5389965 0.3021089 -0.5118946 0.322848 -0.6903022 0.3188695 -0.7927086 0.3212122 -0.5468939 0.1995343 -0.4917861 0.192166 -0.4227117 0.2069199 -0.765546 0.1330529 -0.2459013 0.1327418
384 -0.3631672 0.3024355 -0.5478424 0.2923799 0.2910548 0.2889368 -0.4873176 0.2864445 -0.5118946 0.322848 -0.2689899 0.1836832 -0.57091 0.1875407 -0.1943579 0.208114 -0.3713526 0.1288702 -0.4228828 0.1427579
385 -0.7230001 0.3272052 -0.4183685 0.3254136 -1.00079 0.29522 -0.5986563 0.3066096 -0.7053673 0.3112217 -0.4214654 0.1807421 -0.4309984 0.1865548 -0.6438424 0.1833855 -0.3690975 0.1363861 -0.6908427 0.149514
386 -1.08197 0.2958893 -0.7350414 0.298035 -0.6405034 0.3060092 -0.4183685 0.2904481 -0.4221322 0.2918008 -0.5299292 0.1962113 -0.5629169 0.1891261 -0.5272032 0.1888386 -0.5690023 0.1345038 -0.4407228 0.1392602
387 -0.6023722 0.320684 0.3403258 0.3383414 -0.4054651 0.2857738 -0.8530533 0.3351327 -0.7939519 0.3018934 -0.4014002 0.1797992 -0.4841894 0.2024549 -0.5685011 0.196588 -0.2996113 0.1330721 -0.3319626 0.1275536
388 -0.6781093 0.32822 -0.9202636 0.2947801 -0.3313284 0.3087051 -0.5790339 0.2897793 -0.6631313 0.3118803 -0.5629169 0.1891261 -0.4632468 0.182788 -0.4372467 0.1879575 -0.5784565 0.131492 -0.3788789 0.131705
389 -0.7887141 0.310103 -0.6632942 0.2907976 -0.4073069 0.2864445 -0.4418328 0.334818 -0.6681797 0.2919664 -0.5187198 0.193997 -0.6268709 0.2004303 -0.4083848 0.1892898 -0.6575243 0.1285857 -0.4810255 0.1383036
390 -0.5880407 0.2921864 -0.8153413 0.2977101 -0.6216882 0.301088 0.1443423 0.3104092 -0.5126097 0.2941773 -0.2279899 0.1806767 -0.4609538 0.1893726 -0.5579724 0.2095352 -0.5089345 0.1322012 -0.4665509 0.1419086
391 -0.6466272 0.2867945 -0.8028461 0.31326 -0.4221322 0.2918008 -0.4655471 0.3240768 -0.5473104 0.3045818 -0.4209642 0.2014127 -0.3500557 0.1876958 -0.3934744 0.1817 -0.7000801 0.1494095 -0.3603405 0.129856
392 -1.493439 0.3449866 -0.5245245 0.2977749 -0.4909103 0.3332674 -1.239926 0.355611 -0.7032996 0.2908252 -0.6060539 0.1824487 -0.423759 0.1849199 -0.6869552 0.1874851 -0.6269681 0.13527 -0.5902416 0.1371773
393 -0.786716 0.330969 -0.7641174 0.3045893 -0.6325226 0.3293263 -0.4480718 0.3010011 -0.4893853 0.3152582 -0.6198159 0.1930102 -0.5629169 0.1891261 -0.8034345 0.2047224 -0.3391245 0.1289548 -0.5718859 0.144513
394 -0.8028461 0.31326 -0.4309984 0.2949691 -0.4418327 0.2845825 -0.6204627 0.3126092 -0.6190392 0.2897517 -0.6243119 0.1968069 -0.5589254 0.1915313 -0.7604894 0.1933383 -0.579039 0.1325799 -0.2627904 0.1283557
395 -0.5891575 0.3039774 -0.6590445 0.2897793 -0.6216882 0.301088 -0.7058862 0.3228518 -0.4855078 0.2858859 -0.5071604 0.1991363 -0.2946634 0.1812909 -0.5071604 0.1991363 -0.5124025 0.1350536 -0.4965767 0.136578
396 -0.3904272 0.3139453 -0.5353588 0.2888231 -0.8167611 0.3068109 -0.8401246 0.294562 -0.3999856 0.2994219 -0.4829574 0.1903428 -0.5225616 0.1817954 -0.5030311 0.1982766 -0.4740257 0.1320312 -0.6015738 0.1458494
397 -0.3916718 0.3365049 -0.784119 0.2997678 -0.8001193 0.2945349 -0.545017 0.3178497 -1.044545 0.3265638 -0.410692 0.1898435 -0.4868378 0.1842557 -0.5070569 0.2031615 -0.4485184 0.1294807 -0.4478244 0.1388951
398 -0.8530533 0.3351327 -0.7534605 0.302192 -0.5050743 0.3052547 -0.7887141 0.310103 -0.3292056 0.2875804 -0.4245952 0.181437 -0.3316118 0.1873656 -0.7230001 0.2069427 -0.4702908 0.1440797 -0.2506419 0.1316848
399 -0.7032996 0.3003124 -0.5790339 0.2897793 -0.5726107 0.2993628 -0.9860676 0.292599 -0.8183542 0.3167167 -0.3588703 0.1811316 -0.2736509 0.1914222 -0.555509 0.1975994 -0.753604 0.1377672 -0.3114773 0.1283133
400 -0.8167611 0.3068109 -0.467023 0.2929382 -0.2853208 0.2860265 -0.545017 0.3178497 -0.5804962 0.3015667 -0.3707292 0.1984139 -0.6317408 0.2046287 -0.4662044 0.190499 -0.3359617 0.1333748 -0.6183317 0.1342562
401 -0.6962384 0.3330662 -0.8553787 0.2976293 -0.3904272 0.3139453 -0.4893853 0.3152582 -0.4895482 0.2871321 -0.3623116 0.1820218 -0.5088189 0.1956518 -0.5580447 0.1824235 -0.4665509 0.1419086 -0.2642236 0.1329667
402 -0.9844669 0.2993645 -0.6306572 0.3034386 -0.5574813 0.3217194 -0.7032996 0.2908252 -0.7752397 0.2978451 -0.3483067 0.1872138 -0.3254224 0.1808101 -0.7194492 0.185105 -0.511953 0.1374942 -0.7204818 0.1379503
403 -0.5389965 0.2898623 -0.4444945 0.3163113 -0.8048065 0.3042357 -0.6216882 0.301088 -0.8540775 0.3246537 -0.6844618 0.2007239 -0.4485184 0.1831134 -0.7825694 0.2016658 -0.1996152 0.131884 -0.4194679 0.135721
404 -0.6631313 0.3118803 -0.5891575 0.3039774 -0.3814431 0.2921694 -0.5295536 0.2871599 -0.7437909 0.3000119 -0.4447326 0.1823064 -0.3166195 0.1935729 -0.6775219 0.1836561 -0.4675789 0.140552 -0.4040211 0.1331052
405 -0.5029516 0.2912403 -0.6096925 0.2873836 -0.4095055 0.2872437 -0.8530533 0.3351327 -0.6023722 0.320684 -0.3261278 0.196526 -0.4254574 0.1853044 -0.6351313 0.1845335 -0.5751069 0.1310837 -0.6737291 0.1450975
406 -0.8283294 0.2921864 -0.4552198 0.2890455 -0.3315461 0.2886245 -0.4825218 0.2849592 -0.9044563 0.2993645 -0.3853205 0.1878859 -0.2652373 0.1950738 -0.7001468 0.1870048 -0.3976965 0.1366325 -0.5137921 0.1432036
407 -0.7672552 0.326276 -0.679975 0.2947801 -0.5674565 0.2866688 -0.483116 0.2851465 -0.5773154 0.3134123 -0.4887347 0.1915371 -0.5299292 0.1962113 -0.7482495 0.1891982 -0.458552 0.1285647 -0.3417503 0.1294654
408 -0.4015047 0.2843256 -0.3342021 0.2898054 -0.785508 0.3429614 -0.4269293 0.3097273 -0.6329471 0.3160189 -0.259011 0.1861515 -0.5751069 0.1853804 -0.2936881 0.1862871 -0.4181265 0.1385987 -0.5450465 0.1336289
409 -0.4841097 0.2854539 -0.7793819 0.2901959 -0.9923369 0.3083539 -0.8109302 0.325427 -0.6513001 0.3088166 -0.4767846 0.18225 -0.3756842 0.1813032 -0.5993718 0.1988613 -0.3856666 0.1451423 -0.378029 0.1315526
410 -0.6690496 0.3396611 -0.6902432 0.3455994 -0.8979416 0.3061654 -0.3904272 0.3139453 -0.942893 0.3151601 -0.5856613 0.1963931 -0.2832195 0.1947985 -0.6678959 0.1822237 -0.5630246 0.1296051 -0.2950185 0.1282707
411 -0.9115175 0.3088833 -0.5126097 0.2941773 -0.4586966 0.2901959 -0.6232889 0.2908252 -0.7733789 0.2889368 -0.3734624 0.1807506 -0.2370644 0.1842786 -0.4596245 0.1820399 -0.3105711 0.1335632 -0.3502787 0.1344793
412 -0.5589572 0.2955253 -0.5314187 0.2998443 -0.8243173 0.2995791 -0.760114 0.294562 -0.5564203 0.307278 -0.2671106 0.1830306 -0.2172721 0.1830315 -0.3826743 0.1965077 -0.283432 0.1274837 -0.3833846 0.1295479
413 -0.7495613 0.3219938 -0.3904272 0.3139453 -0.9382696 0.3059263 -0.8153413 0.2977101 -0.96096 0.3187736 -0.5782568 0.1831408 -0.6835439 0.1894857 -0.5409237 0.188218 -0.3157582 0.1409375 -0.5984257 0.1382
414 -0.6216882 0.301088 -0.9044563 0.2993645 -0.3315461 0.2886245 -0.960462 0.3277531 -0.9353894 0.2976293 -0.5981925 0.1865028 -0.3130918 0.1984531 -0.5686782 0.1815134 -0.2971882 0.1411648 -0.3500557 0.1327209
415 -0.2196978 0.3320391 -0.8001193 0.2945349 -0.7346469 0.3076892 -0.5245245 0.2977749 -0.7350414 0.298035 -0.4150215 0.1952504 -0.4254574 0.1853044 -0.6438424 0.1833855 -0.5018175 0.1360484 -0.4692802 0.1338554
416 -0.6204627 0.3126092 -0.8183542 0.3167167 -0.6051274 0.2862234 -0.3814431 0.2921694 -0.6931472 0.3082206 -0.3598577 0.1903782 -0.2578482 0.1922955 -0.4221322 0.184551 -0.3359617 0.1333748 -0.2919342 0.1275863
417 -0.8973083 0.3342255 -0.7713994 0.2885212 -0.7081851 0.291939 -0.2572955 0.3215458 -0.7472144 0.3106302 -0.6689816 0.1823855 -0.4596245 0.1820399 -0.4760827 0.1854218 -0.5010857 0.1346904 -0.2978822 0.1346954
418 -0.6631313 0.3118803 -0.2578291 0.2936493 0.4073069 0.2864445 -0.9264601 0.3118732 -0.7127714 0.3025479 -0.6743747 0.1906735 -0.3746934 0.1896253 -0.7370681 0.1949585 -0.4771223 0.1300753 -0.4538161 0.1369177
419 -0.5986563 0.3066096 -0.960462 0.3277531 -0.2550738 0.2920538 -0.7418251 0.3319723 -0.4855078 0.2858859 -0.2561594 0.1916554 -0.5831627 0.1812909 -0.4760827 0.1854218 -0.2875155 0.1343571 -0.3886124 0.138317
420 -1.147187 0.366569 -0.4971494 0.302717 -0.4922115 0.2879515 -0.6681797 0.2919664 -0.4418328 0.2988071 -0.3114773 0.1814624 -0.2123694 0.1809344 -0.5337581 0.2006863 -0.5253139 0.1278769 -0.4264461 0.1298677
421 -0.6781093 0.32822 -0.3989077 0.3174592 -0.6760944 0.3152225 -0.6931472 0.3082206 -0.5389965 0.3021089 -0.3644247 0.2080664 -0.2950847 0.1867378 -0.5796226 0.1861585 -0.3885128 0.1290187 -0.6815737 0.1496203
422 -0.4480718 0.3010011 -0.7641174 0.3045893 -0.8109302 0.325427 -0.880162 0.2946437 -0.3200199 0.3032655 -0.8402494 0.1904829 -0.573602 0.1880136 -0.5046071 0.1814229 -0.3570826 0.141437 -0.4467795 0.1451647
423 -0.4353181 0.3128842 -0.6306572 0.3034386 -0.8443458 0.3127373 -0.5674565 0.2866688 -0.5718859 0.3425694 -0.2490494 0.1961203 -0.3747968 0.1852222 -0.5157248 0.1835199 -0.222377 0.1309502 -0.1802929 0.1281172
424 -0.9258242 0.3035119 -1.002152 0.3183208 -0.5574813 0.3217194 -0.4095055 0.2872437 -0.7137665 0.2932096 -0.5705831 0.1818377 -0.3894648 0.1807421 -0.2721385 0.184772 -0.4526655 0.1326425 -0.4980459 0.1284774
425 -0.8167611 0.3068109 -0.7271535 0.2962491 -1.128268 0.3106916 -0.7081851 0.291939 -0.5711536 0.3259342 -0.5773154 0.1857612 -0.4351577 0.1914393 -0.5969873 0.2018346 -0.4176664 0.1297792 -0.4867128 0.1326418
426 -0.2839227 0.285313 -0.5029516 0.2912403 -0.4971494 0.302717 -0.5389965 0.3021089 -0.8744783 0.3014633 -0.6325541 0.1922251 -0.5589254 0.1915313 -0.5462377 0.1831744 -0.6175444 0.138342 -0.3405208 0.127657
427 -1.208311 0.3105885 -0.5389965 0.3021089 -1.00079 0.29522 -0.7761181 0.3173638 -0.7472144 0.3106302 -0.6216882 0.1904248 -0.2631338 0.1816427 -0.5046071 0.1814229 -0.4846005 0.1335692 -0.4609036 0.132599
428 -0.4150215 0.2892411 -0.6931472 0.3082206 -0.4221322 0.2918008 -0.3904272 0.3139453 -0.4054651 0.2857738 -0.1212809 0.1862197 -0.6322469 0.2013659 -0.5685011 0.196588 -0.4380995 0.1373119 -0.2662369 0.1382019
429 -0.7534605 0.302192 -0.5217249 0.3442183 -1.117737 0.2954577 -0.6737291 0.2932916 -0.7418251 0.3319723 -0.2535523 0.1841517 -0.2595983 0.1929567 -0.5394073 0.1945213 -0.5550173 0.1296125 -0.141491 0.1330614
430 -0.5389965 0.3021089 -0.8167611 0.3068109 -0.4893853 0.3152582 -0.483116 0.2851465 -0.5389965 0.3021089 -0.5658805 0.1928026 -0.2886669 0.1794035 -0.8571082 0.1884571 -0.4549215 0.1329875 -0.5240726 0.1319778
431 -0.9838152 0.3147613 -1.259349 0.2998443 -0.3483067 0.296011 -0.5773154 0.3134123 -0.4626235 0.2914915 -0.2874861 0.1842738 -0.4981422 0.183267 -0.4275059 0.1896796 -0.6171491 0.130279 -0.6685255 0.1492659
432 -0.5934292 0.2936214 -0.6061358 0.2969906 -0.5389965 0.3021089 -0.3898064 0.2954577 -0.4183685 0.2904481 -0.361373 0.1817794 -0.4245952 0.181437 -0.4632468 0.182788 -0.4871837 0.1315077 -0.3747968 0.1309719
433 -0.4028161 0.284807 -0.7291634 0.2878092 -0.4552198 0.2890455 -0.4624058 0.3059994 -0.4795731 0.3119123 -0.3704301 0.1841079 -0.5333736 0.186818 -0.5187198 0.193997 -0.5266947 0.1312208 -0.4861666 0.1313634
434 -0.6329471 0.3160189 -0.7672552 0.2961133 -0.6632942 0.2907976 -0.6216882 0.301088 -0.7350414 0.298035 -0.7798498 0.1912932 -0.8254206 0.184424 -0.5260571 0.1954482 -0.6904911 0.1405315 -0.6947291 0.1499819
435 -1.154965 0.3016509 -0.3999856 0.2994219 -0.5431499 0.291046 -0.3483067 0.296011 -0.8243173 0.2995791 -0.7107429 0.1861722 -0.3985562 0.1911947 -0.4978992 0.2012111 -0.433 0.1322325 -0.3592603 0.143919
436 -0.6190392 0.2897517 -0.5790339 0.2897793 -0.7271535 0.2962491 -0.4444945 0.3163113 -0.5336403 0.3142937 -0.5023942 0.2021699 -0.1942569 0.1800798 -0.4560825 0.1883233 -0.6357289 0.1323893 -0.4062667 0.143325
437 -0.7053673 0.3112217 -0.8153413 0.2977101 -0.5753641 0.2887954 -0.6631313 0.3118803 -1.044545 0.3265638 -0.3081183 0.2105561 -0.5611787 0.1858256 -0.6571428 0.193397 -0.4365779 0.137063 -0.4011225 0.1406049
438 -0.6631313 0.3118803 -0.6513001 0.3088166 -0.8530533 0.3351327 -0.4795731 0.3119123 -1.007641 0.3112382 -0.2601222 0.1805852 -0.3103261 0.1915971 -0.3306335 0.204071 -0.4767846 0.1288702 -0.5458991 0.1305094
439 -0.5589572 0.2955253 -0.8048065 0.3042357 -0.5232481 0.3110241 -0.9194603 0.3192865 -0.8553787 0.2976293 -0.5917968 0.200884 -0.3518726 0.1881953 -0.4916436 0.1820061 -0.4455064 0.134209 -0.4309984 0.1319142
440 -0.6523611 0.2881745 -0.718763 0.3144996 -0.3814431 0.2921694 -0.7761181 0.3173638 -0.5232481 0.3110241 -0.240054 0.1854512 -0.6612885 0.2031004 -0.3838995 0.192015 -0.2145649 0.128606 -0.2530872 0.1323345
441 -0.4624058 0.3059994 -0.8553787 0.2976293 -0.5861751 0.330531 -0.7231952 0.3050014 -0.4058358 0.301682 -0.4802252 0.1897762 -0.5902416 0.193998 -0.6367032 0.1958528 -0.3432183 0.128174 -0.463727 0.1281512
442 -0.5389965 0.3021089 -1.249339 0.3246248 -0.760999 0.3138466 -0.4361539 0.2967999 -1.015528 0.2978451 -0.4392864 0.2011158 -0.4861818 0.1809418 -0.4777144 0.1968681 -0.3976965 0.1366325 -0.4013242 0.146176
443 -0.4549134 0.303394 -0.7200766 0.2946437 -0.8553787 0.2976293 -0.6513001 0.3088166 -0.8342799 0.3016509 -0.5690537 0.1843344 -0.4545394 0.1843916 -0.4755828 0.2005516 -0.5426929 0.1290768 -0.4605484 0.1351821
444 -0.6090641 0.3094803 -0.7231952 0.3050014 -0.6090641 0.3094803 -0.7694305 0.2881077 -0.8048065 0.3042357 -0.2737529 0.1982326 -0.6554069 0.1851715 -0.5638202 0.1834274 -0.3512384 0.1281615 -0.4091374 0.1311011
445 -1.044545 0.3265638 -0.5389965 0.3021089 -0.6590445 0.2897793 -0.6931472 0.3082206 -0.3746934 0.2894941 -0.3833899 0.1873995 -0.5162916 0.1900506 -0.3516936 0.193102 -0.2806038 0.1348461 -0.3516059 0.1297708
446 -0.6626105 0.3006705 -0.3989077 0.3174592 0.3639654 0.2852006 -0.4706044 0.3088329 -0.7939519 0.3018934 -0.6405034 0.1935372 -0.8058618 0.1839253 -0.5563447 0.2013715 -0.5741284 0.1340691 -0.5716555 0.1287077
447 -0.6466272 0.2966868 -0.4899189 0.3003895 -0.8072925 0.2960321 -0.4545394 0.3200329 -0.9115175 0.3088833 -0.2886264 0.1846454 -0.5266947 0.1855742 -0.4726184 0.1881926 -0.4947929 0.1376333 -0.6466272 0.1429902
448 -0.2864375 0.3097805 -0.5674565 0.2866688 -0.6405034 0.3060092 -0.4309984 0.2949691 -0.8072925 0.2960321 -0.6195671 0.1872964 -0.5728092 0.1822163 -0.8034345 0.2047224 -0.5434408 0.1460833 -0.1656121 0.1397067
449 -0.4263339 0.2933054 -0.5075144 0.2926302 -0.6232889 0.2908252 0.4295414 0.3299158 -0.9258242 0.3035119 -0.4246797 0.1976003 -0.4499169 0.1834108 -0.3989077 0.2007788 -0.7344369 0.1300011 -0.5576903 0.1400172
450 -0.4552198 0.2890455 -0.3690975 0.3049687 -0.6336275 0.2934287 -0.4893853 0.3152582 -0.8472979 0.2960051 -0.4701692 0.1809219 -0.5088037 0.1822163 -0.7481904 0.2078667 -0.2946479 0.140548 -0.3694742 0.1347585
451 -1.026416 0.3516529 -0.4192584 0.3068198 -0.4454704 0.2858018 -0.6076549 0.286866 -0.874646 0.3292112 -0.532878 0.1899145 -0.5643276 0.1958129 -0.3707292 0.1984139 -0.4725767 0.1370216 -0.5396804 0.1340491
452 -0.483116 0.2851465 -0.4081919 0.3212724 -0.3898064 0.2954577 -1.07215 0.294224 -0.8153413 0.2977101 -0.2451225 0.1810241 -0.784119 0.1895898 -0.4246797 0.1976003 -0.2217743 0.1283119 -0.2623027 0.139696
453 -0.524308 0.285652 -0.4473122 0.2864166 -0.4263339 0.2933054 -0.5137517 0.3080179 -0.4545394 0.3200329 -0.3144464 0.1928926 -0.4857929 0.1909296 -0.4537826 0.1878265 -0.7151535 0.1304554 -0.4864411 0.143508
454 -0.9141145 0.2936214 -0.4120725 0.2881745 -0.4263339 0.2933054 -0.6329471 0.3160189 -0.4120725 0.2881745 -0.4467488 0.1940828 -0.4887347 0.2034554 -0.8175392 0.2095905 -0.2875488 0.1388116 -0.5556358 0.1350067
455 -0.6232889 0.2908252 -0.4895482 0.2871321 -0.5674565 0.2866688 -0.6466272 0.3197359 -0.786716 0.330969 -0.3555358 0.1995758 -0.545017 0.1858959 -0.5107153 0.1889624 -0.4820456 0.1284794 -0.5156463 0.1286903
456 -0.4263339 0.2933054 -0.4073069 0.2864445 -0.6990819 0.2898623 -1.005963 0.3033001 -0.4309984 0.2949691 -0.435709 0.1957714 -0.5245245 0.1883294 -0.7481904 0.2078667 -0.3195167 0.1282957 -0.3888447 0.1304965
457 -0.7437909 0.3000119 -0.6903022 0.3188695 -0.6046245 0.2860954 -0.9546172 0.3012501 -0.9202636 0.2947801 -0.3853158 0.1836838 -0.4513856 0.1837229 -0.5856221 0.1817 -0.7582313 0.1439274 -0.7616592 0.1442955
458 -0.7887141 0.310103 -0.6061358 0.2969906 -0.3064596 0.2966316 -0.6498909 0.3342574 -0.4909103 0.3332674 -0.2632906 0.1943453 -0.6191105 0.1845585 -0.4074752 0.1850145 -0.4560825 0.1331647 -0.3222678 0.1402201
459 -0.545017 0.3178497 -0.5711536 0.3259342 -0.6554069 0.2889063 -0.5790339 0.2897793 -0.4019955 0.2845041 -0.1892564 0.1947663 -0.4926051 0.2136002 -0.3555033 0.1845651 -0.41215 0.1443998 -0.4379004 0.1291049
460 -0.6590445 0.2897793 -0.2910548 0.2889368 -0.6513001 0.3088166 -0.9838152 0.3147613 -1.105324 0.3138991 -0.3387737 0.1894279 -0.4702705 0.187702 -0.5030311 0.1982766 -0.3557018 0.1355451 -0.4250063 0.1366497
461 -0.7032996 0.3003124 -1.024504 0.2994448 -1.218757 0.3057413 -0.8967461 0.3239518 -0.7058862 0.3228518 -0.5022027 0.1809673 -0.5126097 0.186054 -0.4690627 0.1839846 -0.2753268 0.1431804 -0.3123494 0.1359301
462 -0.5232481 0.3110241 -0.8553787 0.2976293 -0.4058358 0.301682 -0.4444945 0.3163113 -0.7200766 0.2946437 -0.4068029 0.1978621 -0.4460134 0.1981753 -0.6220666 0.1824684 -0.4058358 0.1349163 -0.5572821 0.1330158
463 -0.7937771 0.2932096 -0.4183685 0.3254136 -0.2962658 0.2915595 -0.6631313 0.3118803 -0.4495429 0.2871599 -0.6393757 0.185202 -0.662326 0.2065652 -0.4706044 0.1953231 -0.2880502 0.1304313 -0.5728782 0.1433322
464 -0.4095055 0.2872437 -1.007641 0.3112382 -0.6135329 0.2989429 -0.4988949 0.290001 -0.4122448 0.3041433 -0.3185219 0.2002064 -0.468979 0.1910924 -0.2858399 0.1894451 -0.4281427 0.131459 -0.5290974 0.1349483
465 -0.6405034 0.3060092 -0.5832515 0.2909078 -0.7495613 0.3219938 -0.6781093 0.32822 -0.4221322 0.2918008 -0.6118731 0.1978092 -0.3826743 0.1965077 -0.5722221 0.1907929 -0.4144004 0.1292522 -0.2827681 0.1311707
466 -0.4776276 0.3284756 -1.010263 0.3380451 -0.2962658 0.2915595 -0.3826743 0.310706 -0.4549134 0.303394 -0.6260296 0.207113 -0.4265185 0.1818631 -0.2797226 0.1873714 -0.650861 0.1313279 -0.6168931 0.1321291
467 -0.8243173 0.2995791 -0.2864375 0.3097805 -0.7472144 0.3106302 -0.6873163 0.2871695 -0.9409833 0.3333968 -0.4061596 0.1808993 -0.871931 0.2039875 -0.3414993 0.1954869 -0.4732241 0.1344441 -0.2672542 0.1384699
468 -0.6336275 0.2934287 -0.6760944 0.3152225 -0.467023 0.2929382 -0.5245245 0.2977749 -0.5726107 0.2993628 -0.4561802 0.2051276 -0.3615411 0.1861692 -0.7370681 0.1949585 -0.4397266 0.1281527 -0.7171739 0.1366737
469 -0.6466272 0.2966868 -0.4150215 0.2892411 -0.6466272 0.2966868 -0.5986563 0.3066096 -0.9844669 0.2993645 -0.5016347 0.1941865 -0.2602402 0.1865991 -0.3804638 0.2010869 -0.6467735 0.1365643 -0.3433781 0.1406105
470 -0.5986563 0.3066096 -0.4473122 0.2864166 -0.2710438 0.3301675 -0.9671491 0.3115279 -0.8081624 0.3361236 -0.3690975 0.1837668 -0.6290332 0.1976155 -0.6392689 0.2094981 -0.3788789 0.131705 -0.515592 0.1308438
471 -0.6554069 0.2889063 -0.6061358 0.2969906 -0.5832515 0.2909078 -0.6216882 0.301088 -0.4776276 0.3284756 -0.6090069 0.1883131 -0.3732784 0.1848354 -0.4917861 0.192166 -0.3433781 0.1406105 -0.4398057 0.1293968
472 -0.8553787 0.2976293 -0.8028461 0.31326 -0.4719207 0.2945429 -0.6190392 0.2897517 -0.7032996 0.2908252 -0.5819215 0.1810843 -0.5107153 0.1889624 -0.3518726 0.1881953 -0.5191082 0.1501469 -0.5792544 0.139219
473 -0.874646 0.3292112 -0.8979416 0.3061654 -0.3898064 0.2954577 -0.9679921 0.3614906 -0.7383294 0.3442248 -0.5420444 0.1824263 -0.5471674 0.1960083 -0.7962169 0.2036662 -0.172511 0.1314425 -0.4617537 0.1314617
